353 128
1538 0.05440597 0.3479756 0.40577343 0.25459522 -0.12200618 -0.50287956 0.2823075 0.33961445 0.09514434 0.19731045 0.12623185 -0.64669764 0.14234532 0.2896742 -0.31716067 -0.21897134 -0.27008182 -0.02886948 -0.464297 0.11428935 0.28801715 0.17614007 0.5079265 -0.014189895 -0.34703577 0.2087608 0.109059714 0.26617086 -0.12184739 -0.27361912 -0.27019462 0.42629445 0.29876414 -0.28723195 -0.90291184 0.13567498 1.0732725 0.30108202 0.62987983 -0.38236853 -0.26956192 0.43022206 -0.16685863 -0.20727612 -0.24489196 0.35715798 -0.5747161 0.035870917 0.2559429 0.26036435 0.00074565556 0.15849778 -0.3056085 0.06449618 0.23167345 -0.37393937 0.5233348 -0.7804857 -0.40655196 -0.2070601 0.20706251 0.017126258 -0.22031114 -0.124490336 0.57545 -0.19086367 0.07695181 -0.098698236 -0.34641492 -0.043432068 -0.03699844 0.37029526 -0.5343218 0.06467011 0.56725055 -0.06493339 0.056509204 0.43738768 0.15178673 0.061877307 -0.090217754 -0.264609 0.084843375 0.019728104 -0.099652916 0.7916342 -0.045044534 -0.25464985 0.024496065 -0.06010141 0.15452157 0.121648975 -0.03968251 0.017840723 0.37357768 0.5292554 -0.61078024 -0.7731751 -0.17713633 0.64135116 -0.6019157 0.4269804 0.013172909 0.01657226 0.13865678 -0.5368883 0.29502663 -0.15305981 -0.24063256 -0.15966046 -0.19453454 -0.15066163 0.11281658 0.68558884 0.13918966 0.5007394 -0.17969723 0.5589838 -0.10948612 0.04505735 0.20313069 -0.28889424 0.34188128 -0.10293447 0.004953971 -0.36037064 -0.032219063 0.29259193
10 -0.34366378 0.22375396 0.2412174 0.29164925 0.6166404 -0.565471 0.65313774 0.14490192 0.124186665 0.41098443 0.6442578 0.6098259 1.028048 -0.88895124 -0.06343993 -0.19685279 -0.57806724 0.30772898 -0.10077459 -0.13541768 0.1770492 0.13606171 0.24147101 -0.67179143 -0.39665654 0.6451068 -0.44989008 0.39471358 0.18032683 -0.24435285 -0.2613594 -0.26108155 -0.11627274 0.4541672 0.30911884 0.25861633 -0.014548106 -0.008598443 0.38855967 0.025395973 -0.021750936 -0.13100272 -0.32542232 -0.4837678 -0.14581156 0.08051536 -0.58790624 -0.9810788 -0.30486652 -0.9116911 0.5667744 -0.2554785 -0.23080887 0.10341863 -0.22377019 -0.13369791 -0.17302501 -0.30600753 -0.24944949 -0.35175943 0.056359846 -0.3569684 0.19826455 0.12482673 0.22518298 -0.74006194 -0.10479563 0.27363554 1.1260383 -0.080235235 -0.45333278 0.33265907 -0.15269305 -0.34335163 -0.27210593 -0.29212588 0.11568786 0.17406124 0.17006597 0.18540077 -0.317631 0.3751644 -0.22421293 0.009249783 0.41383216 0.657715 0.21804447 0.020745482 0.3458892 0.14711413 -0.342071 0.3081165 0.22640155 -0.073753044 -0.28680763 -0.89150846 -0.079747275 -0.47875783 0.5841017 0.07051184 -0.42316988 0.05230667 1.0470345 -0.002034736 -0.8106833 0.39584166 -0.45888036 0.6230241 0.27624783 0.11949224 0.17777549 -0.341465 -0.12734638 0.01865664 -0.12696932 0.27344218 0.062199518 0.34264553 -0.20798679 -0.4159123 -0.7186571 -0.260352 0.39731723 -0.3087098 -0.69931656 -0.49010375 -0.40763232 -0.55599326
1522 -0.5472233 -0.65628284 -0.07670138 -0.59116244 0.6289034 -0.31044662 0.49311313 0.10734743 -0.86011416 0.64706534 0.76498795 0.7502567 -0.78190607 0.18327595 0.45395806 -0.154248 -0.13531643 -0.05063583 -0.21465355 0.052195728 0.47279814 0.1998533 -0.044801697 0.053398743 0.17967366 0.2398804 -0.23884463 -0.25377095 0.44213036 -0.83432984 -0.6779818 -0.29534304 0.4382176 0.2299169 -0.62550235 0.65177846 0.7353262 -0.18386371 0.7232185 -0.23910706 0.507947 0.61462766 -0.31298175 -0.44102827 0.2203466 0.5991648 -0.42724264 -0.5788766 0.30100727 -0.3241334 0.34829453 0.5532224 -0.23049499 -0.19588168 0.5631378 0.42068684 0.115329005 -1.0056086 0.25043812 0.051085226 0.4682982 -0.38784418 -0.40893552 0.6270474 -0.27557534 -0.21294858 0.68701243 0.8992127 -0.29655385 -0.4371211 0.15141717 -0.17174186 0.10194782 -0.007834384 -0.11737551 -0.10735177 -0.7889543 -0.12174477 0.29951665 0.65210575 -0.001526897 -0.44387758 -0.11977787 1.0759181 -0.07029299 0.63940716 0.39751768 -0.28703284 0.66805327 -0.02489477 -0.22356763 -0.1859083 -0.20139526 -0.32810247 0.69132584 0.03337242 -0.9039074 -0.69801176 -0.15786797 0.13356218 -0.20979343 0.8777856 0.4040515 2.4305864e-05 0.45980647 0.17125538 0.6064221 -0.25428697 0.26512566 -0.21773541 0.15514757 0.19817844 -0.06352899 -0.51169366 0.3293317 0.03963919 -0.40968707 0.3630212 0.15084916 0.09881455 -0.24781159 0.24040014 -0.15956852 0.359793 -0.83594364 -0.27485475 -0.5384667 -0.1216553
60 -0.22385818 -0.045926984 0.4663541 0.24513683 0.61320215 -0.2551453 0.129321 -0.15937753 -0.26140943 -0.4143524 0.44344386 0.059362132 0.3846808 -0.6322644 -0.09513492 -0.393748 -0.2213197 0.08106136 -0.4007164 0.20094766 0.037706163 0.49687934 0.4480836 -0.14945257 -0.28810292 0.6978553 -0.5119035 0.25325456 -0.76109123 -0.16573846 0.07891254 -0.4647877 -0.03026959 0.5406346 0.11598314 -0.1335533 -0.3746266 -0.2789609 0.3339617 0.26078102 -0.3593097 -0.38757497 -0.4043035 -0.11653881 0.24076563 0.18482776 0.1819327 -0.47890064 -0.14272626 -0.34722653 0.6470046 0.03864453 -0.20361632 0.09557796 -0.41233462 -0.12867504 0.28117475 -0.4470396 0.10471477 0.05735129 0.15368618 -0.3082097 0.18929216 -0.028914627 0.42300093 -0.40959623 0.10112072 0.17576836 0.84393436 -0.06320805 -0.4105963 -0.11274578 -0.4848334 -0.12949258 -0.23320822 0.0017592337 0.43388364 -0.1282107 0.026330873 0.2567134 -0.2696343 0.19714968 0.2783359 0.4092893 0.026489435 0.4194037 0.119068295 0.39374027 0.10541566 0.17690875 -0.256734 0.081344694 0.036683965 0.2173326 -0.08562583 -0.6025571 -0.26482934 -0.21319222 -0.3824562 -0.123378634 -0.13063459 -0.449529 0.25790256 0.06808762 -0.4281141 -0.115660004 -0.30006024 -0.15368474 0.24238054 -0.16689716 0.08168545 -0.4493506 0.27010566 -0.07320942 -0.32138333 -0.062170394 -0.17676648 0.15789491 -0.004376818 -0.4268684 -0.8198416 -0.17542279 0.048482712 -0.008698568 -0.65152013 -0.28164333 -0.446264 -0.05573898
1545 -0.7845398 -0.6582055 0.20420969 -0.8169678 0.1496473 -0.62761784 0.48998168 -0.12002062 -0.73676 0.39052942 0.8266192 0.569734 -0.89498127 -0.14740221 0.3091855 -0.27376246 -0.31826624 0.18629567 0.11007882 -0.3770428 -0.008020321 -0.17937265 -0.071955465 0.25576434 0.22055152 0.6556705 0.08770226 -0.023760213 0.6828323 -0.696498 -0.5591809 -0.20284088 0.029224355 -0.25808388 -0.4369726 0.2863331 0.34264773 0.12976915 0.43105757 -0.48504934 0.63405704 0.42971206 -0.43906605 -0.15039617 0.84763306 0.1725204 -0.65394235 -0.8517809 0.50197273 -0.08510543 0.45347917 -0.17042981 -0.08969952 0.3600505 0.34558913 0.14047499 -0.14364772 -0.9741696 -0.13769726 0.3408479 0.25609306 0.18169014 0.055944808 0.6365226 -0.22450155 -0.013785623 0.1246456 0.58683836 0.08658187 -0.5214747 0.22976641 -0.3632439 -0.08036692 -0.3381264 -0.21029136 0.32757 -0.6681015 0.1372076 0.46622926 0.6037157 -0.5141684 -0.5958547 0.5644684 0.8995151 -0.1617323 0.16889161 0.4029759 -0.31245768 0.73538 -0.10275417 -0.22810476 -0.12503728 -0.08369308 -0.24914624 0.65339494 0.10575072 -0.55017203 -0.60941523 0.36630723 0.13413334 -0.28466296 0.8533616 -0.19792758 0.07648314 0.54973185 0.25661945 0.29187655 -0.61424804 0.20008491 -0.44776675 0.5751213 0.0254342 0.10228215 -0.44441608 0.031513423 0.13450256 -0.3619023 -0.012573433 0.16803357 0.47778744 -0.1561258 0.28148228 -0.19925335 0.44459233 -0.67703253 -0.76611876 -0.49599525 -0.39222324
903 0.6077398 -0.18874623 0.2895319 -0.2876279 0.56400913 0.27512464 0.17057383 -0.5185176 -0.35831845 -0.23277387 0.2999472 -0.97232735 -0.30837002 -0.61335856 -0.1935372 -0.34726933 -0.34592533 -0.6388866 -1.0357416 -0.2656467 0.26550895 0.03555538 0.17171484 -0.1170277 -0.42243347 1.1705736 -0.38405043 -0.54749787 -0.5659994 -0.70753694 -0.77849656 -0.01747242 -0.026087169 0.66623175 0.8742151 0.053956345 0.37285987 0.22049034 0.1603423 0.15973727 0.2371927 -0.47586706 -0.39280307 0.009257429 0.3057673 -0.435197 0.029362634 -0.64151865 -0.47356868 -0.20578927 -0.05819117 -0.0111278035 0.063343376 0.4036211 -0.5094668 -0.22907926 1.0475782 -0.40055993 -0.4555675 0.21323772 0.37020233 -0.6251322 1.0079802 0.6163135 -0.05656801 -0.25342873 -0.0040911147 -0.30484265 -0.047793206 -0.67441106 0.043786008 0.23642643 0.06469477 -0.7333151 -0.24789311 -0.19921389 0.2509498 -0.05402914 -0.4132277 -0.30165875 0.06672224 0.11510221 0.44161388 0.15316132 -0.4043243 0.892421 0.07285942 0.41149312 -0.21311298 0.8781088 -0.8934033 0.008749984 -0.21735111 -0.7207107 -0.045147795 -0.3069156 -0.47431326 -0.0509571 -0.35778138 -0.22769782 0.13307317 -0.061172172 0.18159772 0.20121859 0.5317356 -0.17639962 -0.6083202 -0.27176413 0.68375826 -0.26944155 -0.4791182 -0.21021304 0.57571024 -0.476119 -0.11140029 0.7008962 -0.8739301 0.49975154 -0.16804996 6.892628e-05 -0.1454566 -0.5151122 -0.14651194 0.47305396 -0.080470726 0.117060825 -1.1392817 0.59567016
416 0.044977188 -0.21996178 0.06377581 -0.22404107 0.5350658 -0.4975796 0.104170546 0.25857666 0.73981595 -0.23601866 0.28854564 -0.40141547 -0.03463366 -0.28667024 -0.038147382 0.5306667 0.15990607 -0.07801489 0.1897941 0.5740413 0.54441655 0.023986075 -0.294301 -0.59779316 -0.706696 0.61239755 -0.43587965 -0.24430816 0.21704483 -0.36634907 -0.09914083 -0.12734778 -0.41692933 0.93010366 0.31268737 1.2550551 0.7722418 0.33855838 0.79537874 -0.42864186 -0.31113926 0.61106277 -0.17962174 -0.6987605 0.48719853 -0.41208515 0.0033814237 -0.33387107 -0.057569068 -0.065161794 -0.8015753 -0.20744279 0.29462188 0.59516585 0.27249545 -1.0822023 0.37866193 0.32064125 -0.37172788 -0.69834316 -0.15707323 0.0011318949 0.5961417 -0.2830906 0.68853015 -0.13205074 -0.28519395 0.41129845 0.0117682265 0.0085803475 0.6388589 -0.24773315 -0.5781885 -0.06483899 -0.16596329 -0.30394647 0.05151977 -0.4705348 -0.47669828 0.41410094 -0.25637063 -0.7881347 -0.08922048 0.5409095 -0.15803958 -0.14381863 0.19688073 -0.8742353 0.5888944 -0.08401925 0.005787948 -0.2981018 -0.20140222 -0.028951913 0.9367466 -0.028298365 -0.93307835 0.10795229 -0.22307737 -0.012276409 -0.66059625 -0.010836255 -0.20377997 -0.18857057 0.4606857 0.41854286 -0.25797555 -0.066003084 0.044001225 -0.87163293 -0.4899928 -0.035515226 0.019277276 -0.22762048 0.42673922 0.29693407 -0.1470306 0.27077764 -0.041844003 0.34283492 -0.288559 -0.1940379 -0.35599622 0.11072035 -0.07619532 -0.08606559 0.47107482 0.39926273
1529 -0.13495293 0.60446846 0.5677229 -0.70320654 0.025418967 -0.75744385 -0.27457744 0.55901515 -0.07785325 -0.19941495 0.12026068 0.51024675 -0.06796195 -0.5126419 0.07184064 -0.49341685 -0.08573493 -0.12254881 -0.46285453 0.22122712 0.27942744 -0.57424015 0.45857805 -0.8327366 -0.26754227 1.0355635 -0.40749386 -0.11224058 0.53631085 -0.48038262 -0.88499737 0.8317673 -0.15199547 -0.083275005 -0.08717521 1.0265528 1.0159895 0.44593644 -0.9209778 0.015570131 -0.26134935 0.80040485 0.15217556 0.13743477 0.45606613 0.4551736 -0.61884445 -1.03974 -0.02624025 0.46530867 0.0019039791 0.15148082 0.05048397 0.75762177 -0.08605335 0.32069468 0.16009007 -0.20164716 -0.30203792 -0.1746047 -0.1263993 -0.110479884 0.0064587677 -0.4510257 -0.041461412 0.38923627 0.71143967 -0.004436318 0.011590502 -0.44925433 -0.1541848 -0.73225725 -0.909103 -0.3092991 0.20630553 0.6037945 -0.3636429 -0.5804596 -0.16211219 -0.4398714 0.15664057 -0.5583549 0.8848126 0.33811408 0.28363132 0.22971658 0.07670416 -0.07843661 0.23003964 -0.11903436 -0.88044804 -0.22164752 0.7034453 0.34631622 -0.1480554 0.4207539 -0.101011276 -0.62609476 0.71146697 -0.45058775 -0.97259593 0.53211075 0.8426807 0.20011842 0.46613166 -0.101248115 0.4005603 -0.8108443 -0.36502102 -0.90510947 -0.12223452 -0.26513878 0.19637156 -0.20653857 0.351924 -0.10722777 0.34015122 -0.4545775 0.5167579 0.4796098 -0.03946322 -0.51966745 -0.0870788 -0.6962157 -0.48610342 -0.38163584 0.0492425 -0.03356534
1234 -0.4809106 0.028668117 -0.36548507 -0.04869579 0.6992984 -0.24182324 0.18610817 -0.027154969 0.2656479 0.42446464 0.86228615 0.38882488 0.50368303 -0.7734953 -0.025313279 -0.10352743 -0.36287802 -0.01218463 -0.57981426 0.84481025 -0.09662853 0.16788822 0.12169221 -0.17474581 -1.148395 0.6649528 -0.47147155 -0.09241815 -0.8602548 -0.25993037 -0.102423124 -0.24679168 -0.032890536 0.034253146 0.6208594 0.3860271 -0.32261872 -0.38862625 0.44943696 -0.21486388 -0.58989906 0.34925446 -0.66195166 -0.698823 0.66791195 -0.3005964 0.03399959 0.10218645 -0.3192233 0.44394147 0.31138706 0.398946 0.22998367 -0.2451985 -0.40721768 0.29093945 0.8301546 0.01381657 0.13865249 0.3971833 -0.68543273 -0.056330066 0.1754472 0.5531604 0.49197945 0.36479157 0.4332551 0.15689299 0.35993516 -0.12392901 -0.19368441 0.0040285606 0.26009038 -0.6518527 -0.13700265 -0.5876374 0.42570785 0.39760384 0.052675225 0.29127705 0.5049527 -0.25989175 0.53780013 0.84722257 -0.019295344 0.32488498 0.49789983 0.1741214 0.038960937 0.5951804 -0.32240087 -0.2451935 -0.24174082 -0.8554277 0.04423733 -0.59634304 -0.91428345 -0.81513554 0.608496 -0.7366515 -0.81697404 -0.4556713 -0.4206234 0.65180576 0.08584669 0.007424028 0.16274442 -0.29304093 0.030597571 -0.32273182 0.12589853 -0.37145343 0.06709932 0.48263934 -0.7832421 -0.21745947 -0.7498426 0.10046362 0.28336903 0.31372005 -0.8083702 -0.45328695 0.23945019 0.11061909 -0.33958396 0.10110704 -0.3019527 -0.19039814
1624 0.29486302 0.24352913 0.117639564 0.1898303 -0.04191506 -0.5059365 -0.098718494 0.26384765 0.13965791 0.15557413 -0.13676178 -0.5728988 0.19920799 0.03569528 0.27453712 -0.37754157 -0.40656605 0.0637296 -0.39519575 -0.22721997 0.1972621 0.3762042 0.10788221 0.19022372 -0.06764467 0.31053257 0.31724888 0.13623762 0.45510694 -0.07978854 -0.66969246 0.18551387 0.09004899 -0.15676872 -0.9899653 0.17412241 0.8417635 0.60266334 0.7632436 -0.28624612 -0.34625763 0.27150342 0.19345176 -0.033615395 -0.13044523 0.28907704 -0.5400357 -0.37430415 0.34585926 0.15677717 -0.030360404 -0.26963925 0.05205864 0.44487393 0.103456885 0.14033026 0.20955797 -0.7315216 -0.5640222 0.039491232 0.2505764 0.15136246 -0.26144063 -0.13896514 0.6538452 -0.1299958 0.012577294 -0.38819376 0.019310258 -0.21755461 0.39307994 0.46683744 -0.64861107 0.330908 0.16973545 -0.017883835 -0.15127712 0.42773268 -0.010826122 0.49000707 -0.19696225 -0.37273955 0.105121024 -0.09835796 -0.05331907 0.43184835 0.30716622 -0.4080155 0.14538917 -0.11208161 -0.03826319 0.13415785 -0.0940862 0.22402005 0.46370432 0.14552747 -0.76840895 -0.9254084 -0.24325018 0.04573987 -0.3921064 0.20161194 -0.046344515 -0.10006065 0.0038604257 -0.2110089 0.31207678 -0.55508006 0.03343076 0.22255297 -0.16124801 -0.18208069 0.09041513 0.60616696 0.015141523 0.29306173 -0.5576072 0.57186 0.07591339 0.38583472 0.31134927 -0.46622345 0.047594193 0.15515837 0.08630531 -0.4635783 0.012209368 -0.07347784
1558 -0.36521164 0.6858469 0.21616155 0.40772718 -0.10162501 -0.33980694 0.67761296 0.01769242 -0.36984628 0.41735375 0.5975092 -0.2208615 0.3058628 -0.7038593 0.18757145 0.012588636 0.0738692 0.45360494 0.07632643 0.40630394 -0.334343 0.53050977 -0.58849764 -0.48447162 -0.7259096 -0.11249284 -0.6049314 -0.2491447 -0.11093151 -0.25443614 -0.61424 0.3571924 -0.36576083 -0.067206554 0.32269898 0.7967373 1.2778481 0.36622182 0.3210159 -0.3576158 0.09032591 0.434398 0.24684776 0.20660613 0.3518603 0.6491402 -0.9044851 -0.8026294 0.23229732 0.5699057 0.6468428 0.20570457 0.49284104 0.105690084 0.29454222 -0.49699464 -0.09263098 0.2965263 -0.5186226 -0.29079708 0.019652117 -0.113565505 0.50258917 0.113394566 0.4305416 -0.64082557 -0.40782925 0.04303861 0.13439927 -0.6913402 0.2207744 0.07507865 -0.66204756 -0.12410117 0.001678519 -0.14547056 0.22107811 -0.22184294 -0.37066823 0.4321431 0.23228517 0.12255512 0.64024377 0.88071686 0.2643414 0.36568284 0.5142325 -0.3461025 0.50884795 0.10595406 -0.48386693 -0.28900638 -0.46889722 0.1630277 0.8222032 0.7962192 -0.405393 -0.23245364 0.27064207 -0.35218292 -0.36153755 -0.104215786 0.72710377 0.3319813 0.26266208 0.35042527 0.51182467 0.29522365 0.058673427 -0.9339723 0.5576969 0.4615497 0.30505306 0.14700851 -0.23885924 -0.081627294 0.11157933 -0.091899715 -0.4389581 0.8868618 0.4092576 -0.15856294 0.056440182 -0.52968866 0.26354456 -0.3451441 0.03405861 0.3875148
1633 0.2745136 0.33598283 -0.022588002 0.16669129 -0.042513225 -0.4314739 0.0070260465 0.43205625 0.15031046 0.2951389 -0.10020669 -0.50656796 0.21915965 0.0132313045 0.27741265 -0.35173365 -0.34907582 0.08860413 -0.49438927 -0.33675933 0.24622908 0.41228372 0.1251745 0.09845813 -0.18583962 0.2801543 0.3487354 0.1635973 0.4821811 -0.094824545 -0.63526636 0.16162294 0.062400635 -0.37623104 -0.85483724 0.19550613 0.9146596 0.5759006 0.7718418 -0.3044037 -0.24066891 0.370863 0.20205025 -0.07833651 -0.0559092 0.16463013 -0.70317334 -0.2680909 0.3371972 0.13146316 -0.007814483 -0.235655 0.1476423 0.46487257 0.15650731 0.19531131 0.10679525 -0.58092535 -0.50308913 0.13878171 0.159257 0.20983599 -0.18429044 -0.21387069 0.48558673 -0.06528122 -0.011361841 -0.35655457 0.008509698 -0.3130579 0.44816646 0.45162064 -0.6069325 0.3699025 0.105400994 -0.15241386 -0.10248321 0.5870968 0.0849644 0.5140484 -0.050745074 -0.3355006 -0.056632407 -0.12003761 -0.06371761 0.48941723 0.29872474 -0.4268375 0.22062299 -0.082870744 -0.017371923 0.15164493 -0.024889579 0.16163975 0.47651762 0.21818006 -0.7366168 -0.9429359 -0.1162472 -0.0014145982 -0.32989353 0.1397156 0.013879622 -0.14580043 0.031319942 -0.25661877 0.3371903 -0.4227565 0.16161372 0.3212569 -0.0851441 -0.22284731 0.15644592 0.55986524 0.08996355 0.34532735 -0.5379203 0.6834461 0.018038103 0.46448132 0.18913484 -0.4086926 0.011186476 0.07725042 0.13372894 -0.41379052 -0.14817879 0.019940488
1588 0.24149631 0.15945914 0.1518463 0.0821354 0.02487284 -0.47923702 -0.07063031 0.3106609 0.23968619 0.19349205 -0.08691013 -0.4984527 0.26662356 0.057717413 0.25712806 -0.36966625 -0.31185797 -0.049332883 -0.43010533 -0.25641987 0.32992297 0.285389 0.15512022 0.1922802 -0.2288749 0.35268024 0.47168514 0.24506885 0.3816342 -0.2001072 -0.68944937 0.18936329 0.009789647 -0.2087319 -0.92443305 0.18935785 0.9290169 0.46669254 0.796272 -0.23997726 -0.32751563 0.3249053 0.2665666 -0.108606316 -0.14153312 0.2554839 -0.55615693 -0.25335345 0.41555086 0.31532228 -0.08538144 -0.31457826 0.09219479 0.31626382 0.16343184 0.20178661 0.06037863 -0.7014707 -0.5154732 0.16111934 0.25055793 0.17669518 -0.2427852 -0.13701798 0.49704704 -0.087930314 0.004168616 -0.32883906 -0.01340858 -0.31453326 0.42419755 0.5400065 -0.696127 0.4101663 0.044378158 -0.07971041 -0.17300983 0.46745384 0.07736015 0.52004015 -0.10656012 -0.29548904 0.040722758 -0.1309121 -0.070639245 0.4807529 0.36569607 -0.47663474 0.0801106 -0.06346419 -0.05247732 0.08898541 0.03440856 0.1555665 0.43408006 0.25049856 -0.79352933 -1.0378704 -0.073975556 -0.1054676 -0.23614879 0.15554158 0.09912314 -0.09697939 0.040920585 -0.33004186 0.32901073 -0.55133414 0.028505627 0.20941405 -0.16011065 -0.23731956 0.08678408 0.5991003 0.051116455 0.23209451 -0.56913394 0.63639444 0.054007865 0.34077924 0.16943319 -0.30313185 0.13023147 -0.011876289 0.066262245 -0.39544457 -0.13026385 0.0023048373
1625 0.36313543 0.21208869 0.0502749 0.26382023 0.07677841 -0.34275138 -0.07288048 0.4444943 0.14068739 0.18713881 -0.07538515 -0.59371763 0.2554067 0.004607875 0.26661727 -0.27416208 -0.35063496 0.017990772 -0.45853636 -0.21148041 0.2491828 0.33959058 0.22942235 0.1100118 -0.13718177 0.24544656 0.3839498 0.12586565 0.47813615 -0.16077384 -0.76626027 0.22305313 0.017399512 -0.24034096 -1.0029156 0.24411461 0.8812361 0.4303267 0.7338347 -0.25203374 -0.26954383 0.28898075 0.11534389 -0.084539 -0.14184007 0.18046638 -0.53775656 -0.28756383 0.35527688 0.20661195 -0.051995046 -0.1804647 0.080672614 0.32049933 0.15847662 0.03840379 0.1918514 -0.68357325 -0.4794896 0.02987231 0.1985965 0.07491642 -0.18873474 -0.14193986 0.5257704 -0.1950066 -0.05731944 -0.37021446 -0.013368665 -0.2689264 0.44970825 0.51715165 -0.7017061 0.3252184 0.12690403 -0.112537526 -0.14526172 0.356492 0.122799635 0.49542496 -0.06454003 -0.47155645 -0.07278428 -0.107139476 -0.04744598 0.2914553 0.3034799 -0.3422878 0.20593531 -0.0655942 -0.059676822 0.14466302 0.02178674 0.21353306 0.40784127 0.19521268 -0.803243 -0.9702983 -0.3174532 -0.010158255 -0.33031362 0.23624946 0.116471335 -0.10150295 0.046236895 -0.39505255 0.39124653 -0.65627843 0.112791084 0.2639783 -0.17577182 -0.2041258 0.108770095 0.6607957 0.13526446 0.27538848 -0.64783394 0.5832257 0.16189757 0.44493243 0.2289837 -0.37409547 0.082044505 0.16192073 0.069923125 -0.44829684 -0.11448142 -0.13194318
1575 0.25584865 0.25906506 0.07449915 0.28279394 -0.08697262 -0.36320964 -0.10380956 0.31118876 0.26253316 0.11508485 -0.13931026 -0.5843251 0.22859548 -0.01781624 0.31408393 -0.40556768 -0.3773449 0.1164316 -0.36372867 -0.28717244 0.16126345 0.37496194 0.1522937 0.122462325 -0.156791 0.315326 0.25841832 0.11403349 0.45282137 -0.13931237 -0.77039534 0.16283384 0.073804565 -0.26163283 -0.9944844 0.29183567 0.83586746 0.55360967 0.78840697 -0.31379184 -0.25999966 0.24758054 0.16457945 -0.109764256 -0.16514526 0.1631362 -0.5150785 -0.28850073 0.28503862 0.2236291 0.038660385 -0.2328702 0.087302625 0.4267245 0.09073069 0.08674652 0.1754994 -0.60916823 -0.57179284 0.07170663 0.14368246 0.17808098 -0.121684566 -0.16563915 0.52978325 -0.105593085 -0.007619847 -0.32144657 -0.083154924 -0.20734198 0.45020863 0.62729645 -0.6020706 0.2450308 0.050207965 -0.15221718 -0.19628996 0.4797661 0.061502185 0.5060675 -0.029182972 -0.30919638 -0.052943464 -0.11488992 -0.052230142 0.3437912 0.2432026 -0.4648834 0.20868534 -0.0405528 -0.14531289 0.18336287 -0.11814259 0.27172714 0.46601593 0.20103961 -0.8190651 -0.98097426 -0.19596377 -0.03184309 -0.30756262 0.09085134 0.03992946 -0.20982991 -0.005558231 -0.21953063 0.2710241 -0.5519071 0.0097179115 0.2592363 -0.1085598 -0.19573532 0.06946178 0.6177118 0.06695082 0.1942329 -0.6349229 0.6407028 0.06203106 0.43491524 0.11990285 -0.32975134 0.021625206 0.024245704 0.15133394 -0.4474951 -0.10597992 -0.045988396
1587 0.30648 0.21124558 0.10677422 0.18869105 -0.119773924 -0.48611113 -0.11871675 0.2759273 0.18780074 0.08753853 -0.098695375 -0.45463327 0.19519824 0.06208191 0.3036538 -0.39285704 -0.46803543 0.027624622 -0.47434026 -0.28690767 0.28977653 0.44318774 0.14825429 0.17539454 -0.10517923 0.27996093 0.2242332 0.20865735 0.47615662 -0.07253504 -0.6700008 0.18929371 0.048961233 -0.23092784 -0.96765244 0.24342987 0.8445205 0.60341233 0.83252305 -0.23272514 -0.407008 0.2803076 0.17390308 0.09127783 -0.16768329 0.18178375 -0.7609747 -0.32789266 0.31176525 0.2966507 -0.045371555 -0.11264641 0.16232248 0.3972275 0.23117124 0.18081732 0.1830777 -0.6944962 -0.51812726 0.13652407 0.15555608 0.10251628 -0.16487335 -0.2484483 0.49451256 -0.04979359 0.005717903 -0.48890013 -0.005240776 -0.2573515 0.40858465 0.5602787 -0.65182906 0.3931851 0.07524795 -0.0050769486 -0.13159272 0.44191515 0.022424 0.50055206 -0.17050606 -0.2599052 0.18635504 -0.019806914 -0.08320466 0.45876878 0.26346788 -0.31588295 0.17057972 -0.08779565 -0.044476073 0.1445068 -0.08999656 0.27365768 0.47639683 0.19415838 -0.7420185 -0.85291666 -0.1737289 -0.057262667 -0.29576516 0.0419945 0.020794056 -0.07758051 -0.08961811 -0.31219116 0.33695576 -0.40430993 -0.022308622 0.21765308 -0.07052323 -0.19012932 0.16161591 0.6497059 0.09859644 0.2774347 -0.56689227 0.7016761 0.016603725 0.42586344 0.2874147 -0.38414824 0.13386796 0.117919736 0.15593337 -0.5007129 -0.0800058 -0.013321735
1680 0.33637512 0.3534595 -0.048861906 0.17310019 -0.082568415 -0.48610952 -0.08651938 0.42549184 0.12298533 0.26090997 -0.19203661 -0.5004167 0.17277801 0.0037192088 0.28503504 -0.42615706 -0.37759775 0.026963014 -0.47532913 -0.16595265 0.27685502 0.38566175 0.15275452 0.1533836 -0.161044 0.31216133 0.3023657 0.12502201 0.48583782 -0.1411091 -0.6980195 0.1415167 0.12535842 -0.30283043 -0.969518 0.13919033 0.8894447 0.48206294 0.842237 -0.32005033 -0.1820699 0.37130192 0.105984524 -0.007154645 -0.063798465 0.21992448 -0.52157485 -0.28021905 0.36325514 0.15305226 -0.0330483 -0.15891898 0.16332722 0.4052724 0.2023021 0.09472457 0.20531657 -0.6403628 -0.51960164 0.068931244 0.08086426 0.12786499 -0.25889143 -0.10165477 0.48111352 -0.1239077 -0.089844026 -0.32461742 -0.04565246 -0.20460041 0.55960876 0.56398964 -0.5816572 0.40028512 0.081119925 -0.085585214 -0.21498448 0.43744564 0.007380018 0.42084143 -0.058006838 -0.39430782 0.029998153 -0.09976614 0.04294407 0.4105998 0.261023 -0.3801891 0.22154807 -0.16347018 -0.121533595 0.0433033 -0.031092927 0.25147283 0.44429192 0.13351247 -0.7556829 -0.93499583 -0.3275657 -0.03690814 -0.3768159 0.14014646 0.016578756 -0.14363232 0.031425226 -0.25801197 0.35878283 -0.4843333 0.03528403 0.28429437 -0.24149446 -0.22033419 0.07885866 0.6333302 0.16488731 0.2070637 -0.61667764 0.6123849 0.027883463 0.42708305 0.13798222 -0.3562167 0.079856046 0.25380772 0.027601939 -0.5072401 -0.07300506 -0.11375819
1580 0.20329061 0.17545605 0.047001798 0.22628164 -0.085837364 -0.40951446 0.024560371 0.41897956 0.16581559 0.20496841 -0.053504515 -0.56861585 0.16593267 0.09423398 0.31217903 -0.45900646 -0.32987717 -0.010945878 -0.50537646 -0.33035254 0.26655722 0.36754695 0.18725975 0.1588437 -0.17301634 0.35067275 0.44559503 0.23139407 0.45158297 -0.1538477 -0.7497864 0.15718125 -0.016111871 -0.3559146 -0.9775136 0.25897202 0.80840456 0.54230845 0.78957254 -0.26598132 -0.33245555 0.26998812 0.12230654 -0.20159732 -0.025159396 0.20418553 -0.51307404 -0.26662856 0.3202868 0.23290351 0.03854485 -0.22829837 0.072635 0.45521304 0.270476 0.13043427 0.15948375 -0.7105556 -0.5843946 0.05657185 0.19290046 0.1162073 -0.23577605 -0.12088936 0.533604 -0.12358375 -0.082588464 -0.4481172 -0.062340833 -0.3180162 0.49210212 0.56230974 -0.5965822 0.19590944 0.1206672 -0.11566987 -0.18861555 0.552538 0.21317543 0.46144933 -0.070284754 -0.3234087 0.03140934 -0.18348242 -0.015948327 0.42875415 0.2993372 -0.39270845 0.11246429 -0.10324219 -0.08763987 0.10130875 -0.05805203 0.13503526 0.35538736 0.21404952 -0.7845807 -0.8841637 -0.20848092 0.011873587 -0.23211801 0.16641502 -0.05580117 -0.13376553 0.017339014 -0.2801751 0.38230187 -0.50189096 0.04935984 0.29889312 -0.21777895 -0.18972486 0.17315026 0.5361108 0.14728588 0.33087474 -0.60894334 0.6246451 0.0126917595 0.38321373 0.1233429 -0.522264 0.10521041 0.16357055 0.102920786 -0.51787597 -0.15627223 -0.06512862
1585 0.34520885 0.1834707 0.14499453 0.18145962 -0.03478038 -0.5287686 -0.05407517 0.3388345 0.15438451 0.17502618 -0.13061756 -0.44576484 0.25918177 0.17225939 0.2719907 -0.35731032 -0.2828644 0.012237203 -0.3531985 -0.30470666 0.21064518 0.32918268 0.13270639 0.06400047 -0.17011942 0.21235213 0.26839533 0.27625084 0.5288795 -0.08440984 -0.67885983 0.21508338 0.023352139 -0.1947215 -0.86904377 0.17465672 0.87494475 0.5486137 0.80498654 -0.28788778 -0.2822246 0.29079688 0.20473917 -0.07665618 -0.05697184 0.1927669 -0.5840818 -0.34926882 0.35693154 0.25025818 0.025935935 -0.24194677 0.056081172 0.42871958 0.16085018 0.24613515 0.17961052 -0.72173417 -0.45373052 0.11348072 0.2702128 0.10491548 -0.227651 -0.1784932 0.56145644 -0.017887793 -0.005571578 -0.413949 -0.038951676 -0.24322574 0.36044642 0.45160082 -0.64318097 0.32453105 0.16666333 -0.17159274 -0.21075222 0.413867 0.05969601 0.4913966 -0.044777386 -0.20985378 0.0119088255 -0.11156552 -0.07985787 0.49190798 0.34426925 -0.50778013 0.18645416 -0.02884907 -0.021037303 0.115719974 -0.030150153 0.109227076 0.36247498 0.20074025 -0.7697019 -0.82407534 -0.13277093 0.14725971 -0.31757888 0.14923877 0.026442464 -0.16898254 -0.00094008713 -0.29492882 0.268546 -0.6258801 0.1288648 0.28741643 -0.15399458 -0.22891802 0.15269712 0.70073974 0.024234258 0.31221795 -0.52836794 0.72523683 0.1088086 0.36888993 0.15434001 -0.31586298 0.04004501 0.09180768 0.1542731 -0.47344938 -0.1729232 -0.021142323
635 -0.12504087 0.39386985 0.15181704 -0.3327683 0.78680366 -0.6866774 0.81542623 -0.01167611 -0.24937701 -0.4007797 1.103927 -0.39748013 0.52470773 -0.9399024 0.76796466 0.08301464 0.15231524 -0.4246354 0.20458327 0.5775409 0.46215904 0.688965 0.26694235 0.20013092 0.029075619 1.2225357 0.0045393244 0.33020118 0.26989117 -0.39776438 -0.40418136 -0.25400504 -0.31912795 0.30211893 -0.34702358 -0.047389187 -0.21737073 0.6753064 0.0026539157 -0.1175837 0.5256479 -0.16850054 0.1259044 -0.24840176 0.7427233 0.3533402 0.10861306 -0.39598534 0.07993733 0.12610309 0.26392516 0.38487822 0.105623074 0.47040212 -0.5967099 0.11820208 0.48931897 -0.11066154 -0.32526076 -0.37693176 -0.0749901 -0.32663566 0.7290826 -0.48017153 0.52788544 -0.47835314 0.3080799 -0.6354944 0.7052518 -0.20485643 -0.087860316 -0.09329243 -0.56475824 -0.15111756 -0.45260942 0.39187136 -0.29319397 0.14614159 -0.33671436 0.5496653 0.12650895 0.15065219 -0.12859884 0.5142862 0.520814 0.64689326 0.15201467 -0.10608479 0.107301585 0.6221181 -0.8268482 -0.61755323 -0.28017884 -0.1254035 -0.1622216 -0.10705324 -0.045400847 0.28903383 0.21996365 -0.16100739 -1.05965 -0.30488315 0.081862874 0.7070164 0.14705189 -0.3203957 -0.12202012 -0.661753 0.10824929 -0.94928575 0.6308927 -0.15179332 -0.25940347 -0.27172303 -0.42967674 -0.6011053 -0.2788236 -0.21392563 -0.11178248 -0.49866223 -0.9035838 -0.29351115 -0.083049275 0.06380291 -0.34173775 -0.32210863 -1.0525914 -0.082531445
479 0.43536958 -0.5252204 0.13274865 0.46803236 0.55832756 -0.02560485 1.0924915 -0.53170556 -0.53906274 -0.3617056 0.13864897 -0.45585704 -0.21412203 -0.72840893 0.395515 -0.1732863 -0.5288457 -0.2757715 -0.18463807 0.5859426 0.5969017 1.1455554 0.018965162 -0.16204356 -0.74119395 0.6544483 -0.2248943 0.7837353 -0.14997801 -0.12572138 -0.601124 -0.24551338 0.22223784 0.37242508 0.24243236 -0.10904275 -0.10483365 0.50662684 0.0425611 0.37588692 -0.48814052 -0.19945271 -0.69386 -0.046029545 0.6740361 0.08987711 0.375718 -0.54982364 -0.6886602 0.47525448 0.06597983 0.2510113 0.3488822 0.23704843 -0.46661955 -0.2540068 0.7116366 -0.86383545 -0.02826109 -0.23131384 0.2656555 -0.14751549 0.84026605 -0.21968018 -0.29946917 -0.32416773 -0.23664914 0.5204761 0.5391302 0.37571177 0.13783522 0.032497823 -0.10392357 -0.023053233 -0.422431 0.2764132 -0.65613455 0.13864982 -0.38151842 0.13560262 0.12803173 -0.21578737 0.06628108 0.4235105 0.4848493 0.025481889 0.8369381 -0.3363122 0.8276914 0.48669755 -0.33061218 -0.16537549 0.18133387 -0.06655776 -0.22355233 0.30720854 -0.23798439 -0.4469398 -0.03398252 -0.6663764 -0.74277204 0.026663028 0.20982589 0.3012891 -0.5048106 -0.16205662 0.20868504 0.47995013 -0.26517516 -0.4944999 0.26275018 -0.34171477 -0.065140925 0.35360098 -0.70752096 -0.06382705 0.1078545 0.5629905 0.045723036 0.19559145 -0.643511 -0.0019370748 -0.05467152 0.56731206 -0.419959 -0.8240616 -0.7351753 0.65654254
1718 -0.08570814 0.20483638 0.7891598 -0.7548505 -0.0005413619 -0.7131137 -0.22932978 -0.17933491 0.067057416 0.27794603 0.46465856 0.39070624 -0.0045876955 0.30049315 0.02467188 0.053834997 0.52938074 0.003972353 0.1204836 -0.21982835 0.60521626 0.15101458 0.4459863 -0.90981644 -0.22610183 0.8454029 -0.69529504 -0.13647878 0.55163133 -0.42006925 -0.7451139 1.02279 -0.31343338 0.5526774 -0.38999918 0.73323435 0.69423157 -0.080649264 -0.43435398 -0.23113114 -0.5856128 0.53402585 0.33982956 -0.41397578 -0.05558373 -0.06901668 -0.5622019 -0.98906523 -0.0004765911 0.77314377 0.60647976 -0.28298077 -0.36885574 0.1262212 -0.56226873 -0.23634392 0.1956952 -0.27563035 -0.80505604 -0.06982382 0.11827646 0.039647173 -0.08432588 -0.6369475 0.57032555 -0.19386058 0.48307598 0.16375361 0.31209332 -0.3046663 0.138288 -0.05145525 -1.2081316 -0.60818636 0.09193211 0.18572384 -0.3911828 -0.48818222 -0.59919 -0.011798322 -0.039614767 -0.67602974 0.5047264 0.63043404 0.22111896 -0.012393901 -0.10731665 -0.8286098 -0.1925461 0.018284155 -0.5654413 -0.45975083 -0.056289084 -0.1585184 0.77693087 0.50447875 0.010824279 -1.2005949 -0.047907848 -0.29036203 -0.23973936 0.43390483 0.13823038 0.11875304 0.24473792 -0.4431661 0.12118136 -0.31216308 0.2878061 -0.07231474 -0.28717405 -0.5806516 0.40411264 0.17770618 -0.47045738 0.22044125 -0.35474545 0.2837859 0.6343027 -0.07469453 -0.17549285 -0.18260522 -0.013904845 -0.24334294 -0.037194066 0.14399515 -0.60327125 0.6460424
19 0.36460373 -0.111524455 0.34996417 0.30426052 0.41246268 -0.24467368 0.10390869 0.29159918 0.21559894 -0.18705918 0.26387003 0.084125325 0.25249985 -0.31260026 -0.077543944 0.60825557 0.20688994 0.16421287 -0.13437366 0.22944994 0.39574364 0.081557356 -0.11955487 -0.8452881 -0.8272186 0.40360212 -0.070685886 -0.012479763 -0.229533 -0.27960527 -0.22506696 -0.5533528 0.11301674 0.9246917 0.080447786 0.411446 0.96834385 -0.19953662 0.44742975 -0.53973037 -0.2500752 0.186125 -0.5276061 0.2863919 0.6162233 -0.18575428 -0.22530322 0.0026709111 0.14612497 0.035369225 -0.43431422 -0.3694262 0.41092205 0.48977306 0.23766808 -0.71520567 0.98091507 0.2763109 -0.045693256 -0.9619303 0.25551474 0.007985937 0.30409867 0.2145862 0.6363145 -0.5996105 -0.44160834 0.33389005 0.0063176304 -0.55444074 0.6679476 -0.41042566 -0.42790222 -0.48489305 0.042494133 -0.035787355 0.39408073 -0.3891396 -0.21836172 0.06657842 -0.4726424 -0.36666605 0.45419693 0.80041087 -0.45678622 0.20867544 -0.079930305 -0.3575546 0.4806235 0.14038292 -0.31019992 -0.2946622 -0.14157595 -0.045235984 0.3163604 -0.056916848 -0.2411727 0.041716196 -0.32949317 -0.3336947 0.3284322 -0.20145407 -0.03652815 -0.41933486 0.05317124 0.31069368 -0.17482296 -0.463087 0.27123535 -0.11331533 -0.1421173 0.29896364 0.14716773 -0.22548006 -0.09941422 0.3270887 -0.37399125 0.019665575 0.21973851 -0.33783773 -0.2309257 -0.5655993 -0.020712975 -0.014926881 -0.25841644 -0.11025483 0.29448223 0.14407793
1429 -0.08666403 0.067294985 -0.21618503 0.48846406 0.122996956 -0.7335001 0.5130084 0.19386321 -0.3963792 0.42487434 0.5298347 -0.18947607 0.36591333 -0.34412903 0.54248375 -0.20926055 -0.23432782 -0.7577198 -0.119497485 0.549259 0.4751039 0.2969802 0.00025542502 -0.51512355 -0.76964253 0.8187376 -0.2568761 0.7808976 -0.107001826 -0.5553797 -0.70089823 -0.43905374 0.056628663 0.6349 0.074612424 0.6036881 -0.14101258 0.0905025 -0.15730563 0.35342753 -0.13472426 0.39793894 -0.42929092 -0.0055583026 0.47769785 0.27741486 -0.32621887 0.0025772247 0.0039866446 0.21405913 0.61354214 0.32928556 -0.00583457 -0.053305287 -0.21273737 0.13912387 -0.026681343 -0.027966518 -0.29485664 0.29255036 -0.10232215 -0.31002823 0.68179554 0.024347363 0.47345942 0.09655074 0.026941666 -0.4534778 0.46713385 -0.732508 -0.08090664 -0.32605222 -0.36745548 -0.82949245 0.2819143 -0.40221623 0.36757395 -0.60926974 -0.23756814 0.3718218 -0.14849617 0.25514737 -0.10955097 0.2561034 -0.035432912 -0.41880134 0.6911069 0.081292376 0.6145343 0.20398982 -0.050095994 -0.73656136 0.6591295 -0.0331212 -0.089908116 0.09472868 -0.372906 -0.77783775 0.29604876 0.09803457 -1.1020329 -0.29188943 1.0505931 0.30935308 -0.008210662 0.1205534 -0.5626394 0.25671437 0.24151966 0.0025217198 0.03530379 0.0012291544 0.42183417 -0.315555 -0.6557858 0.5198578 0.3239193 -0.041545738 0.4175216 -0.35418636 -0.625323 -0.44606856 -0.2085461 0.22975418 -0.07489564 -0.81931186 -0.4490192 -0.17920062
1436 0.08473784 -0.12844229 0.635683 0.16789743 0.0077874535 0.12854235 0.3513589 -0.20203702 -0.3597957 -0.047854703 0.3916883 0.51134765 -0.39017048 -0.65393203 0.24486783 -0.17966302 0.08326629 -0.5106996 -0.45627782 0.14809729 0.74696636 0.46989182 0.63291 -0.39300162 -0.74142003 0.5598773 -0.7668347 -0.10482932 -0.020891827 -0.89508784 -0.0067554577 0.15177713 -0.24406308 0.18175676 -0.1543475 -0.14021172 0.83363026 -0.12941001 0.27762258 -0.07846058 0.33286384 0.19664407 -0.19599779 -0.5916462 0.20874918 -0.18740486 0.08488291 -0.28022185 -0.21898894 0.04266524 0.5201618 -0.32779405 0.21434315 0.40432313 -0.3122916 0.3439262 0.19070664 0.20660472 -0.27936193 0.3284405 0.1847846 -0.3777565 0.017165266 0.35734838 0.29094577 -0.2728628 0.10866879 0.021690954 0.33761406 -0.50495696 0.45390213 -0.04308659 -0.047189403 -0.215466 -0.15015504 0.007932747 -0.23783799 -0.75688916 0.39846554 0.64525086 0.47192836 -0.094514616 -0.25334054 0.7615545 -0.13468046 0.6794196 0.5208245 0.23860377 0.55278057 0.50431675 -0.17962568 -0.2081617 0.81643224 -0.6774161 0.07239679 -0.3762438 0.13848518 -0.063770816 0.03796565 0.14596944 -0.7246658 0.30763775 0.9017224 0.36431402 -0.30860683 -0.090546116 0.051806018 0.54977226 0.5325622 -0.77268267 0.16362205 -0.52375674 -0.12357432 0.2911428 -0.30878785 -0.20689444 0.39412346 0.69212884 0.36800477 -0.15911973 -0.7698419 -0.75613767 -0.05433549 -0.51953155 -0.6341319 -0.12805554 -0.48473313 -0.61052203
1619 0.7271589 -0.55293 -0.13401888 -0.2326262 -0.18628731 -0.25837278 0.16586332 0.04091579 0.35201955 0.14623863 1.1363075 0.4620143 -0.4256496 -0.45990205 0.9024891 0.5174183 -0.32645732 -0.65996087 -0.3969596 -0.3185582 -0.083594404 0.42179883 -0.22486521 -0.7423533 0.08917842 0.67222387 -0.16288139 0.6138907 0.43825942 0.19944648 -0.39512244 0.41926885 0.20961447 -0.23992792 -0.1249568 0.54314816 0.49786666 -0.09738379 0.48311773 -0.008587298 0.3924006 0.32275596 -0.5284801 -0.3557837 0.5146048 -0.036222257 -0.1700495 -0.3499083 -0.46184725 0.565579 0.027877267 -0.07298914 0.4073316 0.2831248 0.46573323 0.07682627 0.6711127 -0.15420257 -1.0947108 0.33697394 -0.44887918 -0.54868764 0.36959597 0.055319853 -0.3970693 -0.25489882 -0.085335076 0.84097946 -0.69371814 -0.11610439 0.09635919 -0.56023484 -0.15507528 -0.51818323 -0.60888976 -0.16530286 -0.28588814 0.045950495 -0.5409756 -0.23959216 0.19064508 -0.46590233 0.10630502 0.98842615 0.44785503 0.44774336 0.03838241 -0.8057545 0.41740385 0.99449235 -1.0739069 -0.26180267 0.53056073 -0.46100566 0.7794264 0.5374041 -0.087706305 -0.7411368 1.0953566 -0.77962583 -0.7568473 0.006122825 -0.16545175 0.20585857 0.033638954 -0.26912722 0.19668633 0.35505992 -0.10954392 -1.0074915 0.30253345 -0.0326512 -0.055302836 0.3999654 0.08513545 -0.009330424 -0.45476803 -0.03977658 0.31259367 0.15621711 -0.6317835 -0.29031983 -0.21753997 0.20950283 -0.06946245 -0.9389682 -0.48803192 -0.17081872
1654 -0.21611811 0.5477477 0.36289874 -0.13180307 0.018963108 -0.3679448 0.36358118 0.19170095 -0.3907099 0.647026 0.72048503 -0.25714913 0.054447375 -0.48581776 -0.1473181 0.15556242 -0.20868462 0.41538677 -0.34234482 0.31574252 0.017902711 0.19345734 -0.515122 -0.32632473 -0.7653527 -0.3316857 -0.46816462 0.14623763 -0.21189992 -0.033700004 -0.5411638 0.07136371 -0.19357143 -0.15224428 0.059307065 0.20309389 0.83208835 0.3727493 0.46652144 -0.19263151 0.35867384 0.13650103 -0.093462564 -0.13801047 -0.19829771 0.4277965 -0.13300434 -0.92866117 0.015613834 0.26425216 0.6881906 0.059313595 0.30240232 0.39405915 0.0021533528 -0.67042625 0.2941418 0.02035722 -0.7035596 0.16704229 0.05656862 -0.03230427 0.4135784 -0.09238843 0.022765324 -0.50904644 -0.6436806 0.13364607 -0.3520001 -0.6111592 0.2752529 -0.16620712 -0.40855876 -0.19453782 -0.16280419 -0.56136554 -0.050579272 -0.7220098 -0.47481453 0.62256736 0.33019346 -0.058074363 0.85783005 0.5742583 0.32469982 0.70166874 0.23648646 -0.42667034 0.3417312 0.1830802 -0.7674915 -0.20348755 -0.123829894 0.2372653 0.5285037 0.29871014 -0.119644105 -0.27330747 -0.029559309 -0.47172898 -0.62091756 0.17622282 0.17953148 0.24629669 0.32069716 0.10353045 0.16766605 -0.004106174 -0.011861168 -1.0266106 0.4759195 0.4782654 0.3658774 0.27989927 0.2730201 -0.25634566 0.11351669 0.004145712 -0.24412878 0.5077401 0.24292871 -0.5098805 -0.023421194 -0.08812232 0.2860706 -0.27679983 -0.050190665 0.038383733
1566 0.116677865 0.25750428 0.56857544 -0.2925575 0.4395925 -0.5088904 0.091676965 -0.10314244 -0.29530194 0.44019932 0.33820742 0.4521539 -0.22090255 -0.31019157 0.69902027 -0.40619826 0.25852633 -0.21843317 -0.20531577 0.6488871 0.3266253 -0.17477906 -0.6342369 -0.29854652 -0.5072699 0.71575326 -0.5104684 0.20203541 0.5980242 -0.19577034 -0.21728273 0.71909887 -0.13910626 0.7441128 -0.1018355 0.46864277 0.94092673 -0.024857184 -0.21109135 0.40608656 -0.49242502 0.42914712 -0.022943785 0.4284648 0.5598817 -0.13736455 -0.21064828 -0.5834901 -0.71339446 0.02926767 0.2962838 -0.044398203 -0.038246743 0.15932 0.19511321 0.42095 -0.033723794 -0.27990294 -0.26143572 -0.115824066 -0.0682763 -0.16233012 0.35764304 0.013280742 0.5732643 0.3140048 0.42891788 -0.092405714 0.13584979 -0.8245242 0.13256027 -0.42578197 -1.0868422 -0.21706024 0.3196383 0.29144025 -0.18554026 -0.6690072 0.091555275 -0.50749743 -0.45510846 -0.4072891 0.21086103 0.37745982 -0.12579598 0.43326405 0.11169265 -0.36071303 0.69548887 0.39435104 -0.15489018 -0.43575835 0.48323944 -0.10031814 0.4859228 0.6977405 -0.76139104 -1.0493312 0.59946305 -0.20489825 -0.54418004 0.50323296 0.17470732 -0.12732433 -0.4601001 0.56151956 -0.34448925 -0.82302576 -0.13312012 -0.40273744 0.1798377 -0.64621824 0.48905253 0.154584 -0.20355323 0.19878152 0.124184035 -0.0737897 0.10285396 0.3026677 0.061158184 -0.6286404 -0.29119512 0.44350344 -0.86391276 -0.03598179 -0.61837363 0.5777774
1547 -0.106652066 -0.09494587 0.16522329 -0.18492839 0.2666343 -0.07964016 0.06722254 0.0747786 0.30626604 0.23752648 0.21778844 0.26408112 -0.12781298 0.20719585 0.30573428 -0.5838892 0.29958045 0.342391 -0.43069875 0.02181558 -0.10531754 0.12918977 0.15863724 -0.57849544 0.022334762 1.0902023 -0.28762722 -0.1408358 0.49729213 -0.45907384 -0.515652 0.7673825 -0.0040314463 0.5427843 -0.00092855224 0.5878658 0.72142 -0.3137172 -0.6940896 0.11115476 -0.5948376 0.580686 -0.14429128 -0.1883404 0.2416777 0.010015041 -0.6062394 -0.69911027 0.3923782 -0.09709998 -0.050616454 0.3912711 0.39546147 0.7572593 -0.45653442 0.2679145 -0.1579918 -0.095571615 -0.18370289 -0.45574003 0.23876216 -0.72864074 0.119434796 -0.086962685 0.65272087 0.21024662 0.19574027 0.47468784 -0.14895518 -0.64501446 0.045250878 -0.6282168 -0.9517649 -0.016348168 0.26775315 0.026716026 -0.17700216 -0.62924856 -0.5856944 -0.3790443 0.15942062 -0.7404376 0.4123776 0.8142221 0.020047795 0.24830769 0.5371423 -0.45491153 0.54536176 0.83303183 -0.075843476 -0.19634189 0.35123062 -0.108332485 0.7252103 0.58972514 -0.5136145 -1.1059061 0.5150516 -0.48401982 -0.62252563 -0.23095386 0.114262216 0.47639808 0.33803606 0.105221845 -0.46713 -0.18985586 0.3081422 -0.38488206 0.632498 -0.17681374 0.621309 0.7848566 0.15495577 -0.17752387 -0.27436364 -0.4486979 0.38076827 -0.08755908 -0.2910136 -0.4872927 0.18656006 -0.1832988 -0.5114706 -0.3727974 -0.4138537 -0.05233419
1650 -0.16718881 0.51794195 0.3649896 -0.114423245 0.04704029 -0.35904 0.3507574 0.15432663 -0.33736408 0.6172808 0.7262259 -0.2592364 0.09351377 -0.50232023 -0.13335109 0.21217318 -0.20352489 0.4313652 -0.34218186 0.31045625 0.04177122 0.15354294 -0.5325774 -0.36766645 -0.7953665 -0.3084642 -0.46674234 0.14721556 -0.22757329 -0.024441274 -0.5156991 0.06182867 -0.16770226 -0.08079356 0.10868154 0.22348447 0.84880614 0.3389466 0.43315703 -0.20906632 0.35426414 0.13682856 -0.12072564 -0.16798413 -0.18069658 0.37384778 -0.1537374 -0.9067782 0.0121144885 0.23395604 0.61733234 0.027931383 0.3416687 0.41016066 -0.033978652 -0.69505805 0.34142876 0.06400081 -0.71119565 0.120075785 0.04775632 -0.016086128 0.46715355 -0.059635065 0.049897317 -0.52132136 -0.65568686 0.15103881 -0.34344533 -0.59655875 0.26931548 -0.16622613 -0.39710686 -0.21471956 -0.17503855 -0.5810608 -0.009205308 -0.7082975 -0.49048126 0.57886136 0.31158587 -0.0835116 0.8347849 0.6045462 0.30145878 0.6951256 0.16939023 -0.4587813 0.30360103 0.17153658 -0.7814638 -0.1785522 -0.09616608 0.22106963 0.51946723 0.2739071 -0.12443823 -0.25523797 -0.056158762 -0.48232168 -0.6040497 0.14965194 0.15848792 0.21959254 0.30558804 0.13363096 0.15016529 0.004857771 0.0053717084 -1.0301094 0.4491917 0.47412187 0.34954694 0.2508472 0.2886154 -0.25848117 0.10541745 0.0055677993 -0.24894466 0.473822 0.18952054 -0.50608754 -0.05034268 -0.09726699 0.30155033 -0.24609251 -0.009911863 0.040029295
1578 -0.23098171 0.55673105 0.41167194 -0.12361329 -0.021924237 -0.3765591 0.38906553 0.20974854 -0.38675782 0.6238906 0.724895 -0.25269952 0.07351233 -0.5095887 -0.18510003 0.114814796 -0.17891957 0.39551994 -0.3550696 0.35451737 0.032717064 0.25354925 -0.4463841 -0.31592077 -0.8379671 -0.3477995 -0.48674867 0.19895187 -0.2294613 -0.009523607 -0.5363639 0.07866053 -0.18752629 -0.14668082 -0.016114915 0.1979847 0.85474586 0.40739232 0.4645592 -0.17269136 0.30522582 0.09843897 -0.094420105 -0.11646691 -0.1847749 0.4365012 -0.1054535 -0.9218032 0.036808528 0.28484604 0.7525133 0.03580114 0.23326354 0.44083837 -0.018952621 -0.6798069 0.2762271 -0.052093856 -0.70913005 0.19252257 0.044303823 -0.016656835 0.38926032 -0.120684065 0.031383693 -0.498697 -0.6582721 0.11920934 -0.3439089 -0.60799885 0.30545542 -0.17993005 -0.4557129 -0.1601766 -0.1437755 -0.53790516 -0.062019374 -0.7401331 -0.44157174 0.64381665 0.30096295 -0.023014847 0.9143318 0.5895644 0.3239582 0.6479549 0.27972546 -0.40297815 0.35045278 0.20562199 -0.78223336 -0.26789945 -0.1935659 0.26923376 0.53651464 0.34959224 -0.075174786 -0.29501575 -0.031612884 -0.45969033 -0.6680585 0.19559866 0.18889363 0.27960357 0.29442406 0.10176666 0.21961102 -0.03303462 -0.03409363 -1.0436052 0.493858 0.52562773 0.40771958 0.3404244 0.26908717 -0.24413915 0.15545096 0.017201932 -0.20215236 0.47386733 0.25807753 -0.5644196 0.01171544 -0.084768355 0.2673987 -0.31874132 -0.047065336 0.09945688
1614 -0.17436863 0.5417065 0.34021872 -0.1219686 0.065134846 -0.3605769 0.37314212 0.18337493 -0.35239896 0.6029133 0.712798 -0.2765908 0.10500332 -0.50821155 -0.14563854 0.21576189 -0.19266441 0.44029418 -0.35187796 0.32836652 0.031038396 0.1766803 -0.53183144 -0.3736689 -0.78422236 -0.3327436 -0.48265958 0.14144537 -0.23459354 -0.013968112 -0.52557737 0.042094704 -0.18960042 -0.08194082 0.09899967 0.20967832 0.8459286 0.34202158 0.47206938 -0.22378887 0.35016403 0.13072944 -0.11787802 -0.16234945 -0.17613143 0.37786847 -0.13824373 -0.91120356 -0.005275378 0.24482287 0.6280877 0.042444207 0.35051295 0.40465045 -0.045030404 -0.711496 0.37550792 0.06725679 -0.69256705 0.13001011 0.053893134 -0.009516721 0.46163812 -0.09152788 0.026550427 -0.49888065 -0.6421101 0.14289261 -0.3397483 -0.5889517 0.2961145 -0.1530038 -0.40001062 -0.20275758 -0.17323029 -0.604273 -0.005427699 -0.7417617 -0.49103472 0.5952062 0.3325387 -0.07025768 0.8369573 0.5922022 0.3135476 0.6947837 0.20068987 -0.43066353 0.3129289 0.18787844 -0.76552397 -0.20469768 -0.10306392 0.23699121 0.5087947 0.25375447 -0.12320029 -0.23273167 -0.06601609 -0.49152336 -0.6071932 0.15482254 0.14372538 0.22758372 0.3057037 0.14283933 0.13536099 -0.018717002 -0.01150261 -1.0554461 0.44595024 0.4947121 0.34957492 0.2808963 0.28879446 -0.24695647 0.11926973 0.009068596 -0.24901022 0.47973058 0.17865911 -0.53802794 -0.04302099 -0.085865684 0.3219635 -0.25292587 -0.028318187 0.058186818
1400 -0.25649488 -0.25628042 -0.37026513 -0.045448177 -0.25134963 0.34945065 0.48062378 -0.2932603 0.27994403 -0.20606755 0.52176636 0.0008969395 0.16598472 -0.7622913 0.4832365 -0.11168966 -0.1370501 -0.32925904 -0.16106044 -0.113534585 0.54779494 0.8943992 -0.28264004 -0.6403151 -0.76711833 0.8328038 -0.74469304 -0.27106503 0.11273321 -0.5981332 -0.050191347 -0.0364329 -0.40233245 0.09499993 0.34120202 0.7480903 -0.23566587 -0.15086834 -0.053298727 0.63628536 -0.20625792 0.12095099 -0.17458133 -0.8182553 0.40631014 -0.13382271 0.18659933 -0.50113755 -0.77202964 -0.41603214 0.6334573 0.052139077 0.00044423132 0.63046 -0.15199487 0.1211688 0.2954953 -0.24581926 -0.5164433 0.037556067 0.101056196 -0.40554407 0.13255112 0.12396186 0.6458447 -0.11540368 0.19747615 -0.20783226 0.06462128 -0.51150906 -0.32943657 -0.21593116 -0.54574907 0.19739655 0.11721752 -0.37776294 -0.14724103 0.24160397 -0.19860727 -0.07885063 0.29995564 -0.14831032 0.048947707 0.46736473 0.58660007 0.45333526 -0.084154956 0.021853667 0.36590368 0.4975367 -0.76049566 0.068439506 -0.33730552 -0.2488818 0.36003727 0.033196386 -0.2472634 -0.39804918 -0.13063765 0.0008909763 -0.83579606 -0.5909324 0.23795299 0.17308329 0.009310753 -0.37427562 -0.42208084 -0.08885599 0.40946844 -0.8157953 0.7228309 -0.48002496 0.33028126 0.6233601 0.035505064 0.23629896 -0.09843163 -0.19096613 -0.21824114 -0.3056675 -0.4860975 -0.29458347 -0.30979908 0.46482375 -0.45381224 -0.5172061 -0.07806901 -0.37582666
1180 0.16508564 -0.06461923 0.17184056 0.31824797 -0.020993482 -0.47271717 0.34221944 -0.31753093 0.45771056 0.3704721 0.9141215 -0.3234315 0.13262926 -0.86541975 0.26282626 0.5253435 0.10476788 0.25902057 0.45570418 0.043212596 -0.005098804 0.0736451 -0.7544529 -0.06344471 -1.0125785 0.48456812 -0.41617766 0.25605196 0.0138239935 0.15857215 -0.3747873 0.4627966 0.15811145 0.5447244 0.29406995 1.0910316 1.0957034 0.14747567 0.419838 0.06544335 0.18433048 0.7877559 -0.5208208 -0.060355302 -0.21732005 -0.0827527 -0.2847482 0.18257526 -0.07296004 0.28268605 0.05719001 -0.38068554 0.47144365 0.09831725 0.038982183 -0.98441124 0.12866062 0.6166401 -0.8484664 -0.6061412 -0.10412675 -0.07096956 0.819879 -0.26926118 0.3698708 -0.8413376 -0.42719448 -0.15870844 -0.26406235 -0.49560168 0.20936733 -0.70886326 -0.3731699 -0.3523473 -0.4079209 -0.3151487 0.25700834 -0.51626503 -0.55972797 -0.2421767 0.15891126 -0.6431017 0.034382038 0.5700673 0.36977613 0.12035673 0.14066806 -1.1193378 0.3350836 0.2651391 -0.29273856 0.37148675 -0.06269975 0.11226751 1.0127525 -0.002226043 -0.4491472 -0.2728753 0.108336866 -0.60321957 -0.3779486 -0.49956328 -0.048032496 0.026814802 0.502072 -0.060179446 0.07375076 0.26402393 0.5829178 -0.8035785 0.20675012 0.029798888 -0.117584296 -0.37676826 -0.19849133 -0.0021626232 -0.39838368 0.29284665 -0.50150865 0.35540512 -0.15298264 -0.42608705 -0.13535039 0.123657055 -0.19501969 0.016384691 0.26571524 0.012490006
307 0.17469585 0.23916906 0.37179512 0.13701949 0.6877259 -0.57541734 0.6005498 0.08137764 -0.13186412 -0.16478994 0.96194327 0.2681254 -0.21235257 -0.46346796 0.1453513 -0.0944235 0.19422129 -0.58326954 -0.010626008 -0.23886962 0.75749046 0.8485753 0.029682573 -0.8904451 -0.34444645 0.1369062 -0.64849913 0.19230048 -0.49413517 -0.06923003 0.040591378 0.04019974 0.3180083 0.69985324 0.48650795 0.5982305 0.47053367 0.23555475 0.14873344 0.34030196 -0.37123507 0.265255 0.07989198 -0.12036939 -0.11728809 -0.1940271 -0.20691235 -0.02277037 -0.67599535 -0.17122199 0.47910824 0.54972667 -0.30755797 0.33698663 0.08392609 -0.1103837 0.32671562 -0.41778016 -0.18647325 0.1490208 0.026371894 -0.76719457 0.08269566 0.18991144 0.12837452 -0.07388777 0.16782615 0.019764083 -0.056991346 0.16641803 -0.19095613 -0.020140514 0.25704673 -0.35766846 -0.28532624 -0.31090707 -0.18727458 -0.2323007 -0.41144767 0.21230902 -0.3546776 0.16428988 -0.13950627 0.5494542 -0.032099303 0.026440108 0.5039905 -0.34144598 0.24746233 0.5505255 -0.75486296 -0.5296434 0.4490463 -0.48218668 0.39208257 -0.612923 0.016084606 -0.37147322 -0.08578471 -0.21112743 -0.85499203 -0.23065539 0.42766365 0.30366784 -0.17618899 -0.42963347 -0.19888258 0.045308705 0.3524288 -0.48239404 0.45175612 -0.3484213 -0.41698885 0.16658196 -0.65444565 0.2449812 0.49903324 0.26425418 0.2175636 -0.08896402 -0.23546173 -0.34607273 0.36539015 -0.12716705 -0.39860123 -0.7299394 -0.33550522 0.05574502
1646 0.6681659 -0.53106767 -0.028042287 0.0862913 -0.23353554 -0.5671547 0.24933645 -0.3224575 -0.089207835 0.09879045 0.92589056 0.47373453 -0.012610915 -0.13567081 0.95532703 0.39600444 -0.475617 -0.099970125 -0.7693459 -0.2509863 0.34139243 0.6566014 -0.3705496 -0.8288456 0.24026814 0.5555701 -0.41524193 0.6354435 0.520461 0.13723958 -0.44086063 0.89382946 0.2292685 0.12746003 0.07380429 0.33075124 0.7073944 0.14267136 0.5755362 0.3832137 0.5763915 0.6889376 -0.09701253 -0.051823646 0.36637628 -0.023532715 -0.28472266 0.04639887 -0.52778494 0.39766997 0.2332997 -0.1887855 0.6517456 0.09020294 0.37853009 0.40017453 0.6398674 -0.28876078 -1.2139254 0.50266325 -0.5986146 -0.21094143 0.36145377 -0.08652157 -0.39801458 -0.030513512 -0.27597132 0.7685232 -0.5949159 -0.46159807 0.10384008 -0.7909367 -0.58718616 -0.69746166 -0.36022028 0.023696024 -0.12868197 0.1696339 -0.46722218 -0.3275061 0.10270332 -0.52804995 0.15807445 1.0124311 0.099837825 0.64436257 0.05157933 -0.82174516 0.22128661 1.029482 -0.8320282 -0.26709226 0.38314277 -0.48146403 0.90848285 0.17783813 -0.24573924 -0.85984725 0.7338399 -0.42443666 -1.1197746 -0.0063910205 -0.35241488 0.18794167 0.3175166 -0.11035569 0.06752314 -0.03692957 0.1358367 -0.80692947 0.48188752 -0.35046667 0.014202112 -0.109729834 -0.20404878 -0.27107647 -0.42421573 0.25630692 0.023308596 -0.38047767 -0.5635809 -0.11343129 -0.55367047 0.32305625 -0.11138714 -0.4546441 -0.8385423 0.1458388
693 -0.27705365 0.31198552 -0.049684186 -0.06350556 0.47177675 -0.33000535 0.44010785 -0.22769538 0.06674994 -0.4767369 0.8383793 -0.21256794 -0.019014418 -0.65701324 0.47200635 -0.05422574 -0.11565199 -0.75339186 -0.66588366 -0.12063247 -0.074513175 0.46401966 0.42588952 -0.16300166 -0.647811 0.6166692 -0.06073262 -0.08576117 -0.14674236 -0.3273684 -0.1525473 -0.574739 -0.51871586 0.48575813 -0.34838337 0.36719105 0.018138425 0.6019472 0.4472566 0.23972581 0.1157615 -0.07562334 -0.07269068 -0.36943313 0.5618513 0.3496221 0.4347533 -0.51863706 -0.3176953 0.2695882 0.058338623 0.040905315 -0.3176921 0.41517887 -0.49124867 0.100526944 0.582416 -0.2530566 -0.75724876 -0.18042205 -0.020123105 -0.4506503 0.777681 -0.18197131 0.60461116 -0.17483898 -0.004522435 -0.26878256 0.36518306 -0.38940257 0.37784097 -0.07847071 -0.69103426 -0.2961627 -0.42262062 -0.25486046 -0.40389165 -0.13279417 -0.039848913 0.3575097 0.38776577 0.5525247 0.47096688 0.45405152 0.10640266 0.6105065 0.47112104 0.17261332 0.1615852 0.96075773 -0.059305865 -0.40037647 -0.10859136 -0.2371914 0.28464824 -0.40255463 0.18670265 0.02394676 0.008999478 -0.32963544 -0.9164747 0.22248863 -0.31525806 -0.045051884 0.15361086 -0.40845048 -0.32545885 0.06255583 0.17587078 -0.90308493 0.67684335 -0.14622337 0.20470542 0.21938813 -0.18047944 -0.6373599 0.05207473 -0.10381271 0.12833421 -0.36256108 -0.5587527 -0.6281803 -0.055314496 0.4207453 -0.1122632 -0.02707124 -0.71597505 0.44519302
545 -0.3137151 0.07226437 -0.18714102 -0.30185825 0.5430051 -0.60441184 0.614526 -0.015920011 -0.15436 -0.26918423 0.75904155 -0.5480199 0.072838865 -0.828747 0.5586929 0.060834724 -0.18574671 -0.30765417 -0.33723593 -0.1295539 0.46479395 0.92585796 -0.07042308 -0.20133966 -0.26863173 0.73675793 -0.26587778 -0.17083094 0.12848769 0.06964769 -0.31807083 -0.55464756 -0.3779399 0.31002313 -0.54837626 0.63183826 -0.17580114 0.1556906 0.56070536 -0.15507357 0.20384695 -0.33189514 -0.38849604 -0.19608647 0.63940436 0.051354416 -0.29748827 -0.62359124 -0.4569562 -0.114399746 0.58347017 0.45917338 -0.21795517 0.566188 -0.39992476 0.08927381 0.35681158 -0.1577015 -0.16084175 0.15857224 -0.08224708 -0.01604598 0.9652698 -0.41327152 0.39282972 -0.100896165 0.29837507 0.00037691736 0.43904385 -0.44976568 -0.05967709 -0.05036511 -0.8107091 -0.300177 -0.38597712 -0.048265245 -0.009242251 0.3495563 0.19095385 0.281818 -0.11496739 0.33613446 0.016433446 0.21331279 0.571103 0.1641209 0.5349632 -0.3140722 0.077216975 0.91117036 -0.5581004 0.08119905 -0.31089208 -0.6366073 0.42398897 -0.0039360877 0.10972443 0.038543344 -0.048862424 -0.40055636 -0.6855194 0.29699245 -0.15496701 0.0434756 -0.08530994 -0.02496919 -0.48440665 -0.23965518 0.07513828 -0.7581547 0.70443654 0.06351816 -0.3285361 0.48051724 -0.44295892 -0.43423665 -0.39777514 -0.13630608 0.30347234 -0.22743203 -0.88624495 -0.29486814 -0.32629824 -0.119677365 -0.11667596 -0.15345266 -0.6571943 0.49762702
1535 0.17603043 -0.30147117 0.3092771 -0.33633915 0.46672451 0.14020224 -0.30001625 0.21784109 -0.053591844 0.26987258 0.32333136 0.64436764 -0.10161047 -0.8511113 -0.039764944 -0.42512664 0.60381055 -0.35906956 -0.5825267 0.31034756 -0.31432626 0.010722642 0.059314534 -0.7387705 -0.44695398 0.62324685 0.016404228 -0.31605977 0.08712246 0.23247673 -0.8163417 0.53334594 -0.4979189 0.45794514 -0.2672095 0.3416589 0.693949 -0.18775342 -0.15944195 0.011559622 -0.51799923 0.6085097 -0.064604595 0.34320962 0.550837 0.16904108 -0.33303905 -0.41100046 -0.5838849 0.53156054 0.5034496 -0.12242694 0.045043934 0.045915175 -0.50126183 0.29392728 0.48549643 -0.35801223 -0.19354632 -0.135783 0.029427104 -0.34092116 -0.31001085 -0.7676852 0.45832667 -0.32914212 -0.019062337 0.787904 -0.1897641 -0.561182 0.29433176 -0.6321622 -1.2424004 -0.4640065 -0.38697594 0.11691259 -0.40712813 0.018569408 -0.33135432 -0.33947828 0.18393408 -0.25478745 0.3303933 0.58319205 0.40520063 0.84150445 0.739839 -0.53552896 0.3200789 0.2369278 -0.5632759 -0.40083313 0.3637168 -0.29338127 0.26522842 0.3134962 -0.2538798 -1.0141542 0.51052725 -0.49475732 -0.23947626 -0.00010868909 0.11301867 0.24886608 0.005187617 -0.014775568 0.19336976 -0.57050776 0.114684835 -0.9010721 -0.22838578 -0.28772563 0.5222978 0.011847571 -0.0446354 -0.104465336 -0.059974805 -0.14982446 -0.025084121 -0.07434145 0.2274508 -0.56479675 0.14585902 0.15211691 -0.7377434 0.0632443 -0.28297397 -0.17077468
1613 -0.44988507 -0.3523884 0.30126208 0.25300068 0.17038989 -0.17298701 -0.27031085 -0.030320842 -0.1942883 -0.08390321 0.019250302 0.19289091 -0.3227532 -0.36721778 0.41366342 0.3694822 -0.81522894 0.11722293 0.03270476 0.3039715 -0.03494856 0.6957943 -0.50720143 -0.42942604 -0.065683685 0.14754023 -0.41664875 0.031385325 0.44992942 -0.5490866 -0.8247582 0.13643643 -0.029598167 -0.15105651 0.2168505 0.38979772 0.48152143 0.3293265 0.7200453 0.3175934 0.3934544 0.17318329 -0.23829968 -0.15890013 0.46652222 0.7487884 0.052144494 -0.5777458 0.19355597 0.2360034 0.16171744 0.55303127 -0.44839886 0.06268496 0.45223364 0.38070434 0.37071073 -0.42385617 -0.94050395 -0.3176927 0.20241979 -0.632356 0.6319391 0.06408135 -0.17054738 0.019620728 0.44470966 0.4866924 0.28796324 -0.707124 0.23179576 -0.77674425 -0.70367074 -0.4282971 -0.14017063 0.08044467 -0.60095704 -0.33008176 -0.46259362 0.23302898 -0.2692355 0.11172631 0.34341916 0.60461026 -0.12841259 0.50746924 0.37393767 -0.019108705 0.87594044 0.45134392 -0.7362909 -0.5045974 -0.576727 -0.1779901 0.90885574 -0.14526781 -0.38176718 -0.12794495 0.0011265628 -0.17805897 0.02703039 0.27870536 0.49251947 -0.19457607 0.48095158 -0.094453745 0.5162621 0.10462132 0.5549041 -0.21554935 0.39186624 -0.43986058 0.09629768 0.06647206 -0.3933298 0.33707014 -0.9725248 -0.18928578 0.023024805 0.7171739 0.029062398 -0.0556369 0.24830607 0.39971754 -0.7705088 -0.042368807 -0.9629849 -0.06934449
1352 0.13744804 -0.6108593 0.29339853 0.1111206 0.22361855 -0.51423436 0.20051964 -0.19145453 0.0956645 0.029948082 0.18529712 -0.48050767 0.09466226 -1.275047 0.7136868 0.15070203 -0.43499866 -0.15557529 -0.040564306 -0.036200285 0.52906287 0.48072407 0.26405635 -0.086719714 -0.30590257 0.49886942 0.043109767 -0.044960245 -0.28643093 -0.15144712 -0.38147852 -0.08827731 -0.2716136 0.40851426 0.15628342 0.33260247 0.65625274 0.11039208 0.49598452 -0.057300482 0.035479933 0.048514772 -0.16734652 0.05079719 0.06395135 0.4111448 0.106728815 -0.29266182 -0.060870975 0.16820408 0.4420359 -0.34571564 -0.036906727 0.39653388 -0.40611082 -0.16264774 0.2167877 -0.27734816 -0.031308565 0.38792524 -0.20420364 -0.25576735 0.33071476 0.35127756 0.29110456 0.35343325 -0.29635116 -0.28048328 0.53727704 -0.20263958 -0.43401223 -0.31541932 -0.493163 -0.75483173 -0.015619215 0.035265606 -0.4549301 -0.12099518 -0.5513646 -0.11885406 0.4724941 0.14853545 0.08989291 0.96017426 -0.07131859 0.58945227 0.7589594 0.24179128 -0.08660403 1.0035776 -0.7580109 -0.38254294 0.27372396 -0.65244925 -0.16467306 -0.19740637 -0.3730914 -0.35722047 -0.22581057 -0.36706886 -0.24993296 0.16645531 0.7241733 0.75025123 0.13074295 -0.07486028 -0.12941901 0.36591685 0.14278543 -0.4615604 0.20012091 -0.9775468 0.48707741 0.0648138 -0.37508422 -0.043134112 -0.23958151 -0.09629773 0.08125737 -0.79592234 -0.97541183 -0.41077253 0.17788112 0.47818246 -0.069240525 -0.0010813063 -0.7788692 -0.040057205
1358 -0.37854496 -0.28575236 0.46823892 -0.3179837 -0.28952557 -0.73873144 0.7785243 -0.05907489 0.0009868639 -0.14624491 0.507936 0.16687737 0.06858953 -0.8178093 -0.11935638 0.0055340477 -0.53845316 -0.11149727 -0.25688925 0.48549327 0.41602907 0.7291501 -0.081179425 -0.81342405 -0.41545543 0.41123843 -0.6955541 0.27712294 0.39721787 -0.7553821 -0.47259292 0.19022435 -0.02142956 0.82946175 0.14535713 0.26527393 0.036260147 -0.4479325 -0.09901329 -0.1423191 -0.27792928 -0.082889624 -0.29090458 -0.64135534 0.27551338 0.10210343 0.19635369 -0.46385324 0.06932528 0.25000992 0.31008974 -0.25906727 -0.297919 -0.04613243 0.34017515 0.31671542 0.40690476 -0.40177292 -0.087633595 0.1965774 0.18055683 -0.63969463 0.21427605 -0.3646072 -0.14599635 -0.10938843 0.28241187 0.31711394 -0.0044246637 -0.1240662 -0.22896977 0.3951948 -0.66482806 -0.1302311 -0.3021868 -0.5306314 0.10167082 -0.08873379 -0.5339718 0.30660802 0.017726839 -0.24950045 0.5677098 0.6218341 0.75247043 0.37660414 -0.0045430376 0.18556356 0.56669635 0.7855564 -0.2482378 -0.5243399 0.31643772 -0.1832953 0.16828352 -0.53600115 -0.12779804 -0.053285647 -0.056623176 0.39366618 -0.50554323 0.052290734 0.2952806 0.34738973 0.12633693 0.40547782 -0.4370626 0.55607325 0.053607665 -0.88667935 0.5943888 0.06063241 0.16316393 0.6366475 -0.7601729 -0.19101305 0.055811945 0.1466286 0.019239726 -0.06502198 -0.7557373 -0.32368034 0.11448868 -0.14436097 0.0808441 -0.3469795 -0.055471472 -0.11510752
1377 0.46194896 -0.18333338 0.1271107 -0.029373512 0.41570225 -0.06400467 0.35636416 0.30925903 -0.4161954 0.26211736 0.6103581 -0.16023305 0.07079483 -0.98623246 0.43779287 0.0409052 0.1835776 0.0884492 -0.6282044 0.6720362 -0.066838846 0.86653596 0.46879944 -0.25736755 -0.95902264 0.3813471 -0.27199495 0.12691808 -0.6106184 -0.13752861 -0.09845444 -0.021704795 -0.02291374 0.3452598 -0.1474966 0.7574534 0.12595718 -0.1948464 0.1067359 0.08060897 -0.21141924 -0.026554314 -0.49551216 -0.46914223 0.6906027 -0.24944301 0.059647143 -0.14604037 -0.47848535 -0.1518425 0.80355227 -0.28943688 -0.08749161 0.10360701 -0.71977025 0.14571986 0.77095586 -0.28883263 0.046568897 0.11112929 -0.46377295 -0.23836704 0.32946333 0.22969924 0.4569333 0.24499796 -0.24915646 -0.34530115 0.75168157 -0.14963369 0.21803236 0.0043320246 -0.080551565 -0.5718335 0.2894901 -0.4509166 -0.18673496 0.22526109 -0.3902886 0.35290608 -0.0832668 -0.31977713 0.5362431 0.59759885 0.14528263 0.57581943 0.08623002 0.07104037 0.5547918 0.72235394 -0.73044354 -0.11759015 -0.14361417 -0.10492886 0.3006282 0.1509236 0.09870053 -0.45007497 0.6542378 -0.5764082 -0.36585718 -0.43316102 -0.25681183 0.44737083 -0.30117646 -0.14831841 -0.11078346 -0.07827538 -0.4210316 -0.94121176 0.006577068 -0.2603747 0.19097467 0.28465185 0.017638337 -0.3512014 0.16721241 0.4042759 0.42694262 -0.25119182 -0.6356863 -0.2542006 -0.42864794 0.5085341 -0.270799 0.13622564 -0.47974628 0.26757187
1441 -0.052968346 -0.47094026 0.27091402 0.10108018 -0.21577044 -0.51769257 0.16164386 -0.26311776 0.11873478 0.13276577 0.8742015 -0.13016368 -0.20327926 -0.1688903 0.5798249 0.037838854 -0.021036798 -0.66978204 -0.033932805 -0.27857015 0.007641959 0.7984581 -0.0036569466 -0.8254044 -0.49926224 0.8330331 -0.32214746 0.6341128 0.14971998 -0.08847953 -0.3234034 -0.34243283 -0.24890038 0.7405975 0.1415575 0.046911236 0.5901391 0.3741121 0.43385404 0.12367674 -0.4011388 -0.09522756 -0.0039085066 -0.6200218 0.62162167 -0.41028816 -0.5060123 -0.5817074 0.05567503 -0.37410307 0.70221597 -0.32864684 0.026568368 0.5062782 0.004867535 0.40164766 0.40653333 -0.12418847 -0.14014217 0.35831708 0.09223203 0.1485096 0.2623106 -0.44965848 0.053889092 -0.1559059 -0.34056222 0.025544792 0.6203413 -0.32991883 0.25720817 0.100372255 -0.42272124 -0.34733552 0.27305013 -0.3809184 0.06047907 0.3838257 -0.23961529 -0.2025132 -0.38333485 -0.44288912 0.28663322 0.69686717 0.5282717 0.2081486 0.30302417 0.13235268 -0.17337495 0.11797685 -0.2441459 -0.60009325 0.087235324 -0.4340852 0.38729775 -0.3886037 0.30106977 -0.3744258 0.08072938 -0.22851446 -0.56073654 -0.07475805 0.6894395 0.6034173 0.043121494 -0.28633446 -0.47238043 0.21762015 0.18400799 -0.83658713 0.68940353 0.05180445 -0.1885876 0.22603896 0.0075475127 0.14152676 0.33264711 0.11700289 -0.21449488 -0.23862016 -0.70937467 0.0285963 -0.35753632 -0.027875265 -0.41610542 -0.2627671 -0.23527753 -0.38151893
429 -0.090627044 0.030402485 0.1810468 0.3116932 0.18175834 -0.3118079 0.014611903 0.25426 -0.31769806 0.17325027 0.4447278 -0.30361605 0.512654 -0.64221096 -0.1372263 -0.36082658 -0.11490129 -0.60722536 -0.039047554 0.3199246 0.42393786 0.2603493 0.43878463 -0.91413677 -0.13349837 0.50875443 -0.48476246 0.43182486 -0.025837997 -0.66005635 -0.4457704 -0.39695838 -0.09939052 0.30388084 0.5102158 0.18095274 0.16278934 -0.39197245 -0.28981888 0.047167934 -0.47082746 -0.3356548 -0.16485174 -0.6378236 0.57766354 0.24468648 -0.6549801 -0.080104604 -0.66562253 0.23953956 0.580386 0.49020872 -0.2681132 0.46683326 -0.45604745 -0.07600859 0.13457888 -0.5044726 -0.00546342 0.087254934 -0.3221581 -0.57271886 0.655016 -0.18308365 -0.07965124 -0.3055289 -0.16785617 0.48588875 0.06446384 0.1487322 0.39562118 -0.20647496 -0.44356868 -0.47030446 0.02651287 -0.19604656 -0.18272619 -0.6036868 0.123452336 -0.27648327 -0.3069695 -0.050022665 0.18620706 0.5214578 0.18810852 0.2839375 0.3920493 0.28624305 0.1285787 0.32395232 -0.78141737 -0.021776827 0.3255006 -0.5552612 0.38938633 0.14278017 0.25612238 -0.51321274 -0.009340539 -0.15202263 -0.92049485 0.27338746 0.67812127 -0.029063407 0.31311488 -0.25346395 -0.051234774 0.012415307 0.25447208 -0.8830115 0.49509445 0.13616203 -0.02689752 0.004789572 -0.50659734 0.08896468 0.25104368 0.5913239 -0.30324808 -0.72152126 -0.2911345 -0.64328325 0.07422533 0.38874105 -0.27498946 -0.2241706 -0.50514746 -0.33219975
974 -0.26643586 -0.124533586 0.020259168 0.023110658 0.08456646 -0.107448615 0.3177234 0.30014592 0.00266918 0.22453462 0.46666512 0.6925126 0.4043072 -0.80837995 0.34515008 0.20094869 0.08542262 -0.62727594 -0.4045448 0.021646222 0.4431877 0.46632034 0.0828773 -0.09751557 0.019415056 0.59606063 -0.45830426 0.4290865 -0.20010118 -0.079727314 -0.35829058 0.030749308 -0.31187722 0.26053366 0.2685268 0.539042 0.6138948 -0.027572587 0.7712218 0.16706997 0.007581364 0.2527492 -0.6663466 -0.15463388 0.60700315 0.27241674 -0.17835736 -0.17034203 -0.30613446 -0.45194504 0.5473434 -0.04134894 -0.5847365 0.3380081 0.40326014 -0.38713148 0.21850386 0.021011647 -0.66845965 0.18653645 -0.4114935 -0.6522364 0.43152052 -0.45269883 0.09707903 -0.54700035 -0.49388808 -0.18252835 0.38032332 0.06403888 -0.35277987 -0.38647214 -0.48401448 -0.41884282 -0.32494467 -0.43422845 0.12042174 0.18969418 0.10823663 0.49595022 -0.09815886 0.16041167 0.5555207 0.50274247 0.3880587 0.17230114 0.02993646 0.14973079 0.5474708 0.61100334 0.045197897 -0.58606625 0.31088465 -0.69496495 -0.11953938 -0.17113899 0.09887181 -0.30862316 -0.074335925 0.21768443 -0.586023 0.32747397 0.49980426 0.6307322 0.2091187 -0.53052574 -0.69702435 0.6490473 0.05912533 -0.8758377 0.08157818 -0.10964947 0.3536932 0.12796864 -0.18364938 -0.20621142 -0.33357188 0.450968 0.04406078 -0.4923779 -0.27713245 -0.73728037 -0.118294194 0.13733087 -0.36647195 -0.22349203 -0.12508687 -0.08676804
1184 0.23057012 -0.07377203 0.4940223 0.43558082 0.40883702 0.0069890996 0.60424536 -0.079191074 -0.51866674 0.25580314 0.5993721 -0.41189733 -0.14133662 -0.9436198 0.7237247 -0.05161363 -0.078545675 -0.020437904 -0.07126327 -0.27273318 0.13339703 0.31323493 -0.025802162 -0.62736964 -0.51280165 0.56196487 0.0857575 -0.114346065 -0.5007556 -0.8084255 -0.57347435 -0.66402984 0.06432006 0.38810027 0.15920304 0.5701538 0.24101228 -0.28969026 0.18938302 -0.13288504 -0.23602045 -0.49754164 -0.3317901 -0.38420042 0.56526136 -0.32769585 -0.19043964 -0.4152808 -0.31586745 -0.025103206 0.41505274 -0.031717688 0.3027449 0.09770104 -0.025530627 0.3730953 0.42508626 -0.29341042 -0.7280343 0.0010685809 -0.31386915 -0.007554344 0.2763913 0.068776205 0.12899293 -0.15307318 0.43081278 -0.29723537 -0.0057250275 -0.13745403 -0.5330809 0.37381995 -0.4681309 -0.08893271 -0.23752463 -0.38326287 -0.53093654 -0.052370824 0.061015412 0.13478056 0.07305555 0.47506377 0.60742396 0.7412522 0.2938309 0.07189933 0.8224606 -0.16680598 0.20295636 0.9291715 -0.4419663 -0.5409105 -0.18702129 -0.16282289 -0.22647318 0.3699927 -0.77907336 -0.08838244 -0.105425596 0.21233715 -0.21672517 -0.4736449 0.23231581 0.21996197 0.4307805 0.22176382 -0.3487937 0.03843531 0.15507531 -0.738913 0.20726748 -0.9539251 0.28804758 -0.08867147 0.010617496 0.50670964 -0.28560564 0.05345182 -0.40016842 -0.2688685 -0.5749099 -0.030658174 0.010886054 0.22105514 -0.13657479 -0.025782587 -0.39995664 0.48459443
1025 -0.46138233 -0.38684416 0.43671015 -0.16600701 0.35525998 0.087331265 0.33712307 0.32731596 -0.45710057 0.2880977 1.0031955 0.15168685 -0.24321465 -0.26147303 0.49716768 -0.16505274 -0.017385688 -0.15025976 -0.37574503 0.28539205 0.3491838 0.5650456 0.16447769 -0.6012407 -0.53116864 0.29410148 -0.28028414 0.66693145 0.17458756 -0.1051622 -0.5659789 0.061406355 -0.3144195 0.23716787 0.4922226 0.73276985 0.11087152 -0.21134682 0.4564503 0.25073636 0.11516393 -0.3165591 -0.29130238 -0.44728318 0.25997248 0.04801856 -0.4672072 -0.16229652 -0.41128018 0.16756402 0.35667196 0.48090762 -0.17821963 0.540049 -0.3294021 -0.42754686 0.2828778 -0.28260309 0.19216645 0.24880758 -0.2764366 0.12312478 0.46541718 -0.5133647 0.41963118 -0.2393196 -0.39724827 0.36407423 0.6378645 0.22308634 0.1056735 0.3061009 -0.10698993 -0.657763 0.33258167 -0.36303106 -0.42535582 0.3635061 -0.23978402 0.7793081 -0.29764813 0.37545308 -0.12850423 0.6262894 0.615167 0.3057275 0.17434914 -0.1765229 -0.16811422 0.7555246 -0.047896642 -0.5014106 0.41003707 0.03567488 -0.23177737 -0.17273797 -0.30736798 -0.43181476 0.067171134 -0.2572884 -0.8620103 -0.14817569 0.15916948 0.095543526 0.3185593 0.2289469 -0.23606488 0.19326244 0.41185078 -0.5609248 -0.021240223 -0.5499506 0.07870099 0.5139638 -0.16280827 0.3139206 0.4147317 0.22379442 0.37071916 0.11219292 -0.27012965 -0.1313915 -0.41959506 0.0014081664 -0.4517487 -0.7583977 -0.684653 0.020861996
527 -0.022738066 -0.24302396 0.33894628 0.4258415 0.26855272 0.072625 0.097887546 -0.3435998 0.12549521 -0.015017859 0.33184075 0.31254315 -0.13083667 -0.6234586 0.26475534 0.11017702 0.19045156 -0.36855033 -0.0032133437 0.20795542 0.6152299 0.5212176 0.4136314 -0.15579775 -0.7726527 0.7664424 -0.2866653 0.6416307 -0.14442958 -0.4198486 -0.5470077 0.04461893 -0.088647775 0.026316632 0.0548165 0.8432621 0.45241854 -0.3787095 -0.36681184 0.045103867 -0.01721047 -0.333434 -0.062214456 -0.402752 0.08097678 0.3918567 0.25672355 -0.20279075 -0.1912898 -0.4271531 -0.101558864 0.065338306 0.22710778 0.3201767 0.31174573 -0.1455335 0.3942733 -0.07857374 -0.4390271 -0.032960065 0.085295275 -0.66855973 0.36065078 0.04355756 -0.018555317 -0.26668054 -0.3559318 -0.2050578 0.0024575614 0.093517706 -0.1958022 -0.16509986 -0.81387174 -0.45360667 0.036174748 -0.42799988 0.06345371 0.4446507 0.10653832 0.34547833 -0.17150849 -0.1640949 0.24466641 0.56367475 0.7437001 0.125008 0.5754869 0.18592036 0.39465666 0.8046024 -0.64982134 -0.5404687 0.6558472 0.22539689 0.3757554 -0.3485473 0.24667236 -0.3033675 0.42122832 0.26985845 -0.3975736 0.11540617 0.28984156 -0.04266602 -0.17394222 0.051814947 -0.35606304 0.4173138 0.36557102 -0.9280032 0.019635756 -0.5889674 0.040343568 0.16845816 -0.34799835 -0.17128953 0.39387193 0.571889 -0.14387442 -0.50996184 -0.21325636 -0.68444914 0.35983828 -0.090251826 -0.5481075 -0.71804786 -0.7186271 0.10950983
1390 0.08213719 0.19408442 0.13243997 0.13426676 0.20979674 -0.3887905 -0.19158937 0.07632474 0.15648596 0.06585008 0.5204532 0.0367551 0.29936424 -0.53379154 0.5178864 -0.22698833 -0.53166306 -0.5797102 -0.5006378 0.06586581 0.6016713 0.5062837 0.5738776 -0.45699906 -0.036349237 0.49421555 -0.41701755 0.5065956 0.13939153 0.108815014 -0.81281507 -0.31098413 0.018618327 0.13154028 -0.00059640093 0.42126346 0.21458197 -0.32809055 0.4855859 -0.10400131 -0.3214693 0.058455843 -0.31222686 -0.9086787 0.13970686 0.029646488 0.0819802 -0.52267396 -0.384011 -0.1335777 0.33171597 -0.19323312 -0.34131232 -0.03966639 0.3490597 -0.4649206 -0.007828009 -0.0070437035 -0.1991367 -0.4554147 0.5097284 -0.3230633 0.23359418 -0.5720094 -0.1423484 0.21824849 0.10331026 0.29108557 0.42400604 -0.35566735 0.11484847 -0.25731254 -0.47576752 -0.15410966 0.088943176 -0.4978254 0.11076212 0.1319865 -0.41615495 0.41724208 -0.1324102 0.266319 0.3542571 0.65752417 0.18858252 -0.39497042 0.63034725 -0.24046464 0.5560543 0.6978319 -0.72039264 -0.34045613 0.49410802 -0.37220156 0.66892236 -0.376283 -0.52863634 -0.2164882 0.073360845 -0.40671 -0.5405168 0.39888737 0.10690801 0.06864411 -0.34023708 0.07276429 -0.41738057 0.5686637 0.11862193 -0.6437836 -0.00048150067 0.15493816 -0.011923202 -0.14755742 -0.52968925 -0.029828025 0.52575946 0.34806857 -0.22148465 -0.46302372 -0.76284474 -0.22994575 -0.48570222 -0.12992601 -0.06725177 -0.37606713 -0.7189582 0.23121539
1195 0.036767744 -0.6702457 -0.26743743 0.37338787 0.39056453 -0.52790755 0.5629859 -0.064458996 -0.5790043 -0.48653176 0.2554397 -0.45019832 0.051651273 -0.43628466 0.7181221 -0.043981303 -0.10959179 -0.22736558 -0.35473776 0.55867285 0.23824516 0.65572155 -0.27304226 -0.2038276 -0.2753134 0.710395 -0.58784807 0.0032028637 -0.29542127 0.102842435 -0.56944126 0.011457707 -0.44515643 -0.0023261888 -0.13060018 0.30290583 -0.22713777 -0.018975541 -0.28845048 -0.05637186 -0.3092327 -0.053143337 -0.08206266 -0.178866 0.4150653 0.03440735 0.33230174 -0.5591328 -0.46472332 0.3498688 0.41657728 -0.22059253 0.41443154 0.08495138 -0.39570844 -0.5269453 0.5654227 -0.55387145 -0.2081557 0.47535577 -0.004945338 -0.11906483 0.28471375 -0.42478457 0.0677207 0.25579903 -0.30695453 0.3223906 0.3697012 -0.17403556 -0.031066434 -0.23477615 -0.3509932 -0.36745837 -0.0119305905 -0.2672762 -0.54752594 0.23191278 -0.27856675 -0.028933493 -0.24780808 0.122471154 0.23274642 0.38416034 0.3308764 0.41457975 0.56754345 -0.27873477 0.53964096 0.29988772 -0.27755678 -0.47508398 0.06307622 0.0314258 -0.11650664 0.39944535 0.011551923 -0.480238 0.087725714 -0.39975798 -1.0240703 0.047767315 0.37947413 0.6226656 -0.27649012 -0.23872958 -0.26557246 0.3470531 0.26105726 -0.93400985 0.43978366 -0.63373685 -0.06355607 0.5810199 -0.6328531 0.19400778 -0.25793684 0.06470085 0.014668223 0.12794623 -0.7256869 -0.42750004 0.05720551 0.5705337 -0.15918401 -0.044783812 -0.79996026 0.72064155
1413 -0.40558293 -0.3821074 -0.37885886 0.16296694 -0.1785074 0.42099944 0.4531118 -0.09589355 0.30580592 -0.45599964 0.46414652 -0.076212324 -0.20115082 -0.3841052 0.51721483 -0.10408919 -0.41964707 -0.6019595 -0.197938 -0.0454434 0.6442691 0.9534451 -0.24878372 -0.3394071 -0.6561434 0.56734097 -0.56672025 -0.3589753 0.034765523 -0.7525183 -0.5030301 -0.12661614 -0.033736687 0.2578745 0.50080824 0.9218014 -0.14497787 -0.15362476 0.34421706 0.51072747 -0.018551312 0.42128232 0.24045852 -0.63953507 0.4620315 0.13401335 0.41094846 -0.03260923 -0.7898189 -0.33463576 0.6058733 0.17104164 -0.029510817 0.74109983 0.014696105 -0.17845915 0.2985226 -0.5863624 -0.23733976 0.24158585 -0.18648978 -0.259461 0.50522035 0.30945176 0.69926506 -0.025297651 0.24550413 0.20485349 0.0940377 -0.38765648 -0.43412536 -0.030851517 -0.83385867 0.21195751 -0.25448155 -0.32792923 -0.099132895 -0.042156316 -0.502038 0.04314296 0.010227259 -0.47051796 0.28657487 0.5583634 0.5050057 0.19311346 0.092299886 -0.010461763 0.49078268 0.0009455074 -0.33251947 -0.35979652 -0.45855945 -0.335215 0.17972808 0.007982433 -0.54886377 -0.2830519 -0.17809445 -0.060569458 -0.6086327 -0.32429692 0.15858513 0.5513757 -0.35435516 -0.58066255 0.01643681 0.2716995 -0.09663162 -0.8532707 0.4569502 -0.68762356 0.17372617 0.60380733 -0.2641157 -0.032112624 0.23224305 -0.042156998 -0.2300713 -0.31997323 -0.78847295 -0.5663394 -0.4371877 0.35993466 -0.44638184 -0.13194822 0.016532745 -0.10992304
591 -0.4676796 -0.087909095 -0.2074443 0.43799508 0.49752757 -0.24936624 0.59952205 -0.15245089 -0.17120887 -0.13572124 1.0038904 0.30900604 0.109413795 -0.29374516 0.16550116 0.27793977 -0.5178261 -0.53658926 -0.59898233 0.36865354 0.32334715 0.42284492 0.4830473 -0.8117599 -0.54083407 0.8103977 -0.67937607 0.6303584 0.009445339 -0.5155219 -0.21840392 0.2990207 0.041583717 0.64089674 -0.124623656 0.23677123 0.7063166 0.265825 0.3136659 0.0005443988 0.124298215 0.20439853 0.14317481 -0.38202322 0.760477 -0.28232938 -0.43175152 -0.34429184 -0.17096686 -0.06620702 0.5716866 -0.3280687 -0.5686069 0.5873433 0.23960616 -0.28161886 0.16538756 -0.37724736 -0.41042995 0.41978696 -0.07293576 -0.26860797 0.22345914 -0.17913847 -0.22289796 0.27667314 -0.40507823 -0.026341481 -0.048496973 0.16664222 0.25744957 -0.04538421 -0.28153825 -0.5202978 0.26147088 -0.29105103 0.08646369 -0.15834305 0.1885303 0.49664813 0.44692862 -0.014896066 0.058048487 0.089944415 0.62593776 -0.1608067 0.025871482 0.18148518 -0.004919627 0.91759175 -0.67474395 0.11337732 0.24519771 -0.68734515 0.42549738 -0.3750669 -5.11502e-05 -0.1995606 -0.20214258 0.1622863 -0.2921435 0.23127536 -0.0039837672 0.07480027 -0.35264686 0.07459692 -0.44406292 0.24657936 0.3804301 -0.2462079 0.24687007 -0.29933694 0.15507893 0.40487936 -0.6298221 -0.22095835 -0.04165362 0.47672945 0.12997739 -0.66528386 -0.6697756 -0.11857337 0.0731965 0.17032942 -0.41636017 -0.3761472 -0.40743864 -0.17197846
874 -0.27373186 -0.28802893 0.15459038 0.20896268 0.34860528 0.12052371 -0.019445602 0.3099568 -0.23991723 -0.1480186 0.17116046 -0.32153004 -0.024165196 -0.95411754 0.66246223 0.18405184 -0.29830453 -0.23076056 -0.0617933 -0.1766366 0.45274645 0.5093476 0.069669165 -0.3803712 -0.62306607 0.96795046 -0.33314803 -0.16126516 -0.020968016 -0.54822934 -0.093706325 -0.31941012 -0.039768662 0.22576757 0.17420506 0.10347771 0.5622303 0.04788251 -0.14130999 -0.028186593 -0.39481342 -0.25446957 0.09230439 -0.042922873 0.057723828 -0.088073246 0.18970287 -0.7413164 -0.38875833 -0.2562636 0.011095719 -0.12170931 0.36348784 0.3107001 -0.18061593 0.060475502 0.38011324 -0.54995406 -0.44222242 0.23567408 0.07953659 -0.34632778 0.7289705 0.1017162 -0.24900256 0.31273744 0.40788287 -0.2730731 0.69767135 -0.5972946 -0.13015065 0.09694633 -0.63036245 -0.7918049 -0.52886105 -0.5350511 -0.47391343 0.4008722 -0.05912548 -0.5318561 0.4904926 0.45288846 0.69292754 0.84161097 -0.16766492 0.25827804 0.4729449 0.2369385 0.3935642 0.3555155 -0.20868842 0.12784867 -0.3246405 -0.056987368 0.1572784 -0.25346506 -0.47685736 -0.702836 -0.10750738 -0.09992959 -0.55343896 0.27019414 -0.08965453 0.15169834 0.18377627 0.33842576 -0.041115608 0.37235597 0.44860014 -0.6404722 0.3945873 -0.6328641 0.093560904 -0.08127721 -0.081349075 -0.120182514 -0.025406403 0.12757893 -0.015927115 -0.6296276 -0.82828605 -0.4652547 -0.12225567 0.26055506 -0.20261854 -0.18874668 -0.6981098 0.58080167
1012 -0.05757421 -0.430442 0.18007304 0.34728596 0.22596101 -0.6580922 0.04596893 -0.33875036 -0.30554342 0.3778836 0.42602146 0.21801175 0.0016787288 -0.45526257 0.06826036 0.26643097 -0.4364135 -0.14628679 -0.73476464 0.28973675 -0.020115163 0.51973045 0.026217641 -0.72230196 -0.33342847 0.67664075 -0.26404494 0.31704175 -0.1786182 -0.58811134 -0.08265385 0.27626264 0.2760155 0.6198616 0.027049342 0.7930584 0.12972762 0.18674251 0.035808988 0.08351115 0.15051237 -0.13678056 -0.47568053 -0.50741434 0.42306834 0.30223864 -0.36846057 -0.33784488 -0.5155379 -0.42800304 0.2810967 0.087839685 0.30618048 0.68829864 0.5029334 0.27592307 0.1803896 -0.3888587 -0.04283729 0.39881065 0.17664416 0.029406257 0.49180987 -0.09469757 -0.34542087 0.14825271 0.36834043 -0.21500203 0.38615462 0.16243304 0.2820339 0.09411404 -0.04685018 -0.4326806 0.26829413 0.10877059 -0.20308037 -0.11538319 0.24617107 0.52008086 -0.24486038 -0.2225689 0.10207766 0.6849547 0.4982928 -0.09726294 0.50953186 0.41227633 0.4888738 0.8412795 -0.51912963 0.019567247 0.57350737 -0.16464455 0.081751615 0.0060373675 -0.36270976 -0.08678767 0.11070498 0.22424035 -1.2050811 0.037271928 0.7746812 0.21340767 -0.16004047 0.06477447 0.10021194 0.123057805 -0.22846946 -0.30818683 0.02876863 -0.24403839 0.22528124 -0.13894215 -0.5180975 -0.32469586 -0.034729518 0.441467 -0.31796587 -0.33077016 -0.20181516 -0.6780668 0.029422862 0.1724947 -0.45160908 -0.7261146 -0.14133702 -0.010048263
1405 0.4385005 -0.16538844 -0.103757635 0.3106143 0.10064206 -0.001987581 -0.033544194 0.24792662 -0.2866113 -0.15356301 0.6558225 0.3616214 0.039047644 -0.55354214 0.5078147 -0.036335297 0.14839292 0.17768 -0.13297023 0.19290829 0.06000442 0.92165387 0.28780004 -0.6066672 -0.7319467 0.50921243 -0.21618274 0.10503597 -0.51022065 -0.46672666 0.116252996 -0.06308968 -0.044867445 0.332328 0.46815053 0.30833054 0.28748322 -0.12560332 0.24182609 -0.50958014 -0.18707922 0.34932494 -0.23632762 -0.73251855 0.59255785 -0.29033527 -0.19486485 0.054507766 -0.11640415 0.10167361 0.51801705 0.020997372 -0.4772692 0.18292356 -0.28092277 0.20302005 0.6430389 -0.45828173 -0.1282175 -0.19848992 -0.07834078 -0.15952946 0.2949371 0.22922857 0.29710218 0.22623765 -0.14181617 0.16292363 0.81301856 -0.31181172 -0.019402105 -0.15392868 -0.6650891 -0.44358835 0.1418761 0.032035414 0.036683448 -0.16524735 0.15226941 0.109033614 0.15307264 0.15741868 0.9068827 0.5860355 -0.06525247 0.50838 0.6068505 0.5556061 0.28418842 0.82313657 -0.20045902 -0.5195427 0.18490963 -0.24936672 0.2106568 -0.07287511 0.023095695 -0.52842134 0.53136104 -0.5526348 -0.8072682 0.10471719 -0.30721265 0.7338693 0.27975813 0.30619285 0.27391273 -0.40252125 -0.024895772 -0.7275366 0.047030766 -0.013693249 -0.05431255 0.51381105 -0.41963437 -0.34627727 0.105462655 0.20324527 0.5278437 -0.21502535 -0.43899158 -0.25030228 -0.2745452 0.43324226 -0.3582678 -0.015124813 -0.70548594 0.2522008
1452 -0.052180097 -0.18267715 -0.40114453 -0.32354128 -0.14359161 0.08395717 0.08742924 -0.07592593 -0.42808074 -0.047515098 0.5228283 0.31525242 0.3484078 -0.4196726 0.80314595 -0.03312995 0.44123513 0.029319188 -0.24772426 0.40992767 -0.11656256 0.52079463 0.39674035 -0.56334543 -0.5896291 0.577145 -0.17177789 0.10307108 -0.29944485 -0.51436096 0.0068239057 -0.3345566 -0.35907885 0.50547516 0.21093811 0.56092614 0.19273865 0.13259427 0.57436913 0.25582793 -0.07420358 -0.12903944 -0.21184257 -0.19509348 0.4460324 -0.16092746 -0.06708409 -0.5070687 -0.07225343 0.23916438 0.59654325 -0.11809083 0.042268444 -0.06469712 -0.5093625 0.18345776 0.769326 -0.46761703 -0.04229316 0.2393661 -0.62367564 -0.43878916 -0.03875388 0.30689386 0.06798514 0.0048634936 0.039317302 0.16783743 0.8750042 -0.6627685 0.010098737 -0.16681534 -0.3762336 -0.41656604 0.23392291 -0.22259843 0.3474691 -0.09440926 -0.14151505 0.43683526 0.5029753 -0.10398105 0.643167 0.9439917 0.07596326 0.37624788 0.49251372 -0.02110484 0.5712952 0.51634115 -0.5177056 -0.651501 0.10767189 -0.18584967 0.4267346 -0.4144591 -0.41050673 -0.2014994 0.37665486 -0.18857087 -0.9377259 -0.1566205 -0.32287756 0.5996877 -0.044505898 -0.02568893 0.104823835 -0.00302996 -0.23997444 -0.63582176 -0.11214759 -0.44433805 0.23596202 0.58647203 -0.70574135 0.008869239 0.1751603 0.4755072 0.4299676 -0.388251 -0.29898682 -0.040718317 0.15774216 0.34104747 -0.41219756 -0.1896462 -0.42017612 0.5254471
196 -0.39524356 -0.43278018 0.4683002 -0.16205095 0.1532433 -0.25085735 0.38876793 -0.2058485 -0.077442415 -0.29837996 0.7080511 0.029949632 -0.012916263 -0.43960902 -0.008489278 -0.06686945 -0.28138575 -0.79596514 0.08506514 -0.02256602 0.38960084 0.79734594 0.19758497 -0.33896747 -0.3256292 0.57906383 -0.012785163 0.7887522 -0.053319804 -0.54672337 -0.09813043 -0.20446247 0.34785977 0.48077673 0.46895728 0.43516427 0.23220424 0.024857204 -0.094734654 0.48379317 0.07009705 0.14858827 -0.5873323 -0.7913241 0.52954614 0.12521026 -0.3558537 -0.708246 -0.37350926 -0.044234734 0.0025659015 0.016998976 -0.13695347 -0.14164227 -0.014740667 -0.40176457 0.0009324622 -0.23235352 -0.7404899 -0.14346144 -0.36403462 -0.5287775 0.3931332 0.0058139344 0.5538348 0.1970703 -0.41879132 -0.37853116 0.6393425 0.14098328 0.3468654 -0.10456396 -0.55431676 -0.65131426 -0.30204457 0.02100523 -0.19212066 0.1659933 -0.28707528 0.73507744 -0.122586146 0.34570235 -0.04051621 0.21054266 0.58207494 -0.2783039 -0.087838486 0.30902693 -0.06222488 0.65167433 -0.3124187 -0.59936863 0.3340416 -0.2382588 0.5295409 -0.2868261 -0.28173068 -0.49465182 0.578228 -0.3168398 -0.17339075 -0.027161174 0.31285372 0.054078817 -0.021729348 -0.38013652 -0.21131852 0.10917829 0.5369909 -0.794233 -0.07757569 -0.0931104 0.37948075 0.17194277 -0.39239314 0.18034537 -0.21037287 0.038162917 -0.15781167 -0.13043596 -0.54603696 -0.8956811 -0.33804438 0.14499453 -0.17258857 -0.0069271843 -0.13682285 0.17362201
1385 0.21367447 0.0791879 -0.33258525 0.14564823 -0.03757735 -0.04625621 -0.01649863 0.08249501 -0.05443457 -0.099177495 0.19407175 0.25086465 0.11966025 -0.494383 0.18605262 0.26186818 0.10361882 -0.08448115 -0.36296114 0.35488707 0.5414208 0.41038254 0.41654214 -0.5041952 -0.40591505 0.89689773 -0.5197831 0.19842231 -0.55305696 -0.12606494 0.1799591 0.017631264 0.2985283 0.013578223 0.22465509 0.37963912 -0.312778 -0.174428 0.35967383 -0.18453753 -0.40890214 0.122189395 -0.3589979 -0.8963655 0.76998574 -0.06755037 -0.3334644 -0.32175466 -0.50401884 0.35107934 0.48810855 0.28898695 -0.01958757 0.038860008 -0.8083086 -0.22156474 0.75702566 -0.46085098 -0.29689217 0.11439411 -0.5120898 -0.1562898 -0.07663433 0.4600153 0.024193589 0.34293818 -0.2963757 -0.16326879 0.6120651 -0.31041208 0.16636692 0.021387111 -0.4506492 -0.03741154 -0.14741887 -0.43505508 -0.3204142 0.15215468 -0.12660515 0.11421829 0.32375792 -0.4624045 0.79210705 0.8646128 0.46940833 0.2952024 0.45626682 0.3345486 0.7161582 0.4707371 -0.5047589 -0.4893767 -0.20460641 -0.07260286 0.43895635 -0.27378005 -0.14064139 -0.55889523 0.24036337 -0.57536304 -0.47824034 0.09359637 -0.046962634 0.9125629 0.10634936 -0.3551738 -0.20159915 -0.23661171 -0.3629865 -0.37771815 0.29925308 -0.21906982 0.046352834 0.2587755 -0.11599965 -0.32621968 -0.082740955 0.08345022 0.10815028 -0.53103215 -0.21424758 -0.7035332 0.25252968 -0.08108907 -0.539948 -0.24424885 -0.7647638 0.44213727
1089 -0.3542266 -0.17511171 0.35364103 0.1329781 0.19100153 0.05906359 0.44566208 0.1594989 -0.036909223 -0.41470957 0.47184274 -0.41044924 -0.15020476 -0.46120805 0.20238313 -0.25246727 -0.14802964 0.05743667 -0.003963783 -0.23503529 0.5149663 0.7411593 -0.2591771 -0.26837388 -0.37927884 0.30345976 -0.37633044 0.35223547 -0.20193602 -0.7262068 -0.58717847 -0.59745306 0.1752226 0.41310176 0.2742191 0.18009566 0.6531434 -0.37961322 0.120025955 -0.42163625 0.41321686 -0.22086485 -0.33381623 -0.50256115 0.68305755 -0.049334683 -0.29358932 -0.40628776 -0.42038152 0.18626 0.83644503 -0.29364184 -0.072338514 0.33555382 -0.5118067 0.25648907 0.5988756 -0.29384783 -0.7116623 -0.030240444 -0.17541103 -0.085259326 0.9433347 0.10017707 -0.19992168 0.13651869 -0.015094123 0.07875961 0.13191031 -0.5598553 -0.19995993 0.23652168 -0.6675663 -0.43293566 -0.25564355 -0.24232931 -0.01265626 0.047759105 -0.15883589 -0.46972188 -0.17453673 0.21582079 0.44558161 0.13064243 0.4920088 0.68891585 0.62414706 -0.038648903 0.28094804 0.924218 -0.8168117 -0.3757628 -0.51561636 -0.23601066 -0.20269766 0.14690147 -0.17841496 -0.3320555 -0.27959606 0.11027356 -0.22552477 -0.38918304 0.48363203 0.74203813 0.36290973 -0.23667145 0.20896086 -0.17266563 -0.12256448 -0.28613386 0.07512325 -0.35020623 -0.11495877 -0.121723816 -0.33279666 0.045694567 -0.098173015 0.31913453 0.038543124 -0.73908705 -0.8335159 -0.36016706 -0.2250287 0.071826145 0.08789586 -0.1755606 -0.77919704 0.38117933
925 -0.1749931 -0.55725354 0.22874488 0.18226004 0.096971676 -0.6056627 0.054682348 0.3113944 0.04821216 -0.27639437 0.2570331 0.27768916 0.14858532 -0.38001263 0.2330059 -0.31219882 -0.10173586 -0.31418952 -0.4846237 0.32520393 0.51057255 0.97594386 0.13276322 -0.36273497 -0.18490055 0.39733014 -0.023414705 0.5683939 0.36997858 -0.56050897 0.1535327 0.22115621 -0.11052417 0.6345428 0.40177092 0.7455192 0.48738366 0.05121749 -0.020166386 -0.112065725 -0.5733258 -0.1772156 -0.40405834 -0.32289845 0.30684742 0.06337458 -0.07669361 -0.6591955 0.14089453 0.16040432 0.7584138 0.1348446 -0.26715726 0.44255894 -0.5115848 -0.28282782 0.26339918 -0.34202823 0.0051217373 0.028726103 0.26026163 -0.45247877 0.65574956 -0.37251747 0.01428273 -0.013457372 0.045683898 -0.11932743 0.31944183 0.24078242 -0.4415677 0.2671526 -0.5817316 -0.07772154 0.1744157 0.11957612 -0.18665007 -0.20673047 -0.31054616 0.28170294 0.18520367 -0.3996424 0.2534367 0.61736447 0.5465506 -0.024055129 0.5431514 -0.32971978 0.28422922 0.90320987 -0.10298736 -0.6550522 0.1677388 -0.5977251 0.12653089 -0.044846386 -0.45495507 -0.27338928 0.093271405 0.23310256 -0.42649165 0.23989359 0.4610687 -0.07974911 -0.4796067 -0.12791023 -0.7952299 0.5190721 0.32584125 -0.6484786 0.5028691 -0.5743943 0.102665104 0.21537495 -0.00066807313 0.21468586 -0.11030067 0.046118215 -0.23229027 -0.06362198 -0.20606276 -0.061406102 0.32585022 -0.44606468 0.24991183 -0.68979496 -0.40667257 -0.1496581
608 0.14936957 -0.2687678 0.26934317 -0.24378687 0.25915846 0.0063108 -0.01982207 0.5430705 -0.39302537 0.41108844 0.2468783 0.017947523 0.01378235 -0.3205384 0.09760128 -0.15561277 -0.59848464 0.006161422 -0.18009463 0.039949346 0.36688763 0.97538906 0.35743082 -1.0448754 -0.3365498 0.44517443 -0.29615045 0.7331984 -0.061087795 -0.47334084 -0.19037871 -0.17964078 0.07816814 0.6835903 -0.3233822 0.3232944 0.5516036 0.10628952 0.42255256 0.107265115 0.097435184 -0.35626957 -0.032184396 -0.9715398 0.34756348 0.32884184 -0.33329636 -0.045276865 -0.5416805 -0.2082926 0.6346643 -0.10215403 0.10869104 -0.0675517 -0.015129635 0.35447088 0.57567203 0.006456324 0.23215628 -0.46217114 -0.27726465 -0.12921464 0.18385197 0.00785456 0.6898463 -0.31316212 -0.043636415 0.34703413 0.19120128 -0.43456316 -0.0018354 -0.401795 -0.49616036 -0.29932725 -0.16163464 -0.20853257 -0.25317955 -0.23821537 0.03489837 0.51626503 -0.11944814 0.29321304 0.035325605 0.70250386 0.52722615 0.22680393 0.7015069 -0.14564058 0.30785373 0.28747624 -0.11889799 -0.7419737 0.29853192 -0.03969401 -0.07623703 -0.117153 -0.110371076 -0.36305717 0.24149147 -0.38069803 -0.2943555 0.3414099 0.22082952 -0.025459748 -0.10272813 0.029480675 -0.50258434 0.61719805 -0.25670347 -0.8267493 0.64004284 -0.3239068 -0.22390532 0.60309905 0.00954053 -0.17081234 -0.21819101 0.2055269 0.3240391 -0.4235588 -0.20805228 -0.60456693 0.11541009 -0.19437937 0.010125447 -0.096333876 -0.6156541 0.034799874
1057 -0.25448522 -0.7001249 0.34807372 0.16582996 0.29692093 -0.53405374 0.6610177 -0.3033622 -0.4221248 0.007905218 0.14715888 -0.20289545 -0.2667056 -0.9672817 0.59484464 -0.15036735 0.086302236 -0.42499503 -0.44411463 0.041412875 0.4685364 0.4540578 -0.40617064 -0.1636236 0.004082752 1.0041336 -0.30417433 0.20423114 0.2440223 -0.70369804 -0.5632199 -0.12266644 -0.085771464 -0.117199294 0.37674612 -0.048279356 0.17650393 0.06182169 0.7408924 0.38641614 0.040442623 -0.34144965 0.3060231 -0.08456477 0.037531868 -0.36931136 -0.36903676 -0.17168543 -0.105828665 -0.3177509 0.6831196 -0.3183663 0.096307375 0.15859132 -0.16858846 0.009221245 0.5893214 -0.62167585 -0.59317845 0.12729739 -0.2150961 -0.47589457 0.88098013 0.40352386 0.29626936 0.13091789 -0.07383347 -0.1087738 0.44562238 -0.26532456 -0.37650624 0.21434551 -0.54944646 -0.5174356 -0.5888918 -0.49316683 -0.37846467 0.3129432 -0.0827404 -0.23522514 0.00039745384 0.48346704 0.7722619 0.5894628 0.12818405 0.30335733 0.69493747 0.061513186 0.16858567 1.0096188 -0.21603598 -0.0020442111 -0.41012418 -0.4426607 0.27277505 0.10110805 -0.5953917 -0.07046602 0.15260993 -0.4035666 -0.077332295 -0.3399639 0.067998156 0.52657205 -0.052204426 0.09154742 -0.27237684 -0.2918002 -0.044327166 -0.14804168 0.340906 -0.19683525 0.29284984 0.3302884 -0.27139434 -0.07304301 0.043754943 -0.025737649 0.1921477 -0.40911922 -0.61440814 -0.49320948 0.20931129 0.17966162 -0.03905729 -0.25299922 -0.42297596 0.06405353
561 -0.067493685 -0.62436163 -0.17487371 0.23767957 0.24232869 -0.16238706 0.6305701 -0.39699852 -0.4652962 -0.44326773 0.07412464 -0.1724419 -0.030048674 -0.31718257 0.594824 -0.06865473 0.008634521 -0.42189154 -0.50134635 0.43949544 0.1408919 0.541134 -0.0549234 -0.61044186 -0.40629467 0.83893317 -0.52243626 0.090062864 -0.2813275 0.2758596 -0.41805857 -0.2556255 -0.41258955 0.04186189 0.10095955 0.1265875 -0.30808616 -0.0013154936 -0.15870686 -0.1474827 -0.43034747 -0.15379514 -0.12884873 -0.09297454 0.753259 0.081945136 0.26467136 -0.43118072 -0.3072392 0.2078213 0.4579051 -0.359665 0.3675246 0.26400056 0.00242272 -0.45926103 0.7509324 -0.40353504 -0.44809937 0.47644043 -0.23068742 0.14937548 0.13991255 -0.29229313 0.13535248 0.04681418 -0.36244136 0.29374066 0.10335825 -0.050543156 0.32875362 -0.14542441 0.016555717 -0.3288703 -0.09172588 0.0204411 -0.71364826 0.04718589 -0.35771856 0.2742821 -0.32280028 0.24870306 0.21820329 0.7169208 0.44870257 0.6131251 0.57397574 -0.1843341 0.58355635 0.34114093 -0.53571665 -0.18165848 0.42494118 0.15882687 0.046574663 0.37276745 -0.22987862 -0.24512544 0.009903577 -0.66538167 -1.0568789 0.09256316 0.061747514 0.5928851 -0.2634096 -0.040569924 -0.35342646 0.5748485 0.33053455 -0.6906218 0.27974305 -0.5556198 -0.22506957 0.643109 -0.6981978 0.39406657 -0.12282024 0.5417831 0.10509945 0.02769652 -0.45549932 -0.1743105 -0.2844156 0.28364474 -0.13305204 -0.3027744 -0.55035347 0.42804515
753 -0.15679896 0.22820856 0.36942717 0.4008729 0.5364298 -0.22810768 0.30006686 -0.26116207 0.061045505 0.08871212 0.7487594 0.3366557 0.51499504 -0.12292369 0.5065922 -0.08520458 -0.45287937 -0.51320106 -0.6829889 0.13208866 0.6298934 0.71996623 0.17023449 -0.36009324 -0.70036876 0.7710738 0.0011480772 0.24787721 0.2927121 -0.7743438 -0.60416305 0.34539136 0.25772944 -0.060137395 0.4761156 0.057574958 0.38880587 0.20170997 -0.069998994 0.39599508 -0.13395938 -0.30540225 -0.04936156 0.005733012 0.45004627 0.2152945 -0.13848156 -0.62232953 -0.26089516 -0.16803233 0.44390163 0.4232129 0.16938299 0.15211585 -0.20392987 0.23778103 0.58520675 -0.3190986 -0.07066483 0.43844658 -0.10902857 -0.024661567 -0.026547838 -0.43670264 -0.09799308 -0.59365964 -0.48727548 0.2559742 0.059201784 0.15886977 0.059454132 -0.20191023 -0.54716927 -0.70215017 0.12121392 0.19806445 -0.07116413 0.25586408 -0.19541362 0.7941089 -0.074245386 -0.21901366 0.33843583 0.48792532 0.4148916 -0.14221138 0.38550872 0.25176245 0.5240353 0.41808176 -0.40799415 -0.69633263 0.33576572 -0.54267514 0.29069114 0.013464375 0.15158735 0.009163354 0.037282463 0.33886644 -0.8223919 0.40580735 0.27945882 0.3869539 -0.11328959 0.09463469 0.23230527 0.15068206 -0.40478325 -0.2661818 0.2956922 -0.44280922 0.29297736 0.015847716 0.15465334 0.033763006 0.19596706 0.4418109 -0.031855512 -0.5457836 -0.35434577 -0.34034503 -0.2563004 -0.33471367 -0.1882482 -0.34859535 -0.520216 -0.33009064
499 0.14181809 0.21629937 -0.070061766 -0.2536071 0.3044292 -0.49604192 0.31401843 -0.17912221 -0.40066198 -0.16666795 0.689586 0.26803422 -0.3470069 -0.82325083 -0.21888937 0.0064118523 -0.6968905 -0.27559882 0.087569445 -0.2510179 0.24625283 0.8412036 0.33725908 -0.36861882 -0.41415685 0.14334378 -0.40336323 0.32202938 0.27461347 -0.43438265 -0.09177258 -0.36663014 0.16135004 0.5355067 -0.06647554 0.6835135 0.060606267 0.10138556 -0.24894632 -0.114313595 -0.16106746 0.2512941 -0.12685534 -0.7630706 0.19647197 -0.16294822 -0.5507833 -0.23306708 0.09246219 -0.34261665 0.71492445 0.14176077 -0.45997348 0.2949249 0.20572424 -0.01729012 0.29033512 0.077438295 -0.40138796 -0.2247303 -0.41799787 0.012205532 0.20464584 -0.48068732 -0.13277398 -0.10048589 0.3742747 0.06342353 0.40938708 -0.045406964 0.4301061 0.21395727 -0.66916794 -0.7971462 -0.19853476 0.026927678 0.1881108 0.27684698 0.022494897 0.56199276 -0.030656295 -0.032393474 0.3317525 0.61557466 0.22665612 -0.07970862 0.0011589827 -0.3586916 0.023980761 0.8065421 -0.6618536 -0.6717528 0.32995564 0.03832002 0.4652752 -0.26869997 0.023331564 -0.36529854 -0.038269974 -0.27492493 -0.62527287 -0.23055607 0.51467544 0.5601683 -0.1480318 0.020675914 -0.022902312 0.45590582 -0.15664028 -0.34540984 0.16931424 -0.11335763 -0.091900304 -0.1450572 -0.10080457 -0.2829559 0.30543673 -0.07597919 -0.03444154 0.17192794 -0.7057613 -0.7984912 -0.14544307 -0.328075 0.0005556765 -0.80535644 -0.53713226 -0.37916577
1328 0.5735765 -0.34699416 0.05316287 0.19935237 0.53964245 -0.101722896 0.108637184 -0.1991479 -0.15826018 -0.30315357 0.441335 -0.086958945 -0.060562618 -0.8868145 0.3051989 0.4992954 -0.25492275 0.38150233 -0.2640258 -0.29353374 0.049806785 0.13074508 -0.5998079 -0.7357091 -0.34419888 0.37900874 -0.44653964 -0.113401495 0.052276943 -0.21885712 -0.26812324 -0.16521123 0.03285181 0.26026917 0.65489507 0.2781889 1.1991925 -0.06639583 0.014194629 -0.3464802 0.3840478 0.022427024 -0.038578436 0.10727217 0.48948073 -0.18036531 -0.68670326 -0.7461576 -0.12576398 0.07514337 -0.35641816 -0.3447895 1.0236392 0.6865431 0.14346254 -0.20596154 0.9885448 0.035901647 -0.7465526 -0.3612176 -0.07277353 0.022343688 0.597978 0.51265985 0.5334888 -0.2960044 -0.09693906 0.08135884 -0.46573702 -0.63822806 0.13987106 -0.27904513 -0.4759672 -0.555502 -0.6233386 -0.25988814 0.13231154 0.01574079 -0.43196973 -0.31888765 0.15320158 -0.35798946 0.5161197 0.9601144 0.15389557 0.7664028 0.19992591 -0.42255336 0.13867402 0.39772907 -0.6540521 -0.05960847 0.18958226 -0.19865292 0.2963615 -0.17864008 -0.88790923 -0.49443093 -0.35288364 -0.32060516 0.21867017 -0.37481692 -0.02441991 -0.0566837 0.44267872 0.24155082 -0.06646777 -0.11627367 0.018203633 -0.048962712 0.15523224 -0.56850904 0.44578218 0.0186867 0.09795552 0.1871424 -0.29489604 0.2197368 0.007589083 -0.29839137 -0.36008164 -0.42608848 -0.467473 0.04657842 -0.08610782 -0.0730288 -0.18100911 0.20626006
624 0.15506542 -0.1411424 -0.072809346 0.3111688 0.65140814 -0.22306244 0.037936028 0.08750203 0.29335296 0.14011773 0.88778013 -0.07436103 0.41593888 -0.6965072 0.5918489 0.70819503 -0.41733325 0.17454906 -0.14838035 -0.005247861 -0.05417954 -0.17313391 -0.17989802 -0.6078787 -0.27602857 0.57302886 -0.023190396 -0.5092051 0.20420204 -0.3647298 -0.3618153 0.086453795 0.29687655 0.6417122 0.17136747 0.45893753 0.9378585 -0.2529701 0.1219109 -0.2808768 -0.26058015 0.54197484 -0.12258547 -0.04434052 0.5546304 0.14757538 -0.52861714 -0.6323262 -0.32996178 0.1724841 -0.5849083 0.10367886 0.7392423 0.17748205 0.076111384 -0.3080835 0.76813895 0.044870693 -0.35447204 -0.55653936 0.2777508 -0.2695194 0.6039744 -0.19153248 0.5172951 -0.5369079 0.10865211 0.56345916 0.24068072 -0.3250306 0.387858 0.09123539 -0.42879033 -0.36208424 -0.29670647 -0.2827712 0.059282664 -0.2936755 -0.20586497 -0.06503755 0.21377881 -0.85065156 -0.06838761 0.91806966 0.07881312 0.37676254 0.20698452 -0.7520284 0.7762728 0.09632514 -0.3154309 -0.080931984 0.38791677 0.23672652 0.26110867 -0.43677175 -0.6899642 -0.18124944 -0.09188959 -0.7475884 -0.15680504 -0.38499802 -0.29484642 -0.4526607 -0.09936189 0.36170396 -0.13429692 0.0879189 0.667939 -0.82817686 0.2764353 -0.127838 0.24153209 0.17140847 0.24449405 -0.068413235 -0.39355272 0.17302792 0.23994501 0.31242162 -0.52117556 -0.43075877 -0.21341981 -0.15930428 -0.5317989 -0.008663719 -0.12107203 -0.5980037
