353 256
1538 0.29862723 0.28170148 0.0899722 0.2026913 0.09095022 0.084048636 0.4333528 0.07568905 -0.037716605 -0.10491297 0.32886994 0.053430025 -0.28073025 -0.09759166 0.14561756 -0.050397746 0.25472423 0.26872295 -0.06854358 -0.35958666 0.14046822 0.3548023 0.092597745 -0.05171416 0.038070474 -0.2530308 -0.17223464 0.23339158 -0.4285238 -0.16082689 0.29443273 0.0052412082 0.17743516 0.110309474 -0.35833588 0.057672013 0.5272132 -0.069278955 0.2534705 -0.018942488 -0.09009016 0.049950495 -0.063465916 -0.15902776 0.17593318 -0.50456303 0.007685098 0.15536402 0.25031045 0.2019798 0.060909163 0.11570628 0.12004008 -0.05552144 -0.0151041 -0.22001676 0.1425914 -0.463399 -0.30098298 0.5897785 -0.008981199 0.051366586 -0.18774438 -0.098379865 0.0517937 -0.18438375 -7.833298e-05 -0.05755972 -0.3289274 -0.047715887 0.2747041 0.110221565 0.15885046 -0.04778565 0.14298521 -0.004135804 0.23410141 -0.44413227 0.101123266 0.30444336 0.12168849 0.11289705 0.06443872 0.24332003 -0.43621144 0.09928631 0.22905682 -0.33013734 -0.027382476 0.2715799 -0.17372242 -0.033803865 0.093059115 0.1310578 0.16581699 0.07954791 -0.38187736 -0.2589533 -0.17148545 0.15804906 -0.76873344 -0.084674485 0.11888992 0.14575897 0.070997246 0.003853026 -0.1119229 0.24852763 -0.02113234 -0.09216393 0.32257113 -0.23089208 -0.14561822 0.42199364 0.45402464 0.045159224 0.2670904 0.14668342 -0.10876121 0.19450186 -0.21054314 -0.31304744 0.3624004 -0.21256706 0.09641553 -0.37435278 -0.20984259 -0.051916018 -0.27901205 0.21718298 0.32720843 -0.49765548 0.0247375 -0.26430273 0.15388942 -0.21940862 0.08831207 0.25131416 0.19457372 0.2195717 0.12587908 0.051832102 -0.038459178 -0.15713967 0.1528869 0.33541408 0.4672604 -0.18205617 0.24610895 0.23627912 -0.16736744 -0.43250784 -0.044642154 0.4275513 -0.44276538 0.14027561 0.28896984 0.1953154 -0.33469868 0.44355536 -0.28181285 0.2301539 -0.061770294 -0.2419987 0.004807205 0.31097433 0.14545551 -0.1667018 0.08044598 -0.14006458 -0.2736085 -0.03783798 -0.21409725 -0.11807074 -0.012022269 -0.3784285 -0.23306295 -0.06644083 0.46204045 -0.24216707 -0.10337868 0.15405151 0.13932204 -0.10804672 0.13639057 0.31194216 -0.4754487 0.4078876 -0.16230756 -0.00045718526 0.3409993 -0.053270463 0.08240231 -0.28210476 -0.28645483 -0.11827169 -0.15283838 -0.038970277 -0.3307045 0.08443415 0.047751043 -0.18741913 -0.15628286 -0.064022034 0.31643805 -0.115662314 -0.64708257 -0.32319114 -0.23703085 0.1305821 -0.22140187 0.03953091 0.31511796 0.3559011 0.102992326 -0.4568261 -0.071306065 0.37652925 -0.6378377 -0.06842539 -0.44826964 0.048089378 -0.102689154 -0.35480908 0.26325053 -0.4029081 0.3089488 0.22721143 -0.21274854 -0.052252464 0.059748452 -0.21619625 0.028925117 -0.07246827 -0.38637325 -0.33458626 0.14526232 -0.27584216 0.104907446 -0.07764112 -0.27251446 -0.12542814 -0.17232484 0.07010319 0.013660823 0.2885316 0.128341 -0.07355182 -0.38134363 -0.02113654 -0.053158313 0.27076155 -0.35534182 -0.13833341 -0.31953016 -0.07188018
10 -0.0022286563 -0.19875865 -0.3194928 0.051527213 0.32583773 -0.11798259 0.3516731 -0.1474388 -0.22965053 0.58043784 0.17282376 -0.08641024 -0.12924537 -0.054797556 0.15078117 0.34046757 0.13345455 -0.29468474 -0.1537977 0.7344409 0.49572924 -0.09790434 -0.58668107 -0.031090192 -0.59931403 -0.3345033 -0.2937838 0.04200394 -0.2582104 0.11857084 0.1316316 -0.298655 -0.10595061 0.03662373 0.18953961 0.51239586 0.46057034 -0.16723734 0.27920553 0.056269016 -0.1333467 0.22381411 0.113633186 -0.37554905 -0.08265696 0.17218973 0.40668404 -0.18625388 0.25594202 -0.24935685 0.14728755 0.381417 0.1302497 0.13720688 0.676299 -0.04511078 0.432018 -0.36416304 0.1459267 -0.32306033 0.13862827 -0.28885219 0.06560627 0.24220647 0.20682599 0.092734054 0.7312772 0.41975877 -0.48291916 0.09288519 0.34880838 0.05916563 -0.013887977 -0.23292986 -0.07042934 -0.18903722 -0.32284304 -0.055721585 0.27044833 0.43240154 0.032970253 -0.4390816 -0.11714957 0.7449516 0.25662142 -0.007667396 0.06640146 -0.117264226 0.25819638 0.061118603 0.01970623 -0.27152666 -0.19593939 -0.20743112 0.15783788 0.03498159 -0.6396607 -0.6774439 -0.038332477 0.3252233 -0.06707565 0.2503599 0.05946902 -0.065657616 -0.05059234 0.5874305 0.060385376 0.21391095 0.17743859 -0.304611 0.14304686 -0.018296145 -0.17772228 -0.40894255 0.09208387 0.03919746 0.010176091 0.48368263 -0.32092112 -0.14785603 -0.14601049 0.2788966 -0.08967888 0.06323384 -0.25233546 0.15150806 0.2993176 0.064688765 0.115953505 0.20628855 0.6848671 0.1778775 -0.12532163 -0.70666575 -0.4182019 -0.14082813 0.23536888 0.14687665 0.546404 0.23684667 -0.11446854 -0.57501614 -0.25681344 -0.124599665 -0.37401515 -0.019271353 -0.40673772 0.109451205 0.40047666 -0.21169806 -0.0734058 -0.119516365 -0.62052476 0.34954205 0.059268862 -0.015340805 -0.28761834 -0.099737845 -0.047683425 -0.16166939 -0.10423129 0.15590411 0.6856521 -0.2878591 0.1422224 -0.4547045 -0.020237278 0.39860266 0.01855687 0.35980895 -0.21309686 0.38929087 -0.5352869 0.3047684 0.32262808 0.23737162 -0.27870354 -0.256822 0.3840298 0.10002632 -0.15101428 0.4630957 -0.110748 -0.09554254 0.03288498 -0.0636691 -0.37345552 0.12803419 0.1292573 -0.006452754 0.1529533 -0.10547663 0.15492316 -0.10313819 0.4020517 0.23768018 0.6121226 -0.49641797 -0.19059847 -0.43783993 -0.15874442 -0.5093629 0.17771623 0.032225367 -0.13933045 -0.023520183 -0.040859155 -0.31859583 0.04230744 0.00445425 0.517291 0.34309363 0.09221898 0.415399 0.09027939 0.16535252 -0.20677756 -0.10857223 -0.20555511 0.37080714 -0.17613097 0.27653953 -0.23502591 -0.24796146 -0.25689736 -0.2768046 0.7480978 -0.457367 -0.2579207 -0.24040495 0.31698993 0.18327372 -0.2172275 -0.10466503 0.26174003 -0.16304514 0.22786954 -0.21951684 -0.18944243 -0.34622765 0.22578539 -0.12719183 0.5425253 -0.076012336 -0.062913544 -0.15465619 -0.091617994 -0.31091356 -0.17083791 0.03421557 0.032152563 0.18941845 -0.3937831 0.09763381 -0.19082293 0.096629165
1522 -0.38652095 -0.30456707 -0.19170426 -0.22324893 0.08712472 0.08027249 0.053834498 -0.2846825 -0.5861045 0.038530886 0.43551794 0.17158203 -0.3277467 -0.6344481 0.12563634 -0.2964987 0.08796707 0.60685307 0.09754041 -0.22921893 -0.0065576416 -0.4809882 0.11882386 0.16132557 -0.046127923 0.21183825 0.058564954 -0.41598484 0.08819406 -0.46563163 -0.20404992 -0.113875784 -0.27554724 0.17665087 -0.22487952 0.6321143 -0.009427206 -0.20733258 0.41002408 -0.23060007 0.1777445 0.5275087 -0.49018976 -0.278808 0.63602996 -0.5271454 -0.1852008 0.020087687 0.30373824 -0.19782312 0.43819544 -0.022526737 0.35836583 0.02528187 -0.057686336 0.28944004 -0.07197872 -0.5328321 0.21156105 0.28669432 0.40075013 0.35735455 -0.13257647 0.41893607 -0.08035033 0.048921805 0.20187323 0.31077865 0.53155184 -0.17263076 0.2917734 -0.50065386 0.09017908 -0.61069745 -0.4159 0.25674823 0.24603187 0.099614576 0.3665588 0.6984728 -0.4406148 -0.01711458 0.4266041 0.41864905 -0.20515314 -0.33183804 0.4156844 -0.40077168 0.39084578 -0.26591945 0.33547413 -0.11200236 0.09091456 -0.06963819 0.26834002 -0.01384021 -0.2355842 -0.39419222 0.526401 -0.2091282 -0.40211195 0.16383016 -0.16335638 0.06347947 0.5807111 0.3766813 0.016381264 -0.35050496 0.25394022 -0.24404064 0.43781823 -0.0132809505 -0.19189873 0.28979355 -0.13484557 -0.24161588 -0.06121298 0.025028016 0.541263 0.4097366 -0.24521795 -0.200323 -0.23384368 0.14476116 -0.63008296 -0.24265315 -0.1754294 -0.36785322 0.38857293 0.07715148 0.36115626 -0.38166443 -0.02112161 0.2541106 -0.18716495 -0.6366206 0.103563376 -0.19583428 0.039514907 -0.50244707 -0.3456418 0.23974817 -0.25292367 -0.043117795 -0.65038383 -0.31081235 -0.57147753 -0.00046018834 0.19402213 0.066131905 0.40244853 -0.124570385 -0.38417128 0.33745944 -0.6597168 -0.50383365 -0.37593743 -0.13227364 -0.4713599 0.05241091 -0.029590916 0.09531686 0.36295053 -0.3571881 0.1893077 0.61528236 -0.2681638 0.3967918 0.20419824 -0.21335956 -0.42982754 0.17094502 -0.27450833 -0.18921967 0.17951399 -0.329019 -0.074096106 -0.17392877 0.33391815 -0.08715525 -0.0024989836 0.34216082 -0.23553924 0.43523777 0.59640765 -0.27066842 -0.46037474 0.03251846 0.15280144 -0.18598886 0.6022735 0.29056367 -0.05112931 -0.02890922 0.17371587 -0.078778565 -0.18699874 -0.13922127 -0.298634 0.18223083 0.06984333 -0.08854113 -0.01708105 0.21146774 0.1478777 0.008347358 -0.55315316 -0.30885202 -0.12618189 0.26245812 0.0009316485 -0.1490839 -0.30672306 0.30912313 -0.2930495 0.116356276 0.0010466471 0.48713893 -0.32910383 0.313092 -0.14137237 -0.4205502 -0.04560377 -0.40946007 -0.31828985 -0.0397441 -0.01884579 -0.2487865 0.4019253 -0.16715916 0.13064791 0.04619197 0.17984004 -0.39022145 -0.3152219 -0.19296534 0.19127141 -0.23624222 -0.33286023 -0.16532499 -0.0080591785 -0.3736599 -0.016290437 0.17965062 -0.3827222 0.16027805 0.12467617 0.2357951 0.3059937 -0.22610284 -0.35039425 0.44896668 0.012796986 -0.104425006 -0.81794614 0.3508065
60 -0.049128026 -0.24016012 0.0065145977 -0.15462078 0.2903901 -0.04540634 -0.06391521 -0.28377926 0.4293335 0.42829898 -0.12615389 -0.10505244 -0.022852799 0.047700204 -0.03596288 -0.0038823094 0.07556936 -0.2770378 0.24037139 0.6592136 0.12396177 -0.13595195 -0.19185087 -0.13687092 -0.5333858 -0.009814115 0.17936085 -0.15986213 -0.1524057 0.04740528 0.18714984 -0.12554033 -0.354685 0.037701532 0.3085628 0.5256415 0.45506975 0.066155724 0.3244926 -0.3348688 -0.18011536 0.46812683 0.07028326 -0.1424228 0.04405397 0.17700319 0.29103673 0.003828468 0.22783248 -0.016545407 -0.16181484 0.094924256 0.080257684 0.32476628 0.4383887 -0.28128466 0.20926237 0.0029961856 0.09691382 -0.25871012 0.061304517 -0.40563887 0.037849102 -0.13719288 0.41195327 0.20715658 0.20328674 0.1056193 -0.27429393 0.057957917 0.09606571 -0.25142482 -0.044940583 -0.24442314 -0.0388736 -0.06128888 -0.31429735 0.01628396 -0.109443404 0.4909621 0.11186134 -0.2525506 -0.017508356 0.4172368 0.13049756 -0.13263674 0.31251884 -0.14735538 -0.0029893233 0.1600984 0.098589934 -0.34182757 -0.0585931 -0.27824613 0.35038987 0.002871169 -0.34673256 -0.35997424 -0.13159613 0.028576702 -0.23164457 0.4271843 -0.050604217 -0.008341251 0.16435954 0.3866181 0.08236508 -0.1627067 -0.038377855 -0.49955788 -0.041065525 -0.0020067825 0.024654819 -0.45837238 -0.18847848 0.22370207 0.1608899 0.35347587 -0.36665535 -0.26184294 -0.13147663 0.25294957 -0.13338433 0.09126874 0.032149598 0.056205146 0.36260772 -0.06293646 0.059389494 0.20019151 0.65602773 -0.08804691 -0.3011496 -0.59670365 -0.22818486 0.016323263 0.048989 -0.16400488 -0.019105189 0.28517276 -0.15917894 -0.19494002 0.07147908 -0.14691801 -0.3760978 0.21252567 -0.32894203 0.38002524 0.18297085 -0.32147565 -0.020864097 -0.107024305 -0.092536815 0.12428892 -0.27307814 -0.17249694 0.21808809 -0.17232452 -0.30335036 0.09367364 0.14463516 -0.14487351 0.434472 -0.08117387 0.103396185 0.02873258 -0.26846802 0.50159687 -0.09175289 0.19379741 0.07660045 0.25434473 0.21824467 0.2525773 -0.09381276 -0.07806658 0.026618676 0.04407838 -0.09699635 0.26128623 -0.05046918 0.2570593 0.1881165 0.39843115 -0.023503782 0.1021819 -0.1382064 -0.18280308 0.12005831 -0.098584 0.053272985 -0.30957186 -0.05384136 0.026396105 0.5257055 0.0036999825 0.28342688 -0.24906465 -0.0069497754 -0.41985688 -0.27171856 -0.22931713 0.26526913 0.24807407 -0.30447394 -0.15443301 0.032047946 -0.24797925 0.01382521 -0.2693782 0.37176338 -0.05414679 0.06379035 0.026072737 -0.14301358 0.24298593 0.097288035 0.0073853894 -0.22034118 0.09242296 0.057083663 0.09528237 -0.21032473 0.021616723 0.17615087 0.030678257 0.48266473 -0.26327673 -0.30018237 0.03719886 0.02112203 0.07162357 0.08825439 0.103926644 0.46185717 -0.2372377 -0.108504154 -0.12970588 -0.1616838 0.048206765 0.045117393 -0.23858167 0.2371803 -0.1561202 -0.20219477 -0.2653228 0.049516212 0.14894766 -0.06049129 -0.18068857 -0.05422764 -0.07646885 -0.36596242 -0.0984927 0.20710221 -0.04202237
1545 -0.3933702 -0.040276766 -0.020745981 -0.2346937 0.4016554 -0.052886836 0.04462268 -0.061770953 -0.2986405 0.31904733 0.47866356 0.1606046 -0.16325128 -0.43246403 0.073932454 -0.16125 0.106555164 0.55990064 -0.0018588437 0.014771671 -0.15503173 -0.5381388 0.05622049 -0.07472315 -0.29101744 -0.10036368 -0.13000901 -0.26100236 -0.23207715 -0.13321061 -0.0625452 -0.18799044 -0.32349393 0.11328434 -0.10274856 0.41260532 -0.32311696 -0.26144487 0.45078138 -0.18273713 -0.029621918 0.6685326 -0.6276809 -0.31785652 0.5110116 -0.41689652 0.19895874 0.32029945 0.11237595 0.28881666 0.5159779 0.2868424 0.508197 -0.21811198 -0.015964968 0.3918886 0.09552469 -0.037930295 0.40323946 0.6090007 -0.15962401 0.31720483 -0.34614855 0.24597104 0.17378344 0.26239333 0.17686881 0.30282608 0.36946365 0.23345262 0.0838495 -0.30755705 0.30312756 -0.5626633 -0.27850604 -0.14220381 0.39875916 -0.07146773 0.3754007 0.6045354 0.028905166 -0.22996512 0.08405767 0.40825596 -0.4336076 -0.30550167 0.5014905 -0.19778137 0.28378442 -0.18097757 0.18142284 -0.22349527 0.07858086 -0.22452544 0.06947004 -0.14513953 -0.42271546 -0.5675269 0.23037831 -0.54308355 -0.8172343 -0.067642495 -0.24498309 0.09268909 0.41264972 0.19170181 -0.07290989 -0.63263017 0.11756477 -0.14171079 0.13901451 0.013339096 -0.056952484 0.25666025 -0.13726555 -0.17491685 -0.1587328 0.07951228 0.38742378 0.54744416 -0.21299137 -0.26931784 0.23857872 0.09404747 -0.5091405 0.0856817 -0.010434995 -0.33672783 0.3831376 0.15811495 -0.0022925017 -0.4881994 0.0030514186 0.15358132 -0.092647284 -0.57828546 0.17433912 -0.3013469 0.06917234 -0.40517017 -0.36996254 0.077774316 0.18629289 0.09379159 -0.67069525 -0.17808615 -0.5860096 0.14999028 0.23104881 0.15919192 0.21127535 -0.1304399 -0.25748745 0.72999257 -0.56233627 -0.4174361 -0.27212846 -0.008753885 -0.73307365 0.02469035 0.3721647 0.13904819 -0.03261744 -0.44882998 0.39665565 0.54521996 0.18608864 0.07478849 -0.028226942 -0.05732847 -0.18780166 0.14979105 -0.40407664 -0.17344253 -0.10271027 -0.34447154 -0.13357447 -0.21021949 0.5615154 -0.46595898 -0.0798417 0.3935485 -0.22417237 0.55672795 0.58186626 -0.39050046 -0.47687295 -0.12686068 -0.22648796 -0.17487678 0.39498556 -0.026915122 0.030014614 0.12831877 0.2818583 -0.13886419 -0.4491735 -0.15199606 -0.24986619 0.22888644 0.075165436 0.027932964 -0.27097723 0.29868707 0.066992655 0.3542638 -0.67808634 -0.20637931 -0.14611304 0.25785303 0.044538498 -0.29527545 -0.22338171 0.16588414 -0.36839503 -0.103897065 0.11447482 0.5057031 -0.30871224 0.08303796 -0.39805356 -0.3516221 0.24846946 -0.33935496 -0.36978653 -0.06383971 0.042147 -0.30709013 0.04787289 -0.2854393 0.1475456 -0.103049874 -0.0016044629 -0.28074557 0.12745024 0.068860255 -0.139828 -0.53193957 -0.020225653 -0.08485377 -0.1939367 -0.3180306 0.31078595 0.31657696 -0.48721263 0.12764607 0.24940668 0.3039651 0.19718447 -0.21425027 -0.17496791 0.36905152 0.007343538 -0.4408942 -0.84040344 0.1574933
903 -0.29266056 0.26115093 -0.0044314004 0.53483856 -0.082365744 -0.17189184 0.33132517 -0.30442128 -0.25332692 0.048330385 0.07026057 -0.40025678 0.31517124 -0.44042438 0.071092665 0.17884085 0.4158987 0.29015368 0.45750383 0.8088926 -0.08671369 0.16826954 -0.13245147 -0.06287517 -0.62657017 -0.18364318 0.09739431 -0.33777928 0.090616055 0.1893954 -0.111246265 0.2369627 -0.48935357 -0.47861645 0.32321337 0.4134416 0.5186583 -0.27247262 0.32365283 -0.5754753 -0.4344865 0.47967833 -0.07462776 0.3205845 0.831701 0.18811561 -0.40193123 -0.30936605 -0.0004113765 0.36255452 0.18052383 0.45641744 -0.078156605 -0.00835187 0.21651815 -0.80496824 -0.25512275 0.23126619 0.24937703 0.0670203 -0.006269787 -0.089631625 0.32850072 0.017742675 0.24223997 -0.3115626 -0.20452999 0.15858756 0.32472926 -0.06270224 0.11917103 0.024000438 -0.35092866 -0.30095777 -0.022620171 0.09829387 0.15446572 -0.024839062 -0.15731458 0.4519691 -0.07627538 0.39304608 0.6192739 0.5007449 0.1458426 -0.15838037 0.15489833 -0.015807832 0.50986856 0.0004804633 0.07536424 -0.18955995 -0.33589908 -0.17283925 0.46411976 0.4116062 -0.5025116 0.0062325676 0.27883694 -0.17875807 -0.05170537 -0.21833307 0.68388593 0.3799322 0.25934663 0.020686595 0.13675001 0.1737065 -0.017510729 -0.40039572 0.403705 0.19034746 -0.03670658 -0.0075746896 -0.48285982 0.045839146 0.61652875 0.06709299 -0.35255608 0.44678518 0.30259782 -0.015832195 0.334938 -0.12798516 0.011610673 -0.23139344 0.34898007 0.15462844 0.42509925 -0.36017457 0.47221687 -0.6949694 -0.43178543 -0.82152206 -0.2507385 0.004359795 0.39896455 -0.047888745 0.30217665 0.06920175 0.24305849 0.150685 0.07080265 0.098552786 -0.61733043 0.18990159 -0.26228982 0.1595284 0.5260902 -0.07187121 -0.3514428 -0.179387 -0.03367693 -0.047122765 -0.43200746 -0.026039822 0.16495332 0.3879891 -0.3011876 0.40175462 0.262431 -0.24453309 0.17378947 0.3490217 0.26037169 0.3875373 -0.31102133 0.1628418 0.16958171 0.39808443 -0.043210153 0.5844373 0.2087478 -0.026756305 -0.34078905 -0.51790357 0.20033962 0.03388799 -0.19523844 0.2971447 -0.26734665 -0.026249887 0.39073464 0.4665879 -0.020872906 0.2908061 -0.13859698 -0.49147397 0.029551452 -0.053309914 -0.053658016 -0.34332952 0.23405276 0.051187858 -0.06861786 -0.37918845 0.2046827 -0.30855685 -0.24048942 -0.3552012 -0.3456498 -0.2624361 0.55226034 -0.32050267 0.27317467 0.06097503 0.43073332 -0.123334125 -0.4594147 -0.25023526 0.6742159 -0.07312147 0.42737785 0.28154925 -0.18740836 -0.46758682 0.07737128 0.58121365 -0.6035529 0.56415987 -0.64416283 0.05693927 -0.2469218 0.21851347 -0.00017445245 -0.025409179 0.24298318 0.0015432617 -0.35384357 0.3231389 -0.38806072 -0.112702824 0.13374761 0.24636598 -0.29577965 -0.33911464 -0.30612698 0.6649119 -0.16819154 0.17103416 -0.023303028 0.2722254 -0.10456374 -0.19329439 -0.517426 -0.01343141 -0.18270738 0.44197717 -0.01691824 -0.36424983 -0.41959837 0.12384498 -0.031784102 0.07962687 -0.53438413 0.41098148
416 0.5904905 -0.26581725 -0.36949295 0.5201044 0.42066094 0.009873369 -0.09825824 0.25675213 -0.27992874 0.39281264 -0.039309636 -0.42171335 0.3982195 -0.94483274 -0.22239603 -0.06276824 0.34385118 0.11319789 -0.30344874 0.42397833 0.6590824 -0.09902337 0.40019482 0.08924978 -0.13455698 -0.05343694 -0.009032533 -0.18555064 0.10633107 -0.38896033 -0.24718088 0.30268338 0.06030408 0.15220822 -0.5461677 -0.05941386 0.3025351 -0.57288355 0.36021915 0.33399972 -0.46633554 0.04484613 -0.18416563 -0.44802558 0.13996588 -0.24738449 -0.07233171 0.106847875 -0.050737537 0.2556415 -0.2562522 0.13876304 0.14760777 0.5776749 -0.3494356 -0.050380256 0.21970564 -0.75908095 -0.11472936 0.51457864 0.33782145 0.4650286 0.29573277 0.23866402 0.11780793 -0.45167637 0.27021942 0.39788505 0.14037631 0.31368002 0.27632168 0.100793935 0.07338754 -0.37704024 -0.03164236 -0.3457944 -0.08221993 0.08499609 -0.24214427 0.67287785 -0.6023213 -0.089751415 0.13596609 0.024426335 0.21197839 0.4301847 0.13922256 -0.3125902 -0.002332416 0.22997543 0.06577454 -0.27624992 0.12433119 -0.330408 0.17398131 -0.048327323 -0.031175416 -0.50354797 0.054288622 0.123799056 -0.14429694 0.022497552 -0.21077806 -0.19498573 0.026826965 -0.41407242 -0.23454185 0.28368923 0.710001 -0.2631739 0.05750805 -0.4297681 0.23910278 0.23291716 -0.33536312 -0.49405512 0.33291027 0.34087363 0.06303082 -0.120597064 -0.27575776 -0.8606353 -0.23997782 -0.06565414 0.03551567 0.09155968 -0.02166699 0.08816743 0.16072899 0.010985864 -0.20084402 0.21559109 0.20286056 0.046301123 0.27078447 0.32116866 0.20204711 0.223575 0.46801323 -0.19794996 0.13382782 -0.42602524 0.5100859 0.34153056 -0.10164558 -0.23784745 -0.59733427 0.07447875 -0.12646835 0.3083387 -0.19789127 -0.42442927 -0.33301765 -0.19947712 -0.14797539 0.29544547 0.3820699 0.533797 -0.5083326 0.15551658 -0.3878019 -0.053850316 -0.066377394 0.12978081 0.31175423 0.08493031 0.20468515 -0.19303 0.4270383 -0.13048877 0.11302881 0.2659007 -0.1020832 -0.17975661 -0.06383379 -0.33872193 0.37841588 -0.33729526 0.59042525 -0.6057115 -0.24183922 0.058566537 0.3457618 -0.14074792 0.47211692 -0.030576345 -0.6869073 -0.14749047 -0.40236157 -0.119485356 0.21792726 -0.31661063 0.111295804 -0.07019818 0.20050097 -0.015380837 -0.2927983 -0.20512682 -0.39079562 -0.09976426 -0.7448118 0.13396446 0.21902817 -0.22867046 0.54081345 -0.24750155 0.22395974 0.18372712 -0.13198954 -0.20408684 0.048295517 0.09680512 0.5683875 0.2745344 -0.10661596 0.33036354 0.44939092 0.22980951 0.02812801 -0.013471856 0.04192116 0.007786654 -0.050595626 0.061519258 0.02797498 -0.35961974 -0.29196316 -0.039141774 0.30441856 -0.04466346 -0.25799313 -0.039875597 0.59111017 -0.47735736 -0.1881767 0.0010423112 -0.054616027 0.23369871 0.18980938 0.087248035 0.12542751 0.2787588 0.5543305 0.42196533 -0.4806116 0.15806666 0.17949139 -0.28287563 0.2945263 0.09544501 0.0054781507 0.39816564 0.3890086 -0.17923196 -0.16640043 0.04191406
1529 0.42276287 -0.037446868 0.11575342 0.24944866 0.26807937 0.1020278 0.49470416 -0.3088055 0.24699125 -0.32488868 -0.1344515 0.2992711 0.2343067 -0.6949793 0.21691246 0.41901937 -0.25922528 0.09585838 -0.4835608 0.27070516 -0.16088162 0.19274338 0.15114054 -0.18768646 -0.3550843 0.20327857 0.75886005 0.074878536 -0.11765505 -0.4748692 -0.2114705 -0.15349098 0.04481753 0.12224381 -0.53328 0.74612737 0.64383596 -0.21474192 0.5875448 -0.062292725 -0.23950642 0.24858965 0.006362835 -0.28517324 0.33284843 -0.1377957 0.1350588 -0.35962895 -0.049394958 -0.4393418 0.27242377 0.34219563 -0.113634214 0.11795894 -0.13076584 -0.16120629 0.5712533 -0.00216142 0.12147292 -0.16587777 -0.32152182 -0.072663374 -0.18656693 0.2206592 0.17065337 -0.012340767 0.63361335 0.43745053 0.19501051 0.34730166 0.5258068 0.11189286 -0.23193803 0.3107896 0.27098027 0.093440756 -0.09326654 0.14568797 0.2656174 0.11474635 0.18333627 0.16866605 0.4518105 0.2870447 -0.1280858 0.7899668 0.15800193 -0.74640274 0.041184302 -0.13948733 0.06874552 0.37841487 0.22111075 -0.15065326 -0.08879199 0.12721106 -0.36342335 -0.5901707 0.49340108 -0.25566646 -0.08393483 0.68345356 0.3509412 -0.12580237 0.16574427 0.21358064 0.43868893 0.021819886 0.20765553 -0.26296848 0.1792142 0.49287274 -0.33601698 0.25989768 0.46032345 -0.77876264 0.2917793 -0.28672558 0.16447961 0.07097214 0.123200655 -0.3008061 0.11821064 -0.02543207 -0.045578513 -0.3817549 -0.30512652 -0.13392268 -0.16624974 0.061880857 -0.0035973191 -0.5243433 -0.7752783 0.070433445 -0.2869731 -0.4079725 0.37930804 0.8165899 0.19968833 -0.39234772 -0.3362498 0.07352159 -0.4250975 0.8408885 0.094586946 -0.32166266 -0.009933131 -0.20770454 -0.04190533 0.69895834 0.087014586 0.036422517 -0.062234864 0.063667424 -0.40938452 -0.23308825 0.17800646 0.2515777 -0.64504904 -0.41309598 -0.6780311 -0.24009669 0.45486662 0.45057428 0.34706596 0.49642515 0.18563277 0.052332427 -0.07271458 -0.036047976 -0.43015444 0.04883702 -0.09592012 0.33012107 -0.27015337 -0.5152857 -0.44030643 -0.010287304 0.20567515 0.3018033 0.056971755 -0.19781487 -0.42882842 0.35698614 0.6687824 0.48499602 -0.32848558 0.0092851715 -0.45741984 0.39509568 0.043871384 -0.1897189 0.29260638 0.018651884 0.29560986 -0.602912 0.3502896 -0.43751392 -0.20774265 -0.20632377 -0.8448707 0.051345002 -0.20134792 -0.48993656 0.03928462 0.33830953 -0.03332513 -0.08849844 -0.21040753 0.061077528 -0.11658225 0.47711247 0.27111164 -0.08919739 -0.0122193815 0.110530294 0.08525658 0.33762795 0.015829222 0.035342667 0.23569082 0.039873235 0.32835585 -0.32451114 0.17839818 -0.22793281 -0.18763012 -0.059108913 -0.25608522 -0.06148308 -0.3557962 0.2920742 0.06671868 -0.22634026 0.011261079 -0.09633506 -0.36195382 -0.38868847 -0.060474016 -0.4712164 -0.33509034 -0.018826837 0.09498798 0.07113931 0.012312854 0.29138926 0.14107648 0.24265352 0.22602406 -0.08968469 -0.56469154 0.75022215 -0.090720296 -0.62887675 -0.6645535 -0.03446444
1234 0.027039059 0.01987052 0.03521314 -0.096554324 0.22792645 -0.1660909 -0.18046871 0.37779862 0.16933563 -0.0050654924 -0.20801497 -0.4656827 -0.045806825 -0.05529207 0.17587377 -0.19448334 -0.3679506 0.5009166 0.019853562 0.35727018 0.5835855 -0.51429796 0.13345653 0.14250042 -0.7417322 0.08863438 0.57135373 0.37707463 0.1445718 0.39756304 -0.29293597 0.15402013 -0.43796498 0.0661473 -0.14538084 0.27700704 0.2693913 0.220488 0.43564993 -0.4609599 -0.7728128 0.8961348 -0.69172555 -0.10865984 0.14992104 -0.028148321 0.83753616 -0.20495225 0.16583756 -0.13097145 -0.4965383 0.19208896 0.08818482 0.66720444 0.62982494 0.44544023 -0.0014451593 0.112399906 -0.19575705 0.07019865 0.22241566 0.2546428 0.48011518 0.0331156 0.5807595 -0.16520236 -0.06317036 0.17391461 0.2909256 -0.4036885 0.18984006 -0.19310558 -0.3168709 -0.46603894 -0.11311317 0.07075121 -0.0690095 0.10141475 -0.28664026 0.49976993 -0.039354395 -0.04119321 0.62681645 0.22907303 0.023323955 -0.12634733 0.1465373 -0.68031496 0.0020389562 -0.4928346 0.07592476 -0.46926516 -0.24036089 -0.12984717 0.31514135 -0.007731163 -0.6073646 -0.63325083 0.11824868 -0.31794155 -0.63065296 0.011975831 0.3906953 0.1253177 -0.29859668 0.22981627 -0.28809357 -0.5054609 0.17272052 -0.5725463 -0.076028556 -0.2819384 -0.1864644 0.207485 -0.46689668 0.4563739 0.1585836 0.29132456 0.23982419 0.21976984 -0.27952024 -0.20224753 -0.0383454 0.29329672 -0.25947273 -0.03788092 0.07545559 -0.14590828 0.25852653 0.20010458 0.32363328 0.24526171 -0.45348975 -0.572706 0.2350382 0.01691313 -0.23902357 0.09207233 0.22790703 0.17238796 -0.6218966 0.039520815 0.3139706 -0.37822613 -0.15246437 -0.078979306 -0.5873714 0.40414506 -0.11635912 0.46941912 -0.36218628 -0.069837265 -0.15343231 0.2545678 -0.27590558 0.40777653 0.007096417 -0.18692252 -0.41508698 0.14635591 -0.16560023 -0.27516443 -0.23196904 -0.16640496 0.59645677 0.20512024 0.041580923 0.58284605 -0.11488896 0.3430005 0.19010288 0.123358674 0.13998246 0.41641885 -0.46486878 0.44610673 0.10371902 0.3601913 -0.22990376 0.11451986 0.14879073 0.3508721 0.09661541 0.28021395 0.20422885 -0.16832483 -0.051200435 0.12357141 0.29682 -0.08373242 -0.057307314 0.11008558 0.48433498 -0.2213306 0.12737805 -0.1681397 -0.075905934 -0.43952647 -0.5674409 -0.26300663 -0.47480783 -0.20255767 0.51008797 -0.065423004 -0.2673611 0.12549111 -0.01752842 0.054877803 -0.1359173 -0.24789454 0.16091526 0.06620818 -0.0103347255 0.11062838 -0.0364868 0.39726448 0.36459485 0.23541209 -0.4606209 0.18804653 -0.24951088 0.2641902 -0.59684014 -0.018529987 0.20098507 -0.49666205 0.10207357 0.025119344 -0.38623303 -0.053686056 -0.016056621 0.3902135 -0.25394797 0.07119332 0.37974438 -0.03305907 -0.3958085 0.1133398 0.2200735 0.06294675 0.28447974 -0.12123404 0.16114181 0.10857045 -0.5816732 -0.25481424 0.2089814 -0.27004108 -0.11300137 0.08960176 -0.1895938 0.69827265 -0.046325423 -0.368361 0.051378485 -0.29727477
1587 -0.026032105 0.22314115 0.15168227 -0.09454604 0.15735303 0.059853096 0.34352937 -0.15418579 -0.0028237503 -0.16779612 0.35073724 0.07378386 -0.42086756 -0.26312223 -0.0133558875 -0.1322341 0.33430544 0.16615134 -0.08664921 -0.52347535 -0.03856944 0.43580234 0.26758233 -0.11380805 0.073894635 -0.25247297 -0.026710732 0.0797559 -0.53240556 -0.42295548 0.26484302 -0.2910646 0.07886844 0.29176912 -0.4233691 0.06276795 0.3948372 0.20778058 0.22052687 0.05586727 -0.037878245 0.18283351 -0.023151655 -0.08549721 0.08633077 -0.2656193 0.2079184 0.026490562 0.045667466 0.17583942 -0.05554384 0.13056596 0.12997904 0.16589598 -0.10674068 -0.10008395 0.084305756 -0.42248443 -0.26482418 0.25300997 0.37679327 -0.26743245 -0.32218736 -0.1892613 0.24435022 -0.08238366 -0.06777023 -0.04852132 -0.4663003 -0.0425515 0.38675508 -0.32603166 0.2011356 -0.019044574 -0.15427805 -0.21265405 -0.020218292 -0.6678855 -0.050372064 0.28800473 0.2757873 0.11877074 -0.029161151 0.4110056 -0.4736307 0.30587322 0.3872802 -0.37927073 -0.011504133 0.258309 -0.19118887 0.08331455 0.23942067 0.029327234 0.27678716 0.09945174 -0.20468035 -0.17823014 -0.3127843 -0.2569285 -0.6176214 -0.16090347 -0.06981468 0.057228122 0.1135668 -0.27579796 0.0009200316 -0.1010601 0.09966079 -0.3555661 0.40194705 -0.14225668 0.06598518 0.6106111 0.42903352 -0.37154585 0.33621082 -0.10847959 -0.13557704 0.078933924 -0.029630985 -0.22974096 0.042907197 -0.038747463 -0.099066325 -0.29435953 -0.034688286 -0.0022650652 -0.04097349 0.030832848 0.19939621 -0.45107025 0.35348228 -0.35061508 0.09933675 -0.2326743 -0.25109267 0.084091835 0.2604525 -0.21055835 -0.029716684 0.22051193 0.331676 -0.08122974 -0.002251471 0.20649637 0.16315119 -0.21485306 0.30052596 0.13955177 -0.08424102 -0.19320081 0.002584155 0.3331188 -0.32450572 0.2730814 0.2440904 0.2866732 -0.35096222 0.5083173 0.0397732 0.07188895 0.10571518 -0.37110776 -0.04270015 0.1394119 0.018889152 -0.28435463 0.29784065 -0.13364604 -0.26570553 0.21725181 -0.1341101 -0.37300158 -0.056801822 -0.32966563 -0.23948023 0.12864178 0.4294688 -0.18879515 -0.14198203 0.09073657 -0.06580152 -0.034954086 0.011721696 0.4652789 -0.47102177 0.35542747 -0.49111298 0.118355565 0.5806558 -0.033910185 -0.031981103 -0.16932686 -0.11258345 0.05129091 -0.20740847 0.026773512 -0.30257612 -0.002535041 -0.11640063 -0.27045354 0.050813545 0.024267709 0.045184955 -0.14839737 -0.48959276 -0.19194539 -0.041002523 -0.17415942 -0.16838771 0.08898072 0.32706338 0.29089183 -0.07404572 -0.4055929 -0.21948363 0.3354151 -0.5607278 -0.019290723 -0.2785793 -0.075789824 0.09489516 -0.24236257 0.32483646 -0.23058707 0.008544893 -0.001448902 -0.058539663 -0.034755804 -0.18055199 -0.25704077 0.12086817 -0.055344474 -0.1636235 -0.18861695 0.16875589 -0.2588585 0.048902225 -0.13395733 -0.22718506 -0.1480644 -0.3907961 0.14696465 -0.10299031 0.1838228 0.108791046 0.13595685 -0.109591395 -0.118745245 0.026368095 0.27644524 -0.011394998 -0.12754475 -0.33278027 0.22589147
1633 0.103426434 0.239467 0.12580365 -0.117936835 0.12620659 0.123136856 0.36786267 -0.1275104 -0.034810912 -0.14864427 0.31533512 0.03479366 -0.45040557 -0.24410483 -0.006272397 -0.18072197 0.34534505 0.146074 -0.10023105 -0.47174335 -0.05868039 0.3881404 0.26242912 -0.1255861 0.0034631544 -0.2538177 0.06389202 -0.02291171 -0.52137554 -0.2648937 0.25307775 -0.32100636 0.06424592 0.25820106 -0.45403436 0.1163322 0.3709783 0.18560883 0.26972064 0.05579936 -0.03191912 0.23404944 -0.03215938 -0.12460731 0.10853356 -0.25296068 0.26676166 0.01923197 0.041351285 0.11910198 -0.099760585 0.11262495 0.118920065 0.15901187 -0.19160618 -0.02512922 0.0063654208 -0.45341787 -0.19453412 0.29883674 0.3497969 -0.2377164 -0.35417363 -0.19026718 0.2550659 -0.092646725 -0.122724205 -0.15170777 -0.48903832 -0.14894953 0.4574475 -0.38326544 0.2182638 -0.087301575 -0.112641364 -0.15994573 0.030638004 -0.68788457 -0.010275323 0.33272624 0.33191928 0.16069156 -0.017986417 0.35942152 -0.48338404 0.362602 0.3593479 -0.48882028 0.038656693 0.23400521 -0.08617885 0.12084458 0.20759133 0.02519543 0.26467362 0.044986296 -0.15418929 -0.26087272 -0.29447594 -0.32563773 -0.577337 -0.1752548 -0.006075639 0.12902978 0.16070671 -0.29403138 0.07988234 -0.15574798 0.055068973 -0.3232894 0.50115883 -0.12069882 0.073396675 0.53967035 0.43082765 -0.27943105 0.31460616 -0.06465979 -0.09798441 0.034598947 -0.06706243 -0.25343654 0.047208395 -0.012863569 -0.078979515 -0.3448791 0.00017908931 0.010669616 -0.074942596 0.080012046 0.23630187 -0.51720744 0.22039084 -0.42575756 0.16096407 -0.27919003 -0.14911108 0.13436007 0.24178518 -0.17973502 -0.017903134 0.23497991 0.24725555 -0.0964609 0.040934462 0.12055633 0.27519915 -0.265188 0.34474018 0.14848712 -0.06074459 -0.10876508 -0.025204279 0.3489294 -0.29801702 0.24312095 0.24756254 0.35048577 -0.3859347 0.40560356 0.03405615 0.13998687 0.20332925 -0.433091 -0.091146156 0.10692552 -0.0067769177 -0.22501709 0.2847573 -0.21597971 -0.32741442 0.27253982 -0.17328078 -0.35545906 -0.14972161 -0.35003504 -0.23585796 0.079772934 0.44809473 -0.16490562 -0.15046787 0.041594077 -0.093421884 0.08572384 0.052717503 0.47072008 -0.5058153 0.32939643 -0.4535904 0.16993666 0.49047482 0.0039717574 -0.020234892 -0.16819812 -0.20688474 0.08779785 -0.106274724 0.0042057578 -0.30795893 -0.01314465 -0.107169606 -0.326723 0.04357529 0.010536749 -0.022800066 -0.13959569 -0.46625862 -0.18841906 -0.15981147 -0.15530975 -0.19007358 0.073723994 0.28682783 0.28983793 -0.16516036 -0.39846224 -0.29326585 0.29015815 -0.5700044 0.083954 -0.28383574 -0.06333926 0.102053046 -0.21798654 0.2614406 -0.20875333 -0.03634315 -0.012408201 -0.12024977 0.01841369 -0.12296545 -0.210626 0.13059697 -0.17283383 -0.20803748 -0.23382339 0.12714887 -0.2539591 0.04473847 -0.073495135 -0.28018034 -0.15167211 -0.39392582 0.17453435 -0.17591937 0.18360381 0.06351633 0.1410444 -0.12079657 -0.09920643 -0.04312944 0.30192524 -0.05835307 -0.1312257 -0.37104565 0.27844563
1558 0.38217568 -0.2230314 0.2621022 -0.16663215 0.555815 -0.08984027 0.5205112 0.4704474 -0.024211742 -0.15331535 0.008897649 -0.14332189 -0.07873136 -0.2882598 0.7702928 0.48198664 0.44042516 -0.37076265 -0.43601534 0.20525031 0.37748608 -0.022107445 -0.027870419 -0.28181538 -0.36516663 0.54480636 -0.106850356 -0.17088486 -0.003776831 -0.089546055 0.058573738 -0.25071687 0.10259935 0.44618225 -0.70941687 0.1372418 -0.06770127 -0.38281167 0.4221703 -0.3285305 -0.51945144 0.2589696 -0.25858858 0.0655054 0.5212402 -0.51163226 -0.09061377 -0.09874341 -0.2571951 -0.18554024 -0.26400483 -0.084965505 0.43779826 0.4757549 -0.088046916 -0.44127783 0.4536388 -0.18302844 -0.09157307 0.012457623 -0.029479213 0.028664103 -0.33265758 0.14346129 0.06647915 -0.3223316 -0.26371187 0.32319775 -0.5385917 0.04236621 0.47076234 -0.13305539 0.0210226 -0.30621168 0.20881659 0.08470029 -0.20186238 -0.22873601 -0.24898863 0.31482244 -0.51731217 -0.3847658 0.5123714 0.63045263 -0.06269552 -0.3395117 0.30165693 -0.5227785 0.38642088 0.34602356 -0.33068556 -0.18906851 -0.29965445 -0.14414902 -0.024619985 0.05670971 -0.28832188 -0.017597392 0.09985601 -0.34850085 0.07512583 -0.3097404 -0.2586072 -0.3752659 -0.14778212 0.16381438 -0.42196438 0.14459346 0.69979674 0.065660134 0.09818859 0.26133603 0.07508186 0.043044686 -0.29338723 -0.05571304 -0.12320235 0.046192218 0.40229127 -0.10527831 -0.022318209 -0.57162195 0.34033155 -0.0010968662 -0.5701674 -0.14179908 0.13437206 0.26424572 0.018299857 -0.30836833 -0.049616165 0.35205832 -0.1785935 -0.2534346 0.06330199 0.10886722 -0.20390582 0.36390248 0.2910401 -0.34911832 0.40083742 0.1322555 0.63519245 0.29770705 -0.06668092 -0.3922294 0.0042515863 0.5682924 0.11223704 0.34202373 -0.2629327 -0.26603252 -0.49245965 0.4751139 -0.243394 0.71891874 0.005258591 -0.08503712 -0.40996608 -0.3278878 0.12186694 0.41875887 -0.09234063 -0.04262567 -0.080632776 0.11231592 -0.25451007 -0.009822142 0.15773621 0.1818132 -0.090610035 0.4130101 0.024699599 -0.050814785 0.015613862 0.08972928 -0.13322696 0.29525194 0.4319964 0.0027084902 0.25837746 -0.22588003 -0.32391962 0.10128303 0.26851803 0.27014723 -0.39836153 0.26241177 -0.42549846 0.120213866 0.47397187 0.16349947 0.16831629 0.25413623 0.24865156 -0.608643 -0.06717534 -0.4158553 -0.31410554 -0.57434803 -0.4345273 -0.516971 0.095659904 -0.35617352 0.47417346 -0.4870684 -0.39401752 -0.24598058 -0.5234621 0.38741073 -0.0419015 0.14211969 -0.001343448 0.03297732 0.57374114 -0.050530758 0.4739723 0.12656672 0.015634868 -0.35981435 0.43465686 0.5283977 -0.290613 0.09833431 -0.04288683 -0.70210147 -0.054399867 0.25212377 -0.4103629 -0.2968422 0.006677437 -0.009993029 0.2931574 -0.16721717 -0.53973126 0.27303204 -0.008566264 0.092558704 -0.28413323 -0.08012215 0.009203173 -0.08546816 -0.2314646 0.4742279 0.07689233 -0.03340242 0.33093065 0.008022221 -0.42685175 -0.21719104 -0.43437982 0.46341363 0.13670616 -0.6631461 -0.62557596 0.0713498
1680 -0.022424703 0.2029666 0.19207476 -0.10661199 0.13853896 0.07947151 0.32677594 -0.11130203 -0.07002864 -0.20428371 0.262639 -0.005877282 -0.42536014 -0.2768687 0.00483547 -0.1379307 0.35974446 0.1570435 -0.07604727 -0.49958897 -0.078013815 0.38820273 0.29574853 -0.14207731 -0.041341938 -0.29873532 -0.020652996 -0.0038633326 -0.48931605 -0.39019936 0.20948394 -0.3444094 0.059736427 0.3267894 -0.4635663 0.16612655 0.3650801 0.18598677 0.27230778 0.043034438 -0.10493592 0.16641086 -0.02823481 -0.1452082 0.14406559 -0.22491902 0.19229814 0.037763115 0.058787715 0.18783072 -0.054173272 0.15436997 0.1307283 0.23839757 -0.17966369 -0.093775064 0.027937056 -0.46194544 -0.23256344 0.19499668 0.3247067 -0.214444 -0.29264176 -0.16131055 0.22076157 -0.09981134 -0.1335522 -0.05207179 -0.4171583 -0.086746916 0.41064626 -0.27487898 0.12883316 -0.07507707 -0.21557093 -0.14862268 0.0040121153 -0.6641205 0.009800411 0.28728953 0.3393778 0.21009855 -0.007627316 0.41077125 -0.37326056 0.26894704 0.34313586 -0.3491369 -0.028823582 0.20743963 -0.17972626 0.107242905 0.29404572 0.09105619 0.26685265 0.011774842 -0.16356893 -0.16208528 -0.36185065 -0.29402888 -0.5832411 -0.07219013 -0.049745467 0.015252382 0.20352311 -0.24764012 0.009309382 -0.08051175 0.03585248 -0.33464426 0.4779122 -0.15148298 0.022132609 0.5495865 0.48326597 -0.26226732 0.3595977 -0.07918037 -0.017663645 -0.0024486578 -0.10816988 -0.217746 0.009174372 -0.043515474 -0.060273312 -0.32279316 -0.06900558 -0.03929888 -0.09144205 -0.08105867 0.21028253 -0.47552586 0.2833319 -0.30814242 0.08632589 -0.34701762 -0.2451229 0.03991924 0.2479416 -0.15294698 -0.102654904 0.25037068 0.3174106 -0.07648353 0.07216316 0.22160143 0.1600829 -0.19616514 0.32979822 0.1604438 0.016520929 -0.23730992 0.051341042 0.3497118 -0.3482072 0.2767379 0.2791845 0.30263364 -0.40363935 0.39168462 0.1252675 0.06498747 0.06672983 -0.3591048 -0.059762098 0.081400946 0.09060419 -0.2617073 0.3316853 -0.17991547 -0.33496806 0.18549716 -0.17708334 -0.3941269 -0.08471285 -0.33179715 -0.27829915 0.08734698 0.41601324 -0.12010509 -0.11507182 0.019612929 -0.058437936 0.079554476 0.022728417 0.4959692 -0.48456892 0.30669677 -0.5471315 0.16983052 0.46716592 0.019302068 -0.0350814 -0.10991758 -0.15987739 0.052401666 -0.12126071 0.11083297 -0.26142588 0.053001273 -0.09710591 -0.2749656 0.012357249 0.012250342 -0.015664993 -0.14612661 -0.47207367 -0.2573754 -0.09406069 -0.14012104 -0.23864882 0.019334909 0.22003384 0.35037854 -0.1393846 -0.31494796 -0.2500423 0.41836905 -0.5849083 0.04463535 -0.22233084 -0.08263938 0.11458187 -0.17329663 0.27833953 -0.26756367 -0.057651207 -0.09378434 -0.08773196 0.027162315 -0.1534486 -0.21930237 0.21478315 -0.19730538 -0.17090826 -0.23870306 0.18101873 -0.29239684 0.050310973 -0.11435552 -0.3064301 -0.1581268 -0.42561096 0.20497854 -0.12238393 0.20847656 0.15381385 0.12682998 -0.09779517 -0.16515978 -0.010709819 0.21487571 0.01225672 -0.11241706 -0.37526205 0.29600623
1585 -0.00239755 0.17302474 0.13748889 -0.09785463 0.103512004 0.12698725 0.38831672 -0.08914993 -0.06445157 -0.19875483 0.3581286 0.02264511 -0.44532093 -0.29928276 -0.028804906 -0.15331905 0.32667175 0.10113615 -0.15871888 -0.43331388 -0.023376688 0.48498207 0.29345244 -0.13480073 -0.06779476 -0.30415973 0.080572546 -0.04940858 -0.52522135 -0.34603858 0.21851654 -0.3480852 0.08830597 0.3330582 -0.39120254 0.09735301 0.35755306 0.17743404 0.23044634 0.014601138 -0.12503588 0.18826161 0.032924335 -0.11589801 0.063407354 -0.25149837 0.20993686 0.0151829785 0.07184526 0.25108418 -0.06682389 0.18205673 0.18590602 0.18081196 -0.16619428 -0.18924087 0.08550969 -0.4310222 -0.26434967 0.24980365 0.35023624 -0.27454808 -0.24629916 -0.16424845 0.32322884 -0.094081424 -0.15124492 0.026654992 -0.4868973 -0.11784879 0.38755965 -0.29985946 0.1417169 -0.107075855 -0.13505585 -0.20942597 -0.018390942 -0.603891 -0.07066788 0.23966354 0.37511626 0.06377054 -0.011264115 0.31624728 -0.40525147 0.3237182 0.34613162 -0.44060043 0.08429649 0.26759464 -0.1569848 0.1470696 0.1915191 0.11599696 0.2586951 -0.056650523 -0.12516455 -0.1884755 -0.29972142 -0.2752037 -0.5240092 -0.13745949 -0.15832095 -0.027697457 0.12119621 -0.29816145 0.0056324354 -0.053250816 0.11794324 -0.3249245 0.43851396 -0.06882213 0.026539221 0.6191748 0.44180098 -0.23033834 0.32107097 -0.10226299 -0.028384088 0.016535854 -0.05214559 -0.2529888 -0.01885759 0.009378245 -0.06448975 -0.32273307 -0.035537582 -0.041886225 -0.115918465 -0.029747609 0.23499286 -0.49245715 0.2874598 -0.3727164 0.12488331 -0.29767027 -0.210775 0.12446882 0.31894168 -0.19725825 -0.04063052 0.11569477 0.27330154 -0.013287021 0.057811264 0.21925803 0.17755345 -0.2518149 0.31301045 0.11568249 -0.07491083 -0.24739423 0.04462693 0.34285104 -0.32598576 0.30991644 0.20741636 0.41163874 -0.34536234 0.4268094 0.18628322 0.06400107 0.098005965 -0.3767973 -0.08453823 0.0731202 0.023329217 -0.2590866 0.321964 -0.14752978 -0.26124036 0.25988084 -0.1170291 -0.33871824 -0.03979311 -0.3967168 -0.2141093 0.11928528 0.39178827 -0.20231564 -0.12494447 0.02395031 -0.052177634 -0.004841887 0.0062030884 0.4542917 -0.46445122 0.32005388 -0.48643324 0.16952108 0.46823385 -0.015348869 -0.19117343 -0.16496082 -0.21756814 0.049194068 -0.16615956 0.059272055 -0.25826883 -0.0029985588 -0.1288792 -0.2948129 0.12612836 0.06416972 -0.03151265 -0.12875442 -0.3944089 -0.3065932 -0.15599081 -0.14631201 -0.11211837 0.011716432 0.23922256 0.37858808 -0.08318554 -0.36452946 -0.23464108 0.28846988 -0.54604113 0.01944455 -0.21957494 -0.00072151615 0.083565414 -0.2163783 0.32062012 -0.19824734 -0.018797344 -0.028108858 -0.10373644 -0.030527188 -0.17109372 -0.2421813 0.18101394 -0.10567309 -0.15319328 -0.2825309 0.14569332 -0.20615977 0.033681903 -0.05458532 -0.20159632 -0.15777126 -0.32052913 0.19899859 -0.09926224 0.13412978 0.11480434 0.17290935 -0.028665572 -0.11600553 -0.0148084685 0.25251207 -0.005176143 -0.08321591 -0.3714718 0.24739501
1625 0.018237665 0.217655 0.12611413 -0.104023255 0.13244818 0.15244459 0.3804267 -0.11344066 -0.030075822 -0.15379922 0.35441548 0.0926997 -0.4558366 -0.26193783 -0.006306073 -0.096491896 0.3986961 0.14320308 -0.10091563 -0.47184923 -0.114989236 0.469903 0.3244894 -0.138306 -0.02783879 -0.32661083 0.024597073 0.037864603 -0.51677907 -0.36755833 0.20535238 -0.33778134 0.032611843 0.356523 -0.5283476 0.16770852 0.4136253 0.15805295 0.22103855 0.05239702 -0.06691376 0.17419612 -0.0009214939 -0.17447114 0.075902 -0.30875847 0.21804425 0.008842555 0.047368042 0.21631642 -0.050425593 0.22531924 0.14892396 0.12515536 -0.124178305 -0.10112218 0.056201465 -0.4821441 -0.26790285 0.26897407 0.41245148 -0.22750069 -0.30759057 -0.2035743 0.25157565 -0.057631213 -0.07869263 -0.058859527 -0.45166358 -0.17274842 0.4366048 -0.40293872 0.0924563 -0.03280316 -0.19064112 -0.2008221 -0.017777434 -0.7001146 0.044115223 0.33158058 0.30056047 0.0971091 -0.07538278 0.35131803 -0.37169078 0.31565464 0.31348693 -0.42854586 -0.019244242 0.22799821 -0.16423613 0.06861151 0.2349903 0.076303914 0.2682831 -0.019967878 -0.07432958 -0.26513168 -0.31959462 -0.28744796 -0.6196484 -0.1711552 -0.04749321 0.06263611 0.14155635 -0.24674383 -0.024827873 -0.09822302 0.09825345 -0.33699623 0.46355516 -0.13191141 0.036298826 0.60727286 0.45578814 -0.28152013 0.30925906 -0.11258348 -0.061717995 0.016581055 -0.07348684 -0.29852453 0.010165962 -0.034512475 -0.03342878 -0.3184361 -0.042431444 -0.03897667 -0.15176278 -0.011384781 0.2784523 -0.48340565 0.27141118 -0.34920695 0.11856055 -0.28335556 -0.2722606 0.13120681 0.21193859 -0.22921127 -0.09435117 0.23081098 0.28933156 0.013841221 0.041775014 0.1665131 0.25323328 -0.1891843 0.2730171 0.1562926 -0.1636513 -0.19832219 0.051158242 0.27518523 -0.32576698 0.3036825 0.23785335 0.29223204 -0.4031612 0.40703204 0.05573653 -0.006792156 0.13584012 -0.42066917 -0.04045985 0.15079929 0.016388746 -0.24347213 0.30208302 -0.1921861 -0.33291987 0.20110376 -0.124307096 -0.35267097 -0.082731746 -0.4126157 -0.28039527 0.06979247 0.44519073 -0.16437234 -0.12589599 -0.0132396845 -0.081132144 0.033832047 0.0038074425 0.5418954 -0.6188835 0.3288127 -0.50239354 0.1335868 0.5767765 0.00088605355 -0.082290225 -0.16176234 -0.16836607 -0.0049089817 -0.16138472 -0.03181188 -0.27390155 0.0051736115 -0.06923928 -0.305976 0.00814221 0.0007819368 0.0059219305 -0.21148013 -0.47889856 -0.2839039 -0.025861816 -0.16750057 -0.17064896 0.02270808 0.26674688 0.3589979 -0.13590491 -0.3750186 -0.31881264 0.26572168 -0.49903163 0.013185885 -0.30406862 -0.08906953 0.09289947 -0.25961566 0.29178974 -0.16078648 -0.096108556 -0.0030243539 -0.073672175 -0.012796306 -0.19565184 -0.19095212 0.13187774 -0.059409276 -0.16242032 -0.2360708 0.118959576 -0.17887537 0.118780956 -0.12750404 -0.2891059 -0.18223426 -0.43133706 0.065531105 -0.11765018 0.14290866 0.09575809 0.20336436 -0.14329469 -0.1930359 0.04389547 0.26894298 -0.07782472 -0.068320274 -0.30275217 0.18915527
1588 0.044267207 0.096169524 0.22560026 -0.075125664 0.061899222 0.13392875 0.38481894 -0.061124645 -0.04484674 -0.11698171 0.31269908 0.070433795 -0.4175083 -0.2738078 0.05401446 -0.1625345 0.38935325 0.19107929 -0.112428464 -0.52722967 -0.11020311 0.4388086 0.37062034 -0.17207962 -0.10466132 -0.34988338 0.08416557 0.07181936 -0.4721868 -0.35222116 0.30885962 -0.35994443 -0.0674575 0.33009326 -0.50207084 0.121062666 0.3464674 0.14333585 0.22305703 0.045266926 0.009924225 0.15669718 0.05455562 -0.23854664 0.10002013 -0.19419368 0.14517532 0.052976876 0.13689864 0.18536477 -0.03634938 0.04808345 0.0779692 0.09409247 -0.1563096 -0.14800522 0.0792609 -0.4913205 -0.28003484 0.2568304 0.3418371 -0.26319143 -0.36678445 -0.210933 0.26614857 -0.095258504 -0.07638912 -0.15206221 -0.4615026 -0.114662655 0.43384245 -0.40289894 0.1691573 -0.08895097 -0.19261108 -0.1360258 -0.0406866 -0.6127956 -0.028341275 0.34847486 0.31295356 0.08775253 -0.058312308 0.29921046 -0.35640293 0.3657487 0.33872902 -0.42843607 -0.054119155 0.19564156 -0.23661849 0.109236635 0.22589253 0.064142644 0.23712899 -0.021748165 -0.13904317 -0.1623215 -0.27496192 -0.28353938 -0.5758614 -0.0899267 -0.046951663 0.04485779 0.16609606 -0.2515503 -0.014944996 -0.095667526 0.07509894 -0.30346775 0.4260299 -0.16205215 0.011394287 0.5851216 0.44509962 -0.25632116 0.31341314 -0.04381656 -0.058926184 0.00951462 -0.07103844 -0.2849484 0.0124939475 0.01024067 -0.07826897 -0.3459124 0.052979805 0.0003704471 -0.04291252 -0.041134816 0.25588807 -0.5036576 0.33146694 -0.3240522 0.11107347 -0.2581358 -0.27842847 0.12848961 0.26656738 -0.20622805 -0.07084727 0.17275071 0.29377946 -0.04109792 0.055658802 0.16744687 0.19769189 -0.20517537 0.27755523 0.15196726 -0.11936142 -0.25115457 0.04650225 0.26414236 -0.30489585 0.25270522 0.21352814 0.3752348 -0.31594542 0.3658781 0.03895196 0.04261414 0.16213332 -0.3705942 -0.026179632 0.07315573 0.102649264 -0.21674266 0.33767608 -0.24863146 -0.31395596 0.23805991 -0.17569526 -0.420567 -0.08174955 -0.3309934 -0.27930814 0.1081124 0.39640084 -0.13428515 -0.12612085 -0.009627155 -0.05981078 0.02175914 0.10121079 0.4799658 -0.47436866 0.31804836 -0.45707536 0.1750118 0.53694224 0.016204314 -0.09451114 -0.09366216 -0.15878773 0.13252212 -0.13076149 0.02148139 -0.23851389 0.04027145 -0.15826143 -0.3232632 0.017551642 -0.0024126074 0.039178196 -0.12513895 -0.4664267 -0.24959135 -0.118045464 -0.13742769 -0.1587276 0.052845735 0.3260588 0.3828596 -0.058902 -0.316418 -0.24091764 0.42224663 -0.5325688 -0.053214483 -0.29325572 -0.04568773 0.053948347 -0.26389185 0.23317243 -0.17084123 -0.026859395 -0.070315726 -0.032558993 -0.014009383 -0.16510236 -0.10975417 0.115833014 -0.11111476 -0.23853695 -0.23255734 0.13459659 -0.22294463 0.08858449 -0.06939896 -0.23346646 -0.18297538 -0.44141787 0.23487328 -0.050673947 0.21963577 0.16699189 0.20811068 -0.12828445 -0.15890513 -0.00295453 0.23304568 -0.11097966 -0.08205586 -0.35677454 0.3070139
1624 0.09113145 0.22365524 0.12551087 -0.07183942 0.0700102 0.11710883 0.32203317 -0.15474613 -0.04469284 -0.14985211 0.2983477 0.009927449 -0.34035408 -0.2662071 -0.053152174 -0.1752811 0.32710114 0.27978534 -0.11140897 -0.41815487 -0.1069491 0.45314676 0.25079024 -0.18970156 0.04793528 -0.39368594 0.030155886 0.014700542 -0.46941122 -0.33825272 0.30408427 -0.3074497 -0.03548254 0.3004426 -0.46622178 0.17936656 0.33392653 0.17799878 0.22956699 0.04008149 0.03451706 0.22288401 0.021878406 -0.16316657 0.07187268 -0.26011246 0.21679412 0.067543484 0.11706493 0.1427405 -0.018173795 0.13807464 0.073691815 0.16507083 -0.11375899 -0.14069791 0.033126634 -0.43352994 -0.23403184 0.26296002 0.37109536 -0.17484482 -0.36002672 -0.15667965 0.27070442 -0.14492512 -0.0762529 -0.08056503 -0.3909188 -0.2945033 0.41765463 -0.35720727 0.13980444 -0.011732102 -0.19871147 -0.1712781 0.031842124 -0.6882502 -0.061950628 0.3611112 0.359105 0.12595516 -0.07424844 0.2729595 -0.4261645 0.36668897 0.3257257 -0.48363993 0.0402017 0.23082426 -0.13752827 0.10112584 0.30316544 0.12635666 0.19602402 0.070440404 -0.09118754 -0.22630589 -0.25279438 -0.3267779 -0.56201255 -0.16010137 0.06450176 -0.011173188 0.1304712 -0.23090984 0.020520164 -0.13136822 0.009681108 -0.3026912 0.42556724 -0.090024896 0.08702733 0.5765862 0.4723707 -0.24242933 0.3452023 -0.045204107 -0.09338342 0.06253304 -0.062143844 -0.2818888 0.03737292 0.038373157 -0.11133201 -0.2870568 -0.04119499 -0.042744443 -0.08244077 0.035406575 0.25738478 -0.6583752 0.19154938 -0.45553556 0.14338359 -0.2644926 -0.18848176 0.14650735 0.26185068 -0.15939482 -0.010554628 0.19868803 0.23019218 -0.022500068 0.06498507 0.2314283 0.18297076 -0.18344197 0.25805008 0.08274619 -0.03319646 -0.19021036 0.08736598 0.3229557 -0.37108245 0.26405466 0.23820427 0.3106094 -0.3899597 0.44084966 0.012788059 0.091747165 0.1787081 -0.40801665 -0.108854055 0.16743046 0.0012658944 -0.2098312 0.34113926 -0.12485756 -0.36133277 0.16117582 -0.091220826 -0.30941716 -0.16206774 -0.42362365 -0.22671606 0.024318812 0.38247067 -0.15316261 -0.06259764 0.037988514 -0.14791204 0.11132051 0.17655304 0.5544595 -0.5311776 0.29863244 -0.4663833 0.19150773 0.5006545 0.04855608 -0.017669482 -0.18636498 -0.22329277 0.007645568 -0.15262713 -0.03908047 -0.2798853 0.0060864408 -0.15008043 -0.25039443 -0.0037494756 0.029662423 0.003388356 -0.14330521 -0.41131708 -0.10066892 -0.18940084 -0.22551967 -0.10382319 -0.02811946 0.31084067 0.28698632 -0.13207552 -0.4015252 -0.314275 0.30972967 -0.5433237 0.03783348 -0.28759846 -0.07976827 0.115769535 -0.2307375 0.26140693 -0.20756488 -0.019101307 -0.08520542 -0.051553864 0.0056019938 -0.15307848 -0.13302183 0.17559646 -0.13681012 -0.21439819 -0.22711079 0.20153826 -0.27701393 0.14770663 -0.06057226 -0.21726117 -0.11604394 -0.3935696 0.16289286 -0.08008782 0.18648493 0.17393425 0.20975573 -0.1566731 -0.19103986 0.012727954 0.2890412 -0.046351828 -0.08567411 -0.39247498 0.28365326
1580 0.11048082 0.2039782 0.19068621 -0.08553147 0.11208783 0.12836277 0.3611198 -0.062932655 -0.011164544 -0.2621551 0.35964245 0.057566717 -0.39990902 -0.3158357 -0.03368329 -0.13361058 0.36993736 0.15442882 -0.09777281 -0.49621964 -0.114760555 0.49344414 0.26464888 -0.066192575 -0.020039845 -0.25764593 0.012414269 -0.026255175 -0.49530393 -0.36742467 0.21879847 -0.29082218 0.08788045 0.31937155 -0.410632 0.0941631 0.35188523 0.14139883 0.19061299 -0.035199102 -0.06872696 0.12629956 0.06305498 -0.123654656 0.113034144 -0.24444391 0.25524712 0.07886258 0.043813325 0.18021394 -0.13192277 0.12240925 0.11066492 0.21391502 -0.14386585 -0.16881451 0.062001366 -0.38406664 -0.28990656 0.2855461 0.35553715 -0.19965456 -0.2883617 -0.23491797 0.23196632 -0.113695525 -0.08632309 -0.008901281 -0.4812 -0.14474218 0.3686508 -0.32238775 0.19147894 -0.0644776 -0.112704284 -0.16153957 -0.02661571 -0.6814368 -0.012433662 0.36069092 0.31166407 0.072243415 -0.015864458 0.27123606 -0.41524008 0.41134998 0.33631277 -0.38068208 0.061398514 0.30315086 -0.1360528 0.11115877 0.25642648 0.054790355 0.2542563 0.01963265 -0.14670539 -0.19058141 -0.2871551 -0.29601142 -0.56368566 -0.22388591 -0.055359278 0.050323498 0.11087629 -0.32236207 -0.016999837 -0.102728054 0.091962054 -0.30239892 0.3757408 -0.15498795 0.07235989 0.5971335 0.4279228 -0.29747608 0.3650721 -0.15940058 -0.053662527 -0.03532139 -0.058953073 -0.24755007 0.051757343 0.072649114 -0.09044882 -0.2638739 -0.04325353 0.028756432 -0.09040947 -0.060582012 0.21985157 -0.49120203 0.2860063 -0.41083354 0.065772004 -0.25393882 -0.18867576 0.10040118 0.2441229 -0.2031228 0.0003797516 0.20278431 0.28937122 0.007998032 0.037601575 0.11385402 0.22491376 -0.24589713 0.24635915 0.12209133 -0.05752634 -0.22420244 0.043175776 0.3262526 -0.31058425 0.2941532 0.23403342 0.33346117 -0.31064445 0.43088248 0.03599894 0.17376716 0.106378034 -0.4258788 -0.07897279 0.1569827 0.01799778 -0.2675941 0.24352363 -0.16233553 -0.2708546 0.25864187 -0.097226515 -0.38679478 -0.14120474 -0.39130718 -0.16303733 0.10539902 0.3465928 -0.19791381 -0.06422097 0.0963591 -0.11949938 0.12763394 0.06837668 0.51833755 -0.45604613 0.33842564 -0.44522965 0.17804642 0.5340534 0.0067451103 -0.13447686 -0.14234802 -0.24712269 -0.0060264287 -0.17395385 -0.036582533 -0.2117388 -0.04286791 -0.16762827 -0.30669945 0.039569113 -0.030983103 0.0072951876 -0.15728222 -0.36343786 -0.21040556 -0.18888465 -0.19643202 -0.12083584 0.064193785 0.31041527 0.3147513 -0.08239288 -0.40417692 -0.31238338 0.29488805 -0.5778765 0.0443075 -0.27004924 -0.069686905 0.111220926 -0.1773407 0.23820782 -0.21175466 -0.053026684 -0.025609262 -0.094356626 -0.07362167 -0.1661906 -0.146584 0.088214755 -0.14262503 -0.1829334 -0.18114345 0.0855859 -0.21045597 0.12655157 -0.0836179 -0.28480718 -0.11749142 -0.38492277 0.19777833 -0.040222127 0.15635194 0.1201388 0.18846643 -0.18776916 -0.1815016 -0.04751821 0.24640545 0.020497374 -0.08152841 -0.34433737 0.21012166
1575 0.06813738 0.20012574 0.11832444 -0.08044624 0.16555877 0.16943039 0.3770615 -0.15752724 -0.081411965 -0.21723759 0.28227666 0.09735297 -0.38219422 -0.3693886 -0.003844118 -0.104370855 0.2964722 0.16496073 -0.099990204 -0.4676365 -0.06980839 0.50766945 0.37787285 -0.15110058 -0.050098523 -0.31069702 -0.016774287 0.022499058 -0.51012045 -0.4184572 0.202249 -0.3093168 0.05209731 0.37037104 -0.4930123 0.12428876 0.3740295 0.16817017 0.21520567 0.051766567 -0.07123558 0.17735088 0.025746256 -0.094248965 0.14424512 -0.25591686 0.29687515 0.017824514 0.05109633 0.27400494 -0.0616511 0.12659675 0.187461 0.13571711 -0.18129173 -0.045717448 0.08235702 -0.4388015 -0.24990359 0.25544465 0.31894663 -0.16419376 -0.23401383 -0.13179564 0.24187934 -0.11850044 -0.0995545 -0.07350112 -0.44333634 -0.16112994 0.41194218 -0.2929032 0.16889018 -0.046333626 -0.19420171 -0.11881446 -0.0063997796 -0.61167455 0.04411773 0.35103905 0.30022287 0.15910217 -0.031131996 0.3379044 -0.4680858 0.33146268 0.37245563 -0.4644878 0.043369204 0.24021193 -0.16062449 0.22983105 0.30818796 0.07313626 0.25564507 -0.06882086 -0.13864446 -0.2376227 -0.3001105 -0.25218564 -0.5655216 -0.16497338 -0.0955382 -0.06646105 0.18414335 -0.30200124 0.000670006 -0.026017888 0.04442603 -0.28260678 0.42260867 -0.11251279 -0.021469234 0.5293194 0.46802977 -0.29106146 0.3422949 -0.14949776 -0.0068384525 0.054756902 -0.06687309 -0.2085359 0.015314211 0.033511512 -0.07026825 -0.26955426 -0.076905996 0.045069184 -0.08682434 0.007476667 0.12989157 -0.5231266 0.27574223 -0.3095303 0.11086354 -0.26934615 -0.15061131 0.03703268 0.18766402 -0.18028146 -0.024319474 0.19803312 0.258201 0.0397744 0.0902452 0.23251025 0.18721344 -0.28215477 0.2793652 0.20661888 -0.114741616 -0.2629261 0.08541031 0.3432791 -0.34478256 0.2511798 0.19201198 0.29288116 -0.38629308 0.5028003 -0.0064533805 0.06605517 0.19547465 -0.37581462 -0.10937399 0.14749162 0.03834485 -0.21452901 0.35428566 -0.1752957 -0.19510286 0.19285256 -0.08219114 -0.37602952 -0.04616737 -0.36866382 -0.28400856 0.09106095 0.4000571 -0.1502622 -0.054641895 0.009591354 -0.11676434 0.07256057 0.074901246 0.42926085 -0.48988312 0.39555144 -0.49167287 0.109807394 0.5286155 0.031922 -0.09308467 -0.15134591 -0.20636836 -0.0055126618 -0.108089216 0.08060758 -0.21598959 -0.007292762 -0.12795751 -0.28252202 0.04411749 0.019280644 -0.008852092 -0.17905408 -0.41990292 -0.23748155 -0.108531825 -0.18485282 -0.20862386 -0.04161453 0.26728418 0.31448638 -0.092112005 -0.4091623 -0.19716176 0.2584477 -0.5859891 -0.016057543 -0.22929826 -0.06293893 0.16171359 -0.2134966 0.29932654 -0.23578185 0.023842046 -0.12877823 -0.122620635 -0.044128966 -0.25265518 -0.23433919 0.16622768 -0.1541106 -0.18073341 -0.18683481 0.15845805 -0.28296146 0.08345457 -0.12664935 -0.19723974 -0.16350214 -0.3703136 0.19368163 -0.07344102 0.16655646 0.098540075 0.11279455 -0.18093906 -0.10438811 -0.011111408 0.20931138 -0.004278139 -0.08801924 -0.3757489 0.25065514
635 0.219274 -0.31552762 0.123572595 0.11087204 0.47896007 0.15048213 -0.2732999 -0.1544603 0.1073264 0.20925428 0.10219166 0.23246104 -0.10988611 -0.5529005 -0.09112544 -0.21359138 0.70222926 -0.11734639 -0.4339959 0.75435007 0.009430691 -0.13776566 -0.08365138 -0.2194354 -0.53511906 -0.08312215 0.16017736 -0.1727753 -0.24590197 0.35916352 -0.03757374 0.27907088 -0.27315184 0.27963853 -0.21077672 0.040437374 0.05423251 -0.17805342 0.11466166 -0.3802153 -0.70601124 0.3397925 -0.13445485 0.11105838 0.2541804 -0.13350226 0.2689585 -0.05072142 -0.14021586 0.118558936 -0.014998706 0.038369153 -0.1522712 0.07027352 -0.17662427 0.13492389 0.13275361 0.21879089 0.44983572 -0.5152865 0.116888106 -0.12599967 -0.445026 -0.3948601 0.49044296 -0.023270577 -0.23061618 0.4272027 -0.13120759 -0.2406409 0.32574227 -0.25270224 -0.19431275 -0.2475781 -0.3212263 -0.0027547989 -0.38933086 0.31780747 0.046784967 0.41524202 0.22556087 0.100699194 0.2019046 0.3100385 -0.14177246 0.28833297 0.40444177 -0.40842763 0.15297596 -0.13918194 0.29763305 -0.38176826 0.25333777 -0.54390204 0.47162136 0.23445064 -0.28441915 -0.4132091 0.38755426 -0.32090372 -0.24985766 0.23320927 0.093768984 0.08261158 0.08992226 0.14493905 -0.08170225 -0.2607871 0.12000388 -0.47524887 -0.49810493 -0.015510858 0.09348673 -0.04367961 -0.16760154 -0.009140622 0.23029152 0.15981743 -0.2905043 -0.35110423 0.15301861 -0.42235002 0.25031766 0.19748779 -0.30012986 0.5151565 0.35794562 -0.36401623 -0.08938019 -0.35832053 0.41165727 0.33292457 -0.1511651 -0.35723352 -0.4305284 -0.45209935 0.06032685 -0.16767344 -0.05100649 0.15744026 -0.48013678 -0.44888577 0.39478514 0.3716705 -0.6974587 0.2588935 -0.20286748 0.33626696 -0.13358083 0.3702762 -0.4128488 -0.47302327 0.17504545 -0.3449744 -0.78488606 0.5088119 0.31546572 -0.32384723 -0.22253776 0.12778589 0.072668 -0.16810119 0.2916199 -0.1985417 0.37160224 0.1386116 0.2514767 0.7085267 -0.0016682154 -0.41005647 -0.054752287 -0.08059694 0.24640276 0.4132 0.07852082 -0.33005098 0.14387779 -0.06932537 0.2651828 0.29426146 -0.28557327 0.15852964 0.20900728 0.5665936 0.29969123 -0.011215631 -0.45715308 -0.24387385 0.4900905 -0.39334622 0.45214263 -0.058916874 0.015269065 0.39629942 0.9555956 0.08009931 0.44413018 -0.70428205 0.04362647 -0.73082876 -0.60518605 -0.40888306 0.26506916 -0.07403516 -0.28647023 -0.120281644 -0.27190042 -0.29592115 -0.18445069 -0.12922227 0.47956914 -0.1644076 0.07602991 0.22490048 -0.04769954 0.14577793 0.33847138 0.5811355 -0.61412185 0.01807719 -0.65807617 -0.29181752 0.13700955 -0.56791365 0.19172263 0.0599901 0.3532205 0.08404823 0.24742913 0.029123263 -0.3317737 -0.054171007 -0.16811474 0.27893645 0.33061242 0.15734826 0.21395257 0.2813667 0.06825406 -0.2469281 -0.13770099 -0.0034724604 0.013870817 0.0104504 -0.44898826 -0.16806823 -0.027731441 0.2350631 -0.29243866 0.318915 0.0041942447 0.20851201 -0.32514837 -0.006532915 -0.56443053 -0.13347933
479 0.3892828 -0.296654 0.11954782 -0.1291005 0.42595053 -0.31790054 -0.09102462 -0.1281152 0.29839227 0.14395075 -0.44196168 -0.42529637 0.09063048 -0.5265149 0.44448996 0.36299875 -0.20978963 0.109103985 0.0061793034 0.40830186 0.2729479 -0.14764944 0.07229501 0.16591248 -0.29019028 -0.14081092 0.43315697 -0.22702858 0.12011756 0.41297522 0.06295067 0.2680879 -0.12618932 0.00958987 -0.17175965 0.5621763 0.04420662 0.046071768 0.107342206 -0.4761342 -0.35708275 0.66960305 -0.306629 -0.051611714 -0.040188503 0.4075767 0.497766 -0.009586872 0.45711547 -0.031890802 -0.05160296 -0.012578778 -0.16180246 0.41503158 0.19122797 -0.47057843 0.25633118 0.35074988 0.45764053 0.19323127 -0.01406531 -0.19312422 -0.52285993 0.13304299 0.4657964 0.43940362 0.003180414 0.1764843 0.3996735 0.13796172 0.113180265 -0.057768457 0.08961171 -0.606135 0.27422538 -0.0019871828 -0.2600521 -0.018275697 -0.40745237 0.39332345 0.19769022 -0.27562794 -0.0637772 0.79728925 -0.27013963 -0.036179613 0.3749959 -0.07216887 -0.07916625 0.2798029 -0.12765713 -0.4154501 0.5053695 -0.60286003 0.16932039 0.116912626 -0.39368665 -0.11957572 0.09034127 -0.35942703 -0.13028717 0.5004411 0.32199842 0.11323409 0.33114502 -0.010281664 0.09739306 0.33073255 0.2883655 -0.27245256 0.119169645 -0.40257907 0.51856434 -0.16742323 -0.08112016 0.008620658 0.13400091 0.04939344 0.18603654 -0.252283 -0.26006284 -0.14714901 0.31670925 0.3433842 -0.46668655 0.3948254 0.0004890613 -0.2610343 0.023629958 -0.11796028 0.6464059 -0.29166842 -0.36342055 -0.8081404 0.289492 -0.22361515 0.07653681 -0.11360962 0.4125756 0.031718384 -0.56212944 -0.5468751 0.037957817 0.13047172 -0.659036 0.0027187276 -0.43554688 0.42271125 0.22463389 0.08006216 -0.027535317 -0.4003035 0.028291684 0.044353195 -0.67230505 0.0149721075 0.19661358 -0.38490102 -0.6251081 0.0131306695 0.039439477 0.44430694 0.009918873 -0.23536539 -0.0037165564 -0.45903346 -0.05864723 0.035615597 -0.24015392 0.039016135 -0.43678743 0.11570676 0.07465979 0.19891702 0.1615 0.01276399 -0.05179192 0.1979941 0.110590376 -0.0400627 -0.4962752 -0.021513874 0.15343727 0.6367304 0.36119738 -0.22102712 0.06480841 0.054365695 0.26574007 -0.0057587 0.38533714 -0.42009377 -0.037446912 0.058005266 0.9228907 0.17940149 -0.09649803 -0.44509405 -0.29488257 0.3134224 -0.5961031 0.05026775 -0.02496448 -0.5587544 0.022478106 -0.07543994 -0.5009806 -0.07021494 -0.23946999 -0.11323385 0.80217963 0.16129085 0.7693951 0.34224695 -0.20864797 -0.13608116 0.50200415 0.5527469 -0.055277877 -0.18681154 -0.043500483 0.14123283 -0.20953684 -0.42611507 0.14390741 0.037203874 -0.1493847 0.25854757 0.005403703 -0.04509519 -0.20244141 0.16053574 -0.06252859 0.24650566 -0.09292824 0.7057072 -0.3452887 -0.130476 0.14909369 0.037565358 -0.25462422 0.24135517 -0.19914624 -0.030811606 -0.14688414 -0.24004015 0.0310211 0.0374581 -0.008187543 -0.16933867 -0.36112598 -0.012044235 -0.09723337 -0.011385552 -0.015429036 0.11011676
1718 0.5401862 -0.2759748 0.17016059 -0.17887639 0.42630276 0.045716196 0.47422418 0.2164804 -0.47260082 0.15287538 -0.13129 0.033196453 -0.19690172 -0.60457397 0.08707363 0.4017671 0.22249965 0.6054879 -0.8254246 0.48524746 -0.22119515 0.21546996 0.24831657 -0.35106197 -0.4943367 -0.2612586 0.18484634 -0.014250737 -0.65258765 -0.09863573 0.009126909 0.16213286 0.133659 0.45063797 -0.64529383 0.56626403 0.45567584 -0.43391407 0.40817913 -0.1472367 -0.18343866 0.22598486 -0.1644785 -0.23526306 0.3071325 -0.069652915 0.26583272 0.04736002 -0.04486599 -0.42196995 0.21884234 -0.12764724 0.048077617 0.074318014 -0.34149784 -0.1503576 0.42068896 -0.4521192 0.3881159 0.16242787 -0.1745737 -0.18776047 -0.29136997 0.1823651 0.42084238 0.30955857 0.057385676 -0.0057248306 0.37346554 -0.06372392 0.50817287 -0.07835396 0.32920012 -0.5565901 0.46201771 -0.12991276 0.00043569147 -0.070268504 -0.07659222 0.45228088 -0.18371624 -0.19514573 0.108910345 0.32013 -0.3930532 0.6363371 0.21406285 -0.43818223 0.457645 0.05152337 -0.2159412 0.034251314 -0.055722702 -0.0709737 0.1407888 0.18802547 0.015777322 -0.57243574 0.45488754 -0.409102 -0.47824833 0.045661595 -0.08880646 -0.13400534 -0.12881747 0.18001115 0.13259576 -0.023974761 -0.154669 -0.44875163 -0.005461647 -0.10701068 0.010024578 0.19087014 0.5025057 -0.56994474 0.6274929 0.11782314 0.35625923 -0.0016313607 -0.09492633 -0.3331725 -0.25862402 0.19903527 -0.48392177 0.24740842 0.11592869 0.10207693 0.074222796 -0.38428178 0.32130277 -0.2313355 -0.7571792 0.00311561 -0.22451702 -0.06394045 0.2978206 0.44193813 0.37419966 -0.42909887 -0.41841814 0.18417698 0.2262918 0.65057665 0.17573781 -0.3526934 0.36190772 -0.32349545 -0.28841186 0.508113 -0.17035747 -0.53318703 -0.08049958 0.14068857 -0.23730351 0.1847695 0.15463433 0.30359736 -0.34888375 -0.37747028 -0.4282761 0.39008006 0.25782132 -0.26403177 0.44087636 0.67054635 0.16620387 -0.19966264 -0.058727555 -0.017114831 -0.07296907 -0.20415589 0.16544697 -0.12668824 -0.3158734 -0.40211716 -0.22901857 -0.3876938 0.47107804 -0.20194535 -0.021632178 0.098113336 -0.16854791 0.4372039 0.64989096 0.33994213 -0.35738927 0.11355552 -0.27916583 0.43132624 0.1095036 -0.16019122 -4.570875e-05 -0.123254165 -0.060285293 -0.17841904 0.42286107 -0.40401033 -0.32475346 0.07790858 -0.49418256 -0.07937896 -0.034214158 -0.39094114 0.20812051 0.26428738 -0.36243892 -0.27128863 -0.58321524 -0.11094709 -0.0077011865 0.2011799 0.31883374 -0.061445072 -0.029092105 0.15961821 -0.070180684 0.11725486 -0.03425367 -0.26821762 -0.12524614 -0.15073715 0.424121 -0.32382154 0.54453725 -0.40905643 -0.03264562 -0.12611318 -0.17955217 -0.008125914 0.23067698 0.27185404 0.16506487 -0.5824563 -0.2745236 -0.0019107825 -0.17807429 -0.55640507 0.4574232 -0.08401778 -0.4446546 0.14439686 0.20310001 0.24815294 0.06384665 -0.001910131 -0.0026675505 0.10137047 -0.13517167 0.10289882 -0.46253046 0.22139667 -0.16267338 -0.21666026 -0.36629134 -0.29039514
19 0.078262284 -0.11227456 0.043145698 0.28763407 0.21096319 0.0099508315 -0.13916112 0.2734019 -0.27351978 0.442994 -0.15285698 -0.5891339 0.043478936 -0.34175807 -0.4243495 0.0048708445 0.19934908 -0.086883746 0.05941546 0.5690598 0.36501387 -0.19632764 0.35919198 -0.45430833 0.038870838 -0.0025091344 -0.12252135 -0.16203082 -0.08972685 -0.3267897 -0.041038144 -0.17143464 -0.25922903 0.12238935 -0.17718264 0.04528414 0.30070588 -0.37333724 0.31241518 -0.22942275 -0.4386299 0.14031358 -0.09579267 -0.18748467 0.27014634 -0.03778411 -0.3951688 0.13339314 -0.12820281 0.13611141 -0.024108645 0.1903532 -0.049988456 0.35887688 -0.30686244 -0.3902491 0.049194288 -0.55923927 0.04488439 0.34830573 0.17235553 -0.086394936 0.33399287 -0.012229324 0.10464234 -0.4160085 0.09261079 0.49656248 -0.32014185 0.25563774 0.2140851 -0.2841137 -0.032413166 -0.215099 0.12501042 -0.34415826 -0.2625542 -0.030389078 -0.118213944 0.48067024 -0.598239 0.056899767 0.13022445 0.083116435 0.056916986 0.15129647 0.20622194 -0.057783227 0.0497851 0.030281857 -0.040661275 -0.03373858 -0.19747621 -0.4319875 0.22252542 0.14154077 -0.13567245 -0.5934167 -0.16116354 0.052864946 -0.32998616 0.08487444 0.007461736 -0.13380331 0.21965499 -0.10276981 0.044343427 0.00922401 0.39565885 -0.458443 0.060593393 0.10338993 -0.074889846 -0.21411407 -0.29789552 -0.111399986 0.25317505 0.4134058 -0.007373115 -0.33917764 -0.14820808 -0.4069799 -0.053241048 0.22190955 -0.045322653 -0.032997523 0.17785123 0.023435976 0.062210932 0.01747396 -0.22223388 -0.07933879 -0.061808065 -0.17966923 0.2392712 0.33664382 0.22095583 -0.0889525 0.093432166 0.15920073 0.37564892 -0.33144075 0.5424755 0.1886343 -0.10796821 -0.44981417 -0.32584307 0.13796426 0.029048512 0.13645545 -0.19298793 -0.060675543 -0.059120096 0.1258377 -0.34757066 0.011326937 0.28522435 0.33092523 -0.3576554 0.21216649 -0.32974786 -0.2160531 0.17174968 0.3530185 0.25135058 0.21371233 0.12388068 0.17191084 0.33220857 0.18960854 0.10017093 0.40359613 0.18324742 0.13053374 -0.14070325 -0.3735917 0.17124946 -0.38549742 0.09141246 0.041377924 0.057197865 0.108148724 0.2856192 -0.118697755 0.23402433 0.19350165 -0.62092465 -0.08175439 -0.44234598 -0.14534523 0.092488356 -0.47250992 0.027620604 0.020190297 -0.06742316 -0.54320866 -0.056208357 -0.046890825 -0.2208078 -0.24030861 -0.44083127 -0.065883875 0.22105756 0.012371599 0.3228249 -0.40860066 0.26984352 -0.1580746 -0.16580208 -0.12533168 0.27382067 -0.11178504 0.20241928 0.09267167 -0.23125717 0.47643656 0.47249404 0.20604193 0.051900465 -0.16734111 0.14081013 -0.2157415 -0.45838004 0.25031918 0.3165512 -0.041864473 -0.06755721 0.11114945 0.0037984587 -0.0064233774 -0.07280255 0.19800138 0.648436 -0.41360563 -0.35930547 -0.092681736 -0.010163142 -0.0892578 -0.14644025 0.4215572 0.21596022 0.17985444 0.4033382 0.06592926 -0.3848883 0.022857454 0.14358456 -0.17805547 0.023587847 -0.288053 -0.06432745 0.34430048 -0.05049309 -0.21445024 0.1797847 0.08759276
1429 0.17423452 -0.012080296 0.23222561 0.48376 0.44421902 0.12703945 0.28609928 -0.08302351 -0.18434927 0.32774797 0.14766021 -0.37419286 -0.0637308 -0.39573663 0.36973068 0.10777139 0.29774573 0.22459646 0.15700112 0.3859277 0.026895016 -0.27181873 -0.19448218 -0.28566146 -0.47168687 -0.27337718 0.3391358 -0.117084265 -0.18994987 -0.28293094 -0.2027166 -0.37461573 -0.0021394675 0.27269414 -0.1591142 0.6313808 0.099122316 -0.38020226 0.06732135 -0.26714092 -0.6857902 -0.049752276 -0.2419492 -0.24892828 0.28808904 -0.14924619 0.04873736 0.011100796 0.14389575 0.17550817 -0.12827674 0.2882363 0.45987892 0.057622388 0.37259468 0.16921215 0.20651263 0.27829748 -0.11668699 -0.26171148 -0.21632776 0.21610548 -0.4054137 -0.12971011 0.21971151 -0.13267875 0.47131863 0.08908327 -0.40925908 0.20645379 0.07083835 0.28201848 -0.23842174 -0.053917848 -0.008186678 -0.19740008 -0.48165578 -0.23141256 0.1522778 0.65468913 -0.07932652 0.0049944744 0.30521995 0.5910046 0.023996491 -0.33684313 0.60799116 -0.4525553 0.05628982 0.038788334 0.2473967 -0.53113973 0.17237364 0.0023288417 0.062237225 0.5722682 -0.5704883 -0.11272745 -0.25171474 0.032271232 0.091847055 -0.08794645 0.15460873 -0.24665168 0.43264392 0.47949263 -0.33839226 0.060413163 0.09987867 -0.53513336 0.0022486025 -0.43852362 0.18227616 -0.33837518 -0.082784265 0.35734117 0.14441012 0.07111397 -0.2802533 0.039157137 0.084389515 0.19366519 0.21029285 0.0036904018 -0.056922592 0.4335098 0.53197503 0.21612316 -0.106897876 -0.31498203 0.72715753 -0.18751015 0.06811019 -0.15725876 -0.12889384 0.12133716 -0.12635407 0.31277618 0.58573097 0.24522139 -0.49876314 0.019436633 0.4565468 0.04584283 -0.25353202 0.26719555 -0.37239972 0.40358773 0.008768317 -0.06859503 -0.15781008 -0.27421018 -0.16420463 -0.21761322 -0.25262514 0.5933552 0.2456384 0.15604085 -0.33516896 0.21741287 -0.2642895 -0.02049288 0.4542162 0.045114595 0.129261 -0.26654932 0.20789634 0.36225432 0.25101778 -0.22531588 -0.24688298 0.07025546 -0.021033565 0.21844965 -0.22792417 0.21104307 -0.19698873 0.28430063 0.22916801 0.32085308 -0.17733888 0.38259757 -0.077109605 -0.036661197 0.23355217 -0.15357351 0.1527212 0.001817998 -0.072019994 0.20250247 0.40781853 -0.48478925 0.3780246 -0.044197578 0.17130262 0.2873469 0.5426019 -0.20822985 -0.19522108 -0.0357325 -0.12882186 -0.48135564 0.35781705 -0.35087147 -0.3298675 0.2064258 -0.23198566 0.12012561 -0.32063493 0.23699869 0.002708583 0.28790268 0.82923394 0.32952115 -0.07024218 -0.15720007 -0.18713126 0.53937125 -0.058028843 -0.03117215 0.027869629 0.32382384 -0.4970419 -0.18979602 -0.21392316 -0.41103047 0.31926662 -0.32734585 -0.40786242 -0.20751347 -0.35255024 -0.06830194 0.22242747 0.27161568 0.02544486 0.1440462 0.085478514 0.1648365 -0.36271417 -0.4042304 0.018491082 0.33213347 0.26926908 0.323267 0.010333544 0.08479592 0.37492546 0.26785287 0.12842311 0.24064007 -0.5027779 0.25650182 -0.37192383 -0.47591552 -0.6229702 0.14423527
1436 0.06999427 -0.49037486 0.13330907 0.41777453 0.403007 0.17686443 -0.11062863 -0.24194069 0.061606243 -0.012126027 -0.20787637 0.05321122 -0.12364929 -0.40245944 0.14263766 0.3946071 0.3333295 0.07660484 0.22665255 0.5534192 0.4301363 -0.0039462317 0.073962726 0.295454 -0.71999437 0.14973067 0.08827764 0.15643355 -0.10033667 -0.21849036 -0.38940865 -0.16957317 -0.15507942 -0.11617926 -0.15502134 0.6283772 0.4727279 -0.38303834 -0.17857811 -0.14287548 -0.18492739 -0.17345494 0.113360114 -0.12900373 -0.025848176 0.48033896 0.62889063 -0.008614271 0.38792142 -0.33453703 -0.36232066 0.02044046 0.4844544 0.3238192 0.49332777 -0.16635288 0.3536808 0.05728192 0.06470846 -0.16498229 0.29342252 -0.3794723 0.2357399 0.26087222 0.16609034 -0.13456042 -0.019692106 -0.037692875 -0.29004768 0.03483851 0.20470038 -0.05190087 -0.40483645 -0.40465048 -0.120337024 -0.38938907 0.050065175 0.23066148 0.23169729 0.44411156 -0.2914406 -0.18538363 0.16150102 0.40971267 0.23563987 0.11107797 0.5002706 -0.025142835 0.13483131 0.23386323 -0.07199786 -0.32998985 0.32560542 0.19459479 0.4322839 0.11529105 0.04193314 -0.25833407 0.07135135 0.24817072 -0.12143102 0.33536 0.11795047 -0.41791192 0.03228442 0.22619508 -0.21306247 0.32003433 0.3862204 -0.60926145 -0.13062382 -0.36710465 -0.08243043 -0.15653466 -0.25319755 -0.08660955 0.29052734 0.6337621 -0.20659587 -0.34594443 0.21794726 -0.23204932 0.18994036 0.22672178 -0.3654779 -0.26496968 -0.09693961 0.18407188 0.3520905 0.12495168 0.35163376 0.047202 -0.04191258 -0.41748458 -0.32528585 -0.014652036 0.37007385 0.12793383 0.3313354 0.10199751 0.07906155 -0.3117479 0.39864337 -0.1125902 -0.59415865 -0.20902851 -0.33436897 0.25852242 0.33819708 0.013286024 0.17406833 -0.020978171 0.040692646 0.026291035 -0.34104246 0.35008743 0.057931162 0.3605487 -0.581148 -0.30952463 -0.12329179 -0.0049001058 0.09895059 -0.18940239 0.13534932 -0.25079235 0.32719475 0.20779094 0.0052105756 -0.020913908 -0.2428445 -0.2919785 -0.041134253 -0.0048380336 0.2376706 -0.18074702 -0.2925938 -0.06389572 0.46016362 -0.2673534 -0.42465463 -0.14757288 0.42244267 -0.20249909 0.14691375 -0.03694346 -0.01823551 -0.45875362 0.4919595 -0.14682788 0.3826804 -0.5476336 0.00022563973 0.106987126 0.50663984 0.050737154 0.55788934 -0.63628924 -0.42413667 -0.35625398 -0.42838308 -0.016594911 0.090847895 -0.63415265 0.12880717 0.3151545 -0.31165168 0.063224815 -0.12722945 0.24468312 0.33960664 0.29813635 0.43903276 -0.15614691 0.34481117 0.056556307 0.43909657 0.4626757 -0.6032358 0.08568183 0.0017209374 -0.10379606 0.11481977 -0.41328937 -0.2205751 -0.199836 0.09927522 -0.3665978 -0.11121313 0.3409844 -0.3087775 -0.05716134 -0.37665066 -0.017907338 -0.20193474 0.33974507 -0.13138857 0.00055562856 -0.11361597 0.09292463 -0.11671172 -0.35870132 -0.11719484 0.046626776 0.11068376 0.07608788 -0.14508937 -0.39121962 -0.49041542 0.09504052 -0.566839 0.39286277 -0.009893861 -0.15894334 -0.6651139 0.20377715
1619 -0.18713051 -0.6435229 -0.08418512 0.40146166 0.54853594 -0.23288026 0.23709454 0.62013835 -0.5572918 -0.52410054 0.22587262 -0.4256312 0.040109232 -0.5531008 0.39000842 0.5905914 0.1266088 0.48569623 -0.3933135 0.31596535 0.36095554 0.021600286 0.34113085 -0.009924727 -0.30992496 0.45061252 -0.24895354 -0.15329564 -0.23873623 0.08492527 -0.22392498 -0.011020577 -0.11177569 0.2560981 -0.58946365 0.39651683 0.01659199 -0.67609066 0.0073699025 -0.43298262 -0.5895429 0.33432296 -0.20015389 -0.1428928 0.3421959 0.14710702 0.53193 -0.24323802 -0.25610754 0.13576807 0.14345007 -0.2083603 0.081951834 -0.026567174 -0.36936235 -0.14912383 0.2660098 0.122926734 0.06278856 0.06835285 0.16318284 -0.0013100741 0.024198065 0.1484783 0.2655865 0.4091789 -0.2161727 0.75377053 0.37869614 0.089377195 0.24126145 0.05784692 -0.229765 -0.34443837 0.34419495 -0.2604653 -0.1916274 -0.26544884 0.24362133 0.36760476 -0.17586161 -0.13408105 0.3398167 0.17433889 -0.34030885 0.31005734 0.26913756 -0.44587368 0.2495323 -0.22888269 0.27275878 -0.26532573 0.26667234 -0.054054663 0.24481764 0.35333294 -0.09726771 -0.45808548 0.16089262 -0.1762584 -1.0279155 -0.10916392 0.107395895 0.15755847 0.2441374 -0.18739703 -0.30414152 -0.011563269 0.54349875 -0.25046968 0.1163206 -0.38090387 -0.23789684 0.3456411 -0.16365826 -0.013715497 0.30286494 -0.39101326 0.49872464 0.08262464 -0.050263867 -0.70144886 0.20830923 0.20465456 -0.46570745 0.32760057 0.06665718 0.5925725 0.23938197 -0.3690834 -0.010401867 0.10201069 -0.29409477 -0.00046180136 -0.054291673 -0.023601817 -0.24462917 -0.34340432 0.40312615 -0.25077832 -0.10726293 -0.020954536 0.32102183 0.21290646 -0.8060544 -0.33067223 -0.4593983 0.23085886 0.38614985 0.11545198 -0.24794678 -0.1558875 -0.06685456 -0.0012454499 -0.70174795 0.004574636 -0.16858864 -0.39853612 -0.73276955 -0.23800099 0.39304537 0.11233338 -0.06852144 0.2580587 0.09884461 0.11208849 0.2978336 0.00021870091 0.43091133 0.12002067 -0.12836562 0.1026379 -0.13911964 0.25164267 -0.08645673 0.1774884 -0.06327866 -0.46812114 0.47592586 -0.12935783 -0.15819566 0.2912237 0.08231679 0.21539465 0.16784771 -0.1813528 -0.3131966 -0.3538942 -0.025772404 -0.19988684 0.96084577 0.37551987 0.2433835 0.13171075 0.1087692 0.051142205 -0.13695282 -0.2896118 -1.000062 -0.2510271 -0.6076208 0.04821785 -0.121940725 -0.51492375 0.0854802 -0.14931062 -0.36185366 0.19115213 -0.32968575 -0.16892262 0.46409553 0.49390447 0.5751295 0.053523708 -0.40203688 0.0325606 0.51418686 0.15432236 -0.13202645 -0.03867824 -0.20621182 -0.13169572 -0.20520943 -0.15744464 0.0310594 -0.10079215 -0.15236485 0.34543324 -0.29516134 0.10118086 -0.12353515 0.23928067 -0.5092589 -0.6420677 0.004901393 0.56293863 -0.56782204 -0.51180524 0.04096404 -0.2832649 -0.37139294 0.18048348 -0.04956647 -0.002281311 0.50215495 0.018571315 0.09795487 -0.30668098 -0.14444952 -0.107777275 -0.30201355 0.26659265 -0.2731029 -0.4571153 -0.57149833 0.056955773
1650 0.039762355 -0.29153112 0.039749034 0.10453555 0.4029295 -0.16707066 0.4507895 0.19436409 -0.1157038 -0.15650216 -0.05240388 -0.03787244 -0.20799324 -0.28669843 0.39995238 0.5372549 0.13506095 -0.1865582 -0.42451587 0.36773646 0.48650655 -0.12058499 0.050027125 -0.32687664 -0.0632916 0.2823925 -0.15935494 0.15872715 0.029285979 -0.22778969 0.42943287 0.02627827 0.13281675 0.26802558 -0.36621547 0.16435286 0.048229765 -0.23860304 0.40093762 -0.35896447 -0.54142565 0.31114143 -0.03281632 -0.16930339 0.4147371 -0.4557097 -0.12894459 -0.1887284 0.031348623 0.01095123 0.09594399 0.08643566 0.24075651 0.309795 -0.2719988 -0.26977 0.44023514 -0.33835796 -0.048303038 0.22215503 0.0077297604 -0.012633511 -0.06896473 0.10956038 -0.08386996 0.07665758 -0.0972926 0.20981054 -0.31700712 0.38885403 0.25340533 0.0402316 0.094462745 -0.06760018 0.22295602 -0.14100268 -0.22248025 -0.08437789 -0.11450647 0.45854843 -0.12403562 -0.34259805 0.35755694 0.55421925 0.21725266 -0.33931714 0.41064918 -0.4059943 0.25026435 0.38662708 -0.020115968 -0.18048653 -0.17877403 -0.38568163 0.2002583 0.09418402 -0.40283298 -0.0025676386 -0.1855617 -0.25694886 0.14366768 0.10737502 -0.22580981 -0.17612194 -0.2988761 0.1964914 -0.5237891 -0.009684262 0.38962153 0.1099721 0.3261567 0.11963073 0.14297852 -0.02729284 -0.067211166 -0.32629272 0.08262766 -0.1323244 0.11164889 -0.24572235 0.01085519 -0.35384706 0.5351903 -0.33140045 -0.4670141 -0.18634164 -0.103266366 0.019163234 -0.09357027 -0.42468676 0.23375085 0.17277984 -0.11187051 0.1706038 -0.20141211 0.30537993 -0.16321526 0.22756584 0.1259502 -0.37514037 -0.06821428 0.13349615 0.41617736 0.2698558 -0.25041652 0.012783533 -0.012086581 0.16817814 0.12152607 0.44120926 -0.1150198 -0.41201368 -0.41763785 0.16795024 -0.3050503 0.5372904 0.06280171 -0.030452894 -0.094671175 -0.4524273 0.10963976 0.36750042 -0.24178948 -0.22723046 0.33805427 0.03930326 -0.19477023 -0.21635641 0.25912476 -0.15493496 0.094935656 0.15619527 -0.0399236 0.152275 0.011731987 0.040646616 -0.3176894 0.17903827 0.44851574 -0.1911982 0.25242606 0.020647831 -0.2424423 0.14351076 0.5153619 0.20793146 -0.40996918 0.13342823 -0.46143237 0.22116931 0.3753054 0.12418096 0.004996665 0.22676213 0.32852706 -0.2807058 -0.23108111 -0.45817146 -0.29300067 -0.33643255 -0.5606955 -0.47387272 -0.21746375 -0.29677802 0.0997102 -0.18352146 -0.35538837 -0.41511297 -0.504674 0.5683745 0.20251606 0.383531 0.194612 0.40247157 0.61519426 -0.07045713 0.39304313 0.19137754 -0.089226745 -0.12540394 0.09780489 0.6864369 -0.26990074 -0.06686686 0.15482154 -0.48777926 -0.16248648 0.12780713 -0.2526601 0.006497032 -0.34901476 0.025339313 0.35367244 -0.15181726 -0.35028473 0.41840133 -0.058826823 -0.19189098 -0.016420187 -0.30595404 -0.333472 0.16357858 0.05270843 0.28329554 -0.120193005 0.17433476 0.34280783 -0.16150348 -0.22919816 -0.17178844 -0.29088524 0.16468348 0.13226499 -0.27100563 -0.71089125 0.3177596
1547 -0.0104996925 -0.28518438 0.084262416 0.40546265 0.36047995 -0.12867588 0.13899423 -0.20388511 -0.17114514 0.079374224 -0.28099388 0.22231366 0.01151465 -0.2148395 -0.30074784 0.62394446 0.29311264 0.3967477 -0.5377744 0.5389013 -0.31445253 -0.27333614 0.16646439 -0.3552158 -0.30159202 0.13050894 0.49353728 -0.08796116 -0.45662606 -0.44681436 0.09962481 0.058079373 0.23855609 0.3501241 -0.60631204 0.8387738 0.23468465 -0.11520244 0.28806347 -0.14517893 -0.08976314 0.23148839 -0.2523893 -0.18029761 0.33323726 0.009844272 0.062707275 -0.20279916 -0.22236006 -0.27514988 -0.17289728 0.2306072 0.49099013 0.14120007 0.055600677 0.16190374 0.16616514 -0.20393798 0.52758354 0.29308122 0.2224623 0.18835755 -0.102805056 0.14166713 -0.10600272 0.4379357 0.42468092 0.17881505 0.26806614 0.2898858 0.53610885 0.122645475 0.156408 -0.17876777 0.34566545 0.18254422 -0.08374502 -0.16383457 0.38687378 0.7870208 -0.1536524 -0.13734384 -0.07047978 0.52490985 -0.07195453 0.11293125 0.3031827 -0.36302593 0.45270377 0.007008116 0.14553465 0.444918 0.16897349 -0.097565524 -0.036462497 0.19090304 -0.3901948 -0.16152759 0.13806114 0.07041208 -0.8560844 0.4168699 0.48401126 -0.2794536 0.05439285 0.39810485 0.46249825 -0.19941147 0.21216846 0.13850443 -0.06375624 0.101241805 -0.02103685 -0.18892536 0.058766004 -0.8376389 0.20681322 0.19960031 -0.14948854 0.037559073 -0.033644255 -0.64971954 0.05512165 0.09251388 -0.38963506 -0.37792468 0.23906584 0.051858127 0.29466543 -0.24050868 0.103418194 -0.24726702 -0.2621299 0.1202925 -0.27018702 0.024730217 -0.05684116 0.24379636 0.4027291 0.085534796 -0.42675778 -0.015343389 0.077875175 0.5477562 -0.1384077 -0.017874915 -0.017942462 -0.3566371 -0.022861857 0.7329481 -0.13409443 -0.596261 -0.058246527 -0.091968395 -0.2745274 0.033839475 0.07005662 -0.20963605 -0.25184366 -0.0434034 -0.010266263 -0.0916623 0.4165176 -0.01526919 0.6118754 0.1477674 -0.2743878 -0.34865478 0.20363328 0.275401 -0.20306884 -0.24884292 -0.031012317 0.15121165 -0.34230942 -0.1521744 0.06596058 -0.019109434 0.47788867 0.10088815 -0.2602149 0.05027253 0.034949128 0.5450787 0.5766472 0.19607106 -0.5189994 -0.20335859 -0.08065499 0.17941082 0.19295597 -0.014723161 0.22220317 0.008789882 0.3066326 -0.17892689 0.25572297 -0.08291286 -0.31163532 -0.4172102 -1.0234936 0.22191186 -0.014372088 0.091454804 0.036806162 0.03367176 -0.25380385 -0.29026574 -0.3697022 0.18089466 0.54340184 0.19087826 7.615575e-05 0.07678865 0.022832679 0.25886026 0.09594034 0.46872723 0.026089769 -0.45966214 0.306753 0.046801314 -0.11176559 -0.063554175 0.6636981 -0.55137086 0.21061043 -0.19480604 -0.47048923 0.18144836 -0.27551484 0.22148938 0.2507142 0.00783373 0.065379344 -0.34594485 -0.062371332 -0.6191339 -0.0021113502 0.07274172 -0.5901194 0.2186563 0.099793606 -0.15906924 0.19559826 0.15722921 0.5304882 0.21275203 0.115935184 0.14054707 -0.34906426 0.6457678 -0.12711115 -0.3504709 -0.8091751 0.1606484
1566 0.18290842 -0.46413723 -0.23628898 -0.0405554 0.23307788 0.24128866 0.08698672 0.20601222 -0.34924778 -0.17300154 -0.16463988 0.029019602 0.27288127 -0.5350132 0.35035893 0.22800362 0.29363403 0.3963581 -0.2965247 0.5023372 -0.32485718 -0.2816534 0.34221998 -0.5496331 -0.44082505 -0.16952673 0.58880496 0.033804752 -0.26677477 -0.36384282 0.13733079 -0.27642387 -0.2766685 0.38195407 -0.5239511 0.3944919 0.55613256 -0.15803692 0.5290468 0.04275366 -0.03839332 0.17438786 0.056514952 0.061790083 0.23050205 -0.10768351 0.045001417 -0.1241627 0.17281534 -0.17138441 0.09387711 0.1716179 0.3730462 0.003388473 -0.21084623 -0.019442685 0.5428496 -0.22704186 0.32516068 0.07441031 -0.18454684 -0.19716181 -0.4487708 0.24008498 0.21935247 -0.20291835 0.5384224 0.68971425 0.5199585 -0.14477478 0.29390627 0.0516813 -0.20012815 -0.22129644 0.34678474 -0.11099193 0.13168894 -0.017783599 0.25712064 0.59669805 0.1578852 0.09653447 0.16097637 0.74342716 -0.046863496 0.48107558 0.3462101 -0.56793594 0.3916542 -0.364393 0.27487728 -0.24529482 0.18845533 0.06694803 0.110317945 -0.09171946 -0.5110865 -0.060042053 0.24854709 0.05484309 -0.5267808 0.39094618 -0.1870283 -0.14371246 -0.042301897 0.20323232 0.2658295 0.13633768 -0.08200591 -0.29527348 -0.13366452 -0.10379757 -0.008915459 0.23237556 -0.08065757 -0.5513011 0.49692905 0.26466313 0.4167422 -0.17400016 -0.03768918 -0.12111745 0.31984913 -0.08830601 -0.5162378 -0.0899011 0.040250182 0.32026196 0.17329492 -0.48219854 0.38531998 -0.3354158 -0.44605988 -0.18799332 -0.19316451 0.017604727 0.08163386 -0.08937773 0.32217562 -0.2660105 -0.58543456 0.22104976 0.10393426 0.53243786 0.0404368 -0.36019152 0.15097068 0.03769005 0.026637135 0.7140656 -0.2784554 -0.2763071 0.021100922 -0.0071427627 -0.34971374 0.49559852 0.08351493 -0.1931735 -0.39730614 -0.4629689 0.11420993 -0.0035024965 0.3528786 0.3267286 0.38501427 0.30825588 -0.20762789 0.23334329 0.38800526 0.31969926 -0.3914348 -0.27036342 0.23657027 0.2842958 -0.2372029 -0.37167135 -0.1049274 0.17726943 0.10528924 0.07805948 0.024036545 -0.31687576 -0.080098346 0.16921087 0.2544429 0.1542476 -0.69266677 -0.09853277 -0.41002476 -0.08900485 0.32568514 -0.13592191 0.55953246 0.3627087 0.17984554 -0.50550115 0.38814119 -0.09438314 -0.18559343 -0.29233608 -0.83611906 -0.19339773 -0.33761287 -0.027544474 0.11270981 0.09002007 -0.43022048 0.13534532 -0.48634037 0.23588553 0.03853346 0.06766858 0.51974124 -0.4168185 -0.36761203 0.31917956 -0.054779075 0.65056604 -0.1864911 -0.3422532 0.34158865 0.15203492 0.32255107 0.099710956 0.28828427 -0.39603996 0.25472602 -0.26939934 -0.09552615 -0.14387889 -0.21285163 0.07918195 0.26058543 -0.53664637 -0.06286268 -0.14694369 0.08623389 -0.38918823 -0.31317785 -0.1471902 0.121451 0.051706307 0.15996091 0.046937373 -0.13031083 -0.26866713 -0.0019508901 -0.0054459507 -0.18865767 -0.27570567 -0.45904568 0.48784214 0.14252782 -0.13745016 -0.49084154 0.24338783
1578 0.055498037 -0.29504153 0.037200544 0.07924266 0.39186278 -0.15173873 0.44366288 0.16923167 -0.116614 -0.13381732 -0.040870536 -0.033538885 -0.20550422 -0.32297805 0.3893338 0.4983297 0.14952631 -0.17826019 -0.40363604 0.33763847 0.49231616 -0.122791424 0.06276966 -0.32690185 -0.059552267 0.29103413 -0.15426861 0.1520388 0.015482879 -0.24916472 0.44800684 0.02787382 0.14264664 0.2688247 -0.3690569 0.16495913 0.03665543 -0.22621292 0.3941919 -0.35237545 -0.5549433 0.32354817 -0.047610354 -0.18309796 0.42473355 -0.4912184 -0.1612943 -0.16456167 0.028330337 -0.0038325803 0.08108248 0.08803083 0.2575311 0.32669565 -0.28119442 -0.2719865 0.42244014 -0.35869518 -0.06548005 0.23508354 0.012396133 0.017404057 -0.08873112 0.114821345 -0.090938434 0.05496722 -0.09173175 0.20018053 -0.3180467 0.38469508 0.2700947 0.02976218 0.116710246 -0.07476459 0.19246487 -0.14822164 -0.22160023 -0.075297326 -0.12537584 0.45902643 -0.14109686 -0.34060302 0.35700336 0.576449 0.21704465 -0.3440468 0.41771254 -0.40885672 0.25327677 0.39349005 -0.038795803 -0.17477062 -0.18703665 -0.3739852 0.19600855 0.06887492 -0.41569027 -0.017604828 -0.17820667 -0.27045554 0.1512732 0.10671205 -0.22287746 -0.17120662 -0.28793117 0.18627217 -0.52984005 -0.015922878 0.3829509 0.097160146 0.33321694 0.11815237 0.1390407 -0.023952387 -0.073158294 -0.35404155 0.068385966 -0.117537275 0.10348851 -0.25010327 -0.0029755041 -0.36461052 0.52080697 -0.33997816 -0.47790676 -0.19776623 -0.114647865 0.014818353 -0.109536484 -0.4092567 0.22385404 0.15100162 -0.10206922 0.17413822 -0.19615747 0.30471718 -0.16313273 0.2418277 0.1308331 -0.368698 -0.049859647 0.16171175 0.42826754 0.24664612 -0.23338023 0.002241295 -0.012274513 0.1695742 0.12884514 0.45705104 -0.11332994 -0.4167282 -0.4311179 0.17207378 -0.28895128 0.5509411 0.07527387 -0.012453567 -0.113428384 -0.4167196 0.10676525 0.37759778 -0.22293955 -0.23141523 0.3439032 0.053190008 -0.20754999 -0.22802036 0.2695261 -0.1727162 0.10810087 0.1701728 -0.03635756 0.12607522 0.019253645 0.029857954 -0.3252133 0.18214203 0.46110666 -0.19934869 0.24587433 0.0154335275 -0.23818682 0.14348948 0.539315 0.22617233 -0.4374994 0.1497553 -0.46548653 0.24423458 0.36694995 0.11887875 0.000962885 0.20493191 0.30549452 -0.28263706 -0.25109893 -0.43126783 -0.27465248 -0.3226989 -0.5571356 -0.4711043 -0.21326384 -0.27858424 0.116362095 -0.19897796 -0.3543418 -0.44361752 -0.50799674 0.57594174 0.16701776 0.35600385 0.18920851 0.4155062 0.62852395 -0.08408754 0.38205564 0.22708356 -0.1085403 -0.13586168 0.104584455 0.66920793 -0.26883337 -0.07698675 0.1650412 -0.49006027 -0.1622613 0.13548593 -0.23710294 -0.008972712 -0.32928428 0.010475831 0.38878945 -0.15255615 -0.35588384 0.38496804 -0.0694516 -0.17893863 -0.0080413595 -0.30778003 -0.31514904 0.15832806 0.06479748 0.29865217 -0.14958932 0.18246758 0.36078614 -0.16717915 -0.21773466 -0.17896555 -0.2795488 0.16885664 0.13747907 -0.26283726 -0.7261947 0.31419712
1654 0.06314816 -0.27117386 0.044648893 0.10014582 0.37580016 -0.14069349 0.4319026 0.20644414 -0.121056624 -0.11748295 -0.044345673 -0.058346733 -0.18302421 -0.3052222 0.3831833 0.49913165 0.12734574 -0.20526375 -0.39934814 0.32785034 0.4934786 -0.105853505 0.06713066 -0.32485944 -0.06654337 0.30473325 -0.14675069 0.14993526 0.052798275 -0.23044232 0.41501552 0.018570542 0.124571785 0.25238076 -0.36381978 0.1627579 0.04477614 -0.24423721 0.38377893 -0.34417644 -0.5545917 0.30505028 -0.055635173 -0.1733154 0.4198886 -0.4705965 -0.15337284 -0.16347152 0.017580036 -0.004166995 0.06893413 0.08315741 0.22637086 0.3208861 -0.27325755 -0.28782263 0.4349626 -0.35669747 -0.05368428 0.22171074 0.022238761 0.0043033473 -0.05050262 0.11456359 -0.09695065 0.029574206 -0.08736929 0.21264818 -0.3016901 0.38108802 0.24630637 0.03161339 0.07404565 -0.08075294 0.2139279 -0.13625579 -0.20947959 -0.095066026 -0.13508047 0.43371448 -0.17144418 -0.35356316 0.37951052 0.5576194 0.21233976 -0.33244392 0.38453215 -0.38367984 0.23340565 0.38970718 -0.050725017 -0.1731228 -0.19429816 -0.37154216 0.1604464 0.06836978 -0.40391493 -0.010261917 -0.1612123 -0.23164383 0.16761453 0.07053038 -0.21204545 -0.1714203 -0.2950886 0.17075132 -0.5137658 0.00741308 0.4117515 0.09679848 0.33719552 0.09427805 0.14009297 -0.030680336 -0.08983956 -0.30853906 0.06985475 -0.113872714 0.11178722 -0.21786326 0.0013702608 -0.35039747 0.5231037 -0.32008982 -0.46049002 -0.16617388 -0.109532915 0.012142468 -0.091880925 -0.402438 0.18896405 0.17470585 -0.10052527 0.17976132 -0.17443436 0.31130224 -0.16030873 0.24080336 0.114058815 -0.36386925 -0.029450046 0.13546157 0.41700593 0.25211853 -0.2335725 -0.024721814 -0.027807897 0.18402246 0.12935191 0.44986832 -0.100481085 -0.39651418 -0.42512402 0.19684269 -0.2857289 0.51943636 0.05871479 0.0011770353 -0.092972934 -0.42937025 0.11245095 0.3480782 -0.23137192 -0.20045194 0.3377284 0.039818585 -0.17565314 -0.2139255 0.2791893 -0.14286302 0.102560274 0.18456669 -0.04511529 0.14210626 0.013370375 0.03355989 -0.29273662 0.16102113 0.43487233 -0.2083502 0.26900882 0.02303292 -0.24195191 0.11897118 0.51909155 0.20953582 -0.42616096 0.1292684 -0.45694482 0.22877175 0.34538028 0.105593644 0.013866358 0.19705258 0.26693898 -0.27926263 -0.24349533 -0.4301215 -0.2746361 -0.33503827 -0.5365983 -0.45790824 -0.18700747 -0.26419854 0.12299 -0.19818214 -0.32056117 -0.41956848 -0.49944344 0.5694102 0.17310569 0.35418805 0.18018593 0.4037666 0.6052246 -0.059123836 0.40509012 0.19821432 -0.06189848 -0.12407574 0.11699209 0.6517948 -0.2785032 -0.03099964 0.13911769 -0.48862106 -0.15301555 0.12383329 -0.22064108 -0.027265364 -0.32791683 0.007922808 0.38166583 -0.1629254 -0.37886688 0.3860878 -0.06256332 -0.16839379 -0.022088349 -0.29406762 -0.27109998 0.17535757 0.057683956 0.27821007 -0.12229205 0.16206412 0.3370427 -0.16474064 -0.20826761 -0.18865578 -0.28156912 0.17689957 0.12996641 -0.26675555 -0.6867779 0.30276433
1614 0.051127076 -0.27977452 0.028932188 0.11516721 0.3674282 -0.14849676 0.4390732 0.19876982 -0.13867831 -0.10249151 -0.048540995 -0.07405074 -0.16997819 -0.31196654 0.38806725 0.52825695 0.11233339 -0.20183282 -0.39216486 0.37313277 0.4885896 -0.11523461 0.05582749 -0.3125532 -0.09742387 0.28870118 -0.13424903 0.14238545 0.07568714 -0.19846621 0.4130399 0.043169495 0.11690374 0.22504707 -0.35652548 0.14662954 0.048327502 -0.25053728 0.39522576 -0.33950174 -0.57295924 0.3200211 -0.052529894 -0.16787396 0.43010575 -0.45766887 -0.14176823 -0.18035164 0.0038463569 -0.008308578 0.082316995 0.10444193 0.22283882 0.32055265 -0.24924532 -0.29667318 0.44277227 -0.34172314 -0.04769476 0.20926361 0.009894664 0.011541349 -0.014916722 0.12364801 -0.07658501 0.026990367 -0.060351763 0.22433876 -0.2907393 0.39295456 0.23192742 0.057999153 0.064563856 -0.082152866 0.2253782 -0.14599481 -0.22130571 -0.055997755 -0.12098154 0.45269614 -0.17333826 -0.33274537 0.38534677 0.5671971 0.23335697 -0.32725716 0.36498326 -0.38004348 0.24334759 0.36678585 -0.03646768 -0.17304213 -0.18658918 -0.37531954 0.15916495 0.069206096 -0.41120952 -0.012194559 -0.1648113 -0.2370135 0.18227561 0.06091034 -0.20132868 -0.14923443 -0.3011781 0.18400829 -0.5091956 -0.00071150094 0.40605366 0.094022825 0.33723426 0.105855845 0.133834 -0.05376193 -0.09329543 -0.32357168 0.10321679 -0.11661365 0.103626676 -0.22275671 -0.0010283692 -0.35705477 0.51836497 -0.31243947 -0.45670676 -0.16270979 -0.08977814 0.043495726 -0.07415307 -0.42929065 0.20259517 0.17728394 -0.122243464 0.14610992 -0.18616171 0.31234428 -0.166353 0.23751302 0.15151398 -0.35032508 -0.056233943 0.1337256 0.4077213 0.26783788 -0.23239936 -0.021084387 -0.050178174 0.19057779 0.12390795 0.4511085 -0.1106998 -0.3947644 -0.4248466 0.1726366 -0.28135443 0.53360057 0.056658354 0.01738576 -0.09291289 -0.4240094 0.10584148 0.34458873 -0.22982365 -0.17377459 0.34659496 0.015906222 -0.19294481 -0.21753912 0.27058876 -0.115537696 0.12998313 0.19713686 -0.04692016 0.15916294 0.012238477 0.044354808 -0.2646517 0.16893646 0.4126221 -0.19333833 0.26150602 0.027014075 -0.22528926 0.11943325 0.49817798 0.21413615 -0.41204092 0.1134377 -0.4555263 0.24025765 0.31690452 0.08634771 0.028709244 0.20858315 0.29214078 -0.27724648 -0.23294504 -0.44752797 -0.28122574 -0.3424416 -0.5470416 -0.47776487 -0.15993245 -0.266596 0.12273892 -0.18827349 -0.285012 -0.4005001 -0.4989793 0.5546507 0.21732372 0.3643292 0.19805019 0.39166698 0.58509797 -0.054495234 0.38099778 0.20249516 -0.06168181 -0.10351284 0.10899486 0.66731125 -0.2773692 -0.018082954 0.14607912 -0.4738701 -0.1362945 0.103149794 -0.23577705 -0.026837412 -0.33511376 0.031911287 0.3835957 -0.15383103 -0.36928463 0.4086655 -0.088027805 -0.13555491 -0.031953562 -0.28313094 -0.26754418 0.19782165 0.07593878 0.2713116 -0.12941517 0.15549877 0.3236197 -0.1646677 -0.19208422 -0.17290466 -0.2925788 0.17138423 0.13276008 -0.25473496 -0.68119174 0.30357563
1400 -0.20069 -0.078178994 0.105296165 0.15231396 0.7066676 -0.059444446 0.12264045 -0.13487652 0.37325412 -0.10776714 -0.09238522 0.06086479 0.43603167 -0.29643142 0.23867296 0.15457414 -0.09071093 -0.33068806 -0.4680015 0.5794686 0.41734606 0.13772796 -0.05544206 0.11261502 -0.85487187 0.15929452 0.24139361 -0.22322638 0.11644853 -0.26604658 -0.41394842 0.42394775 0.26536405 -0.26038623 0.115619026 0.43015623 0.13071425 -0.099974595 -0.27479923 0.10590741 -0.76044154 0.2076821 0.029330293 0.22853433 0.4236151 0.16397876 0.41462138 -0.41628906 -0.13870603 0.18290415 -0.33367702 0.09305477 0.26903903 0.3906487 -0.19521035 0.22550967 0.27699956 -0.03775373 0.33607033 0.12480369 0.23337805 0.05747649 -0.120104074 -0.40396374 -0.039847244 -0.11324306 -0.1964406 0.4568755 0.026137898 0.08131896 0.5878764 -0.011852359 -0.5077578 -0.5125937 0.0942144 0.47980848 -0.3151198 0.18050611 -0.2773411 0.7638487 -0.21626422 -0.40790385 0.41231862 0.48356545 0.2478549 -0.15729304 0.45377257 -0.23331761 0.38503376 -0.08287866 0.03442517 -0.3881987 0.17521715 -0.5467245 0.578703 0.23273078 -0.024742862 -0.008509093 -0.06498179 0.09617026 -0.64100814 0.44300807 0.07496682 -0.0344405 -0.073991574 0.018282231 0.3036122 0.024282333 -0.02004527 -0.058051594 0.14674594 -0.29687122 0.35122502 -0.05785451 -0.08791517 -0.08453921 0.23655571 0.31488368 0.19236842 -0.40458417 0.034226257 -0.063631654 -0.31902942 -0.34386662 -0.1532597 0.095099345 0.006244507 0.110850655 0.48543373 0.24362186 0.30916405 -0.17421965 -0.20908836 -0.31217507 -0.09952642 -0.1973883 -0.3965417 0.17443275 0.60777014 0.08212569 -0.48202482 -0.28676286 0.03662498 0.1743543 -0.45321193 -0.11168118 -0.28035477 0.16902198 0.16159837 0.28922552 -0.087785855 -0.12202752 -0.05317738 -0.34556633 -0.6730517 0.2509708 0.33701223 0.009080136 -0.13496631 -0.0991866 -0.014118077 -0.1660337 0.0115508875 0.2039012 0.11295141 -0.08746574 -0.27523342 0.18501726 0.07061496 0.3556677 -0.014844392 -0.19826253 0.17685878 0.13617168 -0.35841626 0.24203902 0.19442946 0.1581926 0.6539639 0.02694224 -0.45233056 0.15299429 0.060709372 0.5107254 0.075741686 0.3983549 -0.546474 -0.3696144 -0.027046913 0.11488418 0.16844986 -0.3213745 0.092014164 -0.09578964 0.72988003 -0.020124115 0.38829646 -0.61939293 -0.06615086 -0.17111528 -0.64542174 -0.27158126 0.20442319 -0.14369474 -0.124817826 0.03127258 0.16410998 0.13699064 -0.17282431 -0.06124481 0.47264504 0.25111768 0.44069663 -0.062844425 0.011760689 0.016299278 0.12927507 0.5327678 -0.43630937 -0.15997192 0.056176998 0.2758234 0.21052992 -0.26999974 0.24572155 -0.26601774 -0.06172562 -0.17323856 -0.3203288 -0.25687486 -0.10854383 0.2700281 -0.17261901 0.09823071 0.0400177 0.18057059 -0.29117972 0.108328775 -0.23344718 -0.13524878 -0.010734166 -0.23893468 0.033215035 -0.42327198 0.17981398 -0.31506073 0.26654398 0.30051687 -0.014318787 -0.16607454 -0.30955786 -0.15837705 -0.0061158855 -0.24251997 -0.47298375 -0.016614413
