353 128
68 -0.009118333 0.05488317 0.16586609 0.21784872 0.16560142 0.09085804 0.45094895 -0.38764974 0.11814277 -0.13885948 -0.09819961 0.06606521 -0.11833216 -0.13135634 0.21361932 -0.031460892 -0.006674784 -0.169738 -0.3182614 0.02329143 0.15635718 0.38099462 -0.13267061 -0.2565713 -0.039160557 0.26380053 -0.37173116 0.07666262 -0.19449319 -0.12761934 0.3002628 0.3493308 0.31046006 0.17248623 -0.26601732 -0.22845864 0.50600874 -0.24400896 -0.115289755 0.14687127 -0.14126234 0.33763027 -0.41451576 -0.06547106 -0.043035194 -0.20261878 -0.4171355 -0.032708865 -0.1339101 0.24979636 0.009361835 0.25818905 -0.0054034456 -0.09996616 -0.3486009 -0.10872935 0.7714201 -0.4286231 -0.4487617 0.27111486 -0.007886482 0.31850365 0.09025558 0.10245391 0.3347699 0.1588274 -0.159737 0.02633733 0.092756994 -0.35544962 0.46371958 -0.05321619 -0.08384968 -0.30288678 0.16223384 -0.08618809 -0.1979817 -0.058972176 -0.10029623 -0.17742626 0.07761604 -0.09331861 0.15835151 0.2498048 -0.065856315 0.09761814 0.10360712 -0.005077253 0.08542442 0.29956582 -0.17148495 -0.1490112 0.05676995 -0.31109002 0.30840042 -0.13670808 -0.2406661 -0.46563348 -0.08320823 -0.05817622 0.010026939 0.08189612 0.2592098 -0.06633721 -0.14240314 0.041449122 0.010749118 0.13648231 0.31305072 -0.13580686 -0.117191955 -0.47317433 -0.33911112 0.12535585 0.1399731 0.15461537 -0.04820335 0.12900503 0.08595674 0.17595747 -0.16179052 -0.3368805 -0.08794294 -0.002699844 -0.19177511 -0.1815393 -0.18539628 0.017382134
2534 -0.06080143 -0.11529229 0.21423078 -0.38294473 -0.2024123 -0.012636606 0.19268581 0.14334461 0.05012107 0.129235 0.41774768 0.4080218 0.06745858 0.1575743 -0.10743384 0.26440525 -0.16307008 0.13447815 -0.078941934 0.07195383 0.044577677 0.009239168 0.016047612 -0.7521108 -0.02223883 -0.021001993 -0.33855215 0.15130973 0.40470615 0.17549309 0.27733088 0.05871201 -0.005039506 -0.039805125 0.120609276 0.2839024 0.40783253 -0.019716986 0.17912126 -0.15563369 0.2925504 0.2514596 -0.14422864 -0.21792875 0.13167834 0.2328079 -0.061725635 -0.07996891 -0.34232056 -0.09779181 0.09735345 -0.117556 0.2709571 -0.4560506 -0.08072733 -0.18309326 -0.009698055 0.10427552 -0.009530339 -0.2917586 -0.11969555 0.043369636 0.14816518 0.2944289 0.39519086 -0.06747269 0.08971077 0.06531604 0.17812543 0.03008622 -0.10050999 -0.13844384 -0.18900114 0.17980495 0.122470856 -0.14376828 -0.19152667 0.43101072 -0.14825821 -0.1162946 -0.3533758 -0.25650477 -0.44143012 -0.2194047 0.1607502 0.7255308 -0.046804905 -0.37654898 -0.1690635 -0.16843756 0.06313293 0.27600574 -0.112577766 -0.067814685 -0.1464998 0.12202399 -0.012853183 0.0251277 0.40540808 -0.23187748 -0.007959836 0.13060448 -0.013722612 -0.083635576 -0.1469253 0.18869713 -0.0057911505 0.18013775 0.10729521 0.11947224 0.07663654 0.10991349 -0.19792475 0.13282084 0.14752375 0.081735685 -0.36590326 0.23006482 0.10017705 0.019923817 -0.41946805 -0.23624632 -0.16558473 -0.20853317 -0.43649116 -0.07512296 0.14868034 0.14184412
2600 0.16918069 -0.38533312 0.2877788 -0.460919 -0.07401414 0.12766951 0.34371668 -0.041541334 -0.15945843 0.2805158 0.372397 0.37599817 0.053936582 0.17296971 -0.19414613 0.25402188 -0.23339903 0.23408145 -0.1899546 -0.04459089 0.35006553 -0.2045362 -0.09394912 -0.6931192 0.12922476 0.09882828 -0.22363365 0.09385567 0.32165292 -0.14760791 -0.119117804 -0.14153758 0.130614 -0.031826366 9.7276294e-05 0.59407914 0.45854023 -0.120469876 0.00957464 -0.20816137 0.20507826 -0.07146011 -0.1221262 -0.32511407 0.14521965 0.15288436 -0.09091724 -0.18401434 0.040529173 -0.24867377 0.14257939 -0.06738205 0.011087042 -0.47766376 -0.030198826 0.11768677 0.039669037 -0.13815385 0.16469224 -0.082868874 0.07493208 -0.078449994 0.19210033 0.3650455 0.1337046 -0.26866907 0.24623412 -0.021908017 -0.12479223 0.1411524 0.058255903 0.1382438 -0.3773469 0.4054651 -0.10938853 -0.23595777 0.106312335 0.3025832 -0.10580213 -0.08822475 -0.19540681 -0.31253162 -0.4125344 -0.07563032 -0.024440277 0.543997 -0.32955125 -0.41113186 0.0032305352 -0.16697036 -0.056401026 0.10033259 0.051432077 -0.36179924 -0.009281544 0.2078566 0.0040552355 -0.285212 -0.050150815 -0.16382863 0.20746478 0.20244415 -0.08039196 -0.12277127 0.22793356 0.25543323 -0.07499905 0.09174754 0.03386821 -0.14779459 -0.0066526774 -0.0074088345 -0.24943022 0.10947924 0.10326151 0.21634266 -0.7065868 0.3198447 -0.16183166 0.0770852 -0.20695205 -0.20254335 -0.1988079 -0.23481637 0.044430364 0.080442205 0.0008134449 0.039126497
10 0.17290787 0.12390307 0.18307097 0.2149915 0.06881316 -0.24013452 0.20479658 -0.2624212 -0.10243815 -0.06295508 0.17633724 0.26193815 0.040321223 -0.17288746 0.20452371 -0.20087586 -0.11221365 -0.3382469 -0.15896091 -0.13442886 0.08667201 0.4021276 -0.4214303 -0.0838177 -0.07871429 0.2288753 -0.32542384 0.12256342 -0.04371713 0.013610642 0.23659188 0.09233375 0.27723062 0.16484228 -0.119656965 -0.23192875 0.17192873 -0.12770854 0.039828572 0.04703964 -0.16180786 0.14802174 -0.21887529 0.006939659 0.001839497 -0.20419125 -0.17255914 -0.23863019 0.0706587 -0.024763199 0.41594625 0.011601292 -0.1409021 -0.10448649 -0.08689665 0.00444905 0.6862051 -0.41125426 -0.61553544 0.42308992 -0.09845504 0.45661893 0.09588256 -0.0108534675 0.175253 -0.07310596 -0.12461414 0.062296882 0.19264157 -0.41782263 0.30722842 -0.25525022 -0.45239738 -0.61497265 0.008902695 -0.15459864 -0.0036308893 -0.2410362 -0.0832121 -0.33687803 -0.20989707 -0.054020558 0.41667342 0.48135242 0.028939191 0.3398284 -0.3768322 -0.4078613 -0.1734318 0.017856859 -0.4562761 -0.22274767 0.16898218 -0.3683048 0.5182557 -0.2020496 -0.11407461 -0.41788045 -0.013666397 0.0738486 -0.24365187 -0.10339154 0.5307421 0.07198308 -0.51845783 -0.09229209 -0.017374355 0.34728137 0.29698732 -0.29894444 0.0497378 -0.44455323 -0.35169744 0.124696806 0.0039290083 0.03813674 -0.06821229 0.5148382 -0.12548518 0.020371744 -0.16844605 -0.3791925 -0.082130976 -0.1326352 -0.4276379 -0.50597435 -0.3103074 -0.14606506
19 -0.177719 -0.09283471 -0.23824643 -0.099864915 -0.07126988 0.22762044 0.11318038 -0.12224024 0.15136015 -0.09425368 0.2614306 0.14260703 -0.23572995 -0.1152123 0.05155025 -0.07544254 -0.049104042 -0.05485427 -0.07850392 -0.29435393 -0.18061271 0.06373656 -0.11223843 -0.1768738 -0.055279583 0.3578654 -0.38260102 -0.020070877 0.23998672 0.031111626 0.009377904 0.24503522 0.021030538 0.030407533 -0.017789235 0.28654823 0.32508415 -0.22035483 -0.084037125 0.07242458 -0.005094602 0.39547452 -0.32511732 -0.17920859 0.35442328 -0.3269891 -0.37586847 -0.22943722 -0.040658947 0.03527354 0.0026342152 -0.11634454 0.19953284 -0.036577947 -0.093897656 0.041168217 0.5288343 -0.24079296 -0.2261872 -0.02061721 0.06370606 0.1911257 0.06785195 0.09394556 0.28296757 0.22252984 0.1460918 0.012631496 0.18365252 -0.37980786 0.39941075 -0.22651337 -0.15527572 -0.27650118 -0.14194027 0.08115364 0.059484314 0.07230676 -0.016193446 0.16949745 -0.1582163 -0.45675772 0.17996627 0.44558856 -0.0076929834 0.07954277 -0.047942694 0.0115180295 0.13650806 0.22044796 -0.21955176 -0.032513894 -0.23534642 -0.17343105 0.08923079 -0.19527614 -0.31950787 -0.5400594 0.05500748 -0.12887388 -0.25161177 0.28856936 -0.12647669 0.21332797 0.13035406 -0.23674574 -0.061753068 -0.06913157 0.3050076 -0.14158945 0.12701423 -0.44321823 -0.2402513 0.16153403 0.307464 0.0942758 -0.1482663 -0.028986782 -0.1042911 0.36152583 -0.40046033 -0.31434298 -0.21538703 -0.0696123 -0.14201818 -0.3002393 -0.2580608 -0.11913553
2450 0.08393394 -0.18014294 0.47228548 -0.15078981 0.037059456 0.115657896 0.04967457 -0.0704828 -0.08571622 0.10297518 -0.1368504 -0.01414846 0.2660324 -0.029223502 -0.234747 0.089384116 -0.36398286 0.23604022 -0.10773278 -0.15668543 0.11051874 -0.10500183 0.009681205 -0.7316989 0.13212559 0.31921166 -0.509579 0.2060322 0.12814571 -0.3906223 -0.11431795 -0.053988438 -0.05558128 -0.019064456 0.382923 0.20400818 0.37990707 -0.1772386 -0.32319137 -0.15968266 0.08298439 -0.5164052 -0.026700085 -0.054634433 0.19910046 -0.007001004 -0.029446691 -0.38492396 -0.05964071 -0.12447591 -0.281881 0.1671588 0.040834907 -0.57908 -0.02164607 -0.36506283 -0.03431324 0.060919695 0.03210118 -0.19702303 -0.24364682 0.032870084 0.49747384 0.53406644 -0.01028826 -0.093367994 0.3174736 -0.2769913 -0.2569406 -0.07139994 -0.5018783 -0.062360607 -0.7599251 0.22114383 -0.12105646 -0.45939803 0.16686395 0.07713244 -0.4527332 -0.2744264 -0.24399976 -0.14659801 -0.15503602 -0.38260683 0.15423639 0.40389055 -0.24509759 -0.43043706 0.4162962 -0.2052331 -0.12794195 -0.07485163 0.33133745 -0.3447666 -0.13768226 -0.08498745 -0.2637116 -0.2050833 -0.28967384 -0.059743714 0.2823997 -0.067856535 0.09209286 -0.13879724 0.39484048 0.14430225 -0.50374746 0.10410454 0.09786839 -0.23428898 -0.11960428 0.0039697085 0.11306879 -0.0641813 -0.23599271 0.2801842 -0.3279916 0.402272 -0.39491937 -0.17500885 -0.37928626 -0.3726294 -0.44455415 -0.2763108 -0.29014155 0.07582147 0.14609088 0.089780696
1622 0.022157853 0.11765826 -0.13168147 0.4631124 -0.049737208 0.068963066 0.45057017 -0.4345385 0.1715053 -0.41012958 0.07829068 0.050709672 0.048860975 -0.27534023 0.022687731 0.12915897 0.015959688 -0.41122392 -0.22450316 -0.05040615 -0.20446621 0.45140672 0.016788622 -0.50486404 -0.11024966 0.48071665 -0.5317356 -0.21468619 -0.31772912 -0.14536433 0.2198834 0.22016461 -0.010755319 0.21550708 -0.14121541 0.38784543 0.5396101 -0.007704089 -0.028724043 0.22562118 -0.099960625 0.0829344 -0.08680199 -0.37109044 0.17749867 -0.26509556 0.03872266 0.07427409 -0.18631414 0.081063315 -0.09530465 0.24413396 -0.027187305 0.16845885 -0.020255994 -0.35268492 0.6798926 -0.33956236 -0.6602417 -0.28049734 -0.14228036 0.0034614848 0.15374632 -0.065479845 0.7147492 0.26395068 -0.14102319 -0.07870136 -0.118069425 -0.6437589 0.39995226 -0.3556388 -0.3143007 -0.22310343 0.20946012 0.1150359 0.024453433 -0.19985458 0.061107162 -0.37711927 -0.31490386 -0.12570453 -0.03555407 0.31722125 -0.055442367 0.4220793 0.068548 0.10096327 0.21534675 0.04652367 -0.05551804 -0.40818068 -0.23696686 -0.26039052 0.37010098 0.0872014 -0.41992813 -0.62578773 -0.00034684612 0.025253 -0.4063086 -0.04606665 0.16738759 -0.11657379 0.04806973 -0.029341904 -0.0022426299 -0.1630399 0.35082558 -0.047209404 -0.14958529 -0.40571514 -0.26388007 0.18678653 0.45990393 0.18038316 -0.008238537 0.2029105 -0.075105466 0.0032254208 -0.35878095 -0.25086328 -0.22660883 -0.024209535 -0.18951827 -0.16269779 -0.05050421 0.29450744
2535 0.20703809 0.12336749 0.3734409 -0.13549826 0.052889332 -0.051916905 0.059887774 0.29279748 -0.2703859 -0.18642625 0.08937468 0.0752616 0.23319797 -0.056118436 -0.17244674 0.54641515 -0.6198293 0.59829116 -0.19433916 0.10443265 0.055283945 -0.32299507 0.21916719 -0.6385822 0.2764725 0.22369751 -0.6953137 0.056527782 -0.008149441 0.19929664 0.44278792 0.27030188 -0.15238386 -0.10936424 0.26414707 -0.008633839 0.17612149 0.00833684 -0.06906289 0.05952312 0.058523465 -0.26822034 -0.011732319 -0.19333184 0.48345128 0.10195858 -0.35795286 -0.3082 -0.27227557 0.3348493 -0.097178645 0.05236042 0.5523613 -0.5330012 -0.12340114 -0.26188284 0.50224674 0.30676708 0.01991699 -0.2386915 -0.5118141 0.1582476 0.12771203 0.56204796 0.02800885 -0.04586548 0.3352918 -0.11396577 -0.26025197 -0.21699548 -0.2608071 -0.26383257 -0.5154564 -0.08185475 0.15114452 -0.47438055 0.1831101 0.042558573 -0.21383026 -0.42442963 -0.0779201 -0.4520684 0.19264127 -0.17995353 0.1923026 0.43122414 -0.23305853 -0.15701643 0.064588726 -0.56650484 -0.0016717644 -0.07141686 -0.027711906 -0.40818498 -0.18592657 -0.29239643 -0.40462357 0.11803223 0.18922141 -0.34670404 0.04632367 -0.031402968 -0.017637437 0.23251934 0.15147047 0.28781348 -0.01387784 -0.019983169 -0.0981593 -0.03795303 -0.039386407 -0.027141856 -0.1256095 0.11481634 0.16596988 -0.09519415 -0.1826083 0.40032434 0.14375995 0.13021176 -0.26857668 -0.36248487 -0.053122114 -0.4330924 -0.29307058 -0.04239588 0.07320392 0.076705776
2573 0.09413503 -0.10622778 0.16153017 -0.29738787 0.16671804 0.3271118 -0.1071718 -0.034028213 -0.02013697 0.17730892 0.2581591 -0.039138112 -0.009077877 -0.050825175 -0.16591895 0.33974457 -0.464998 0.5897287 -0.14644821 -0.09203434 -0.25651017 -0.26653925 -0.07858627 -0.34648517 0.06710751 0.09351013 -0.49130452 0.09023167 0.09558 0.2050935 0.3402311 0.07793269 0.13350244 0.13851205 0.14686595 0.49900952 0.6130545 -0.16387656 0.07938864 0.037077446 -0.030316457 0.061029427 -0.02749776 -0.5544007 0.3814975 -0.14142859 -0.34555632 0.035667956 -0.40627238 0.13352166 0.28803468 0.044055846 0.4679901 -0.2976448 0.03333404 0.23598897 0.82912445 0.20058209 0.10754105 -0.056364447 -0.57264143 0.14302182 0.18376982 0.40307105 0.30632043 -0.22958654 0.5714767 -0.08236857 -0.26903114 -0.27065042 -0.059500575 -0.11514167 -0.063305125 -0.10615525 -0.21685952 -0.59647703 0.33990678 0.39690736 -0.17081293 -0.039321635 0.00016949241 -0.4913501 0.057797693 0.21043889 0.09374409 0.38898793 0.03274747 -0.2887819 -0.1294263 -0.34985894 0.012843847 -0.09929863 -0.0712263 -0.35977498 -0.0077346857 -0.53108954 -0.4840864 -0.29583654 -0.018391415 -0.3130058 0.16846608 0.07223755 -0.38435507 0.24599488 0.3926799 0.2710331 -0.055445224 0.10370849 -0.14203669 -0.32059374 0.1458561 -0.20214629 -0.2946168 0.1414853 0.19111733 -0.18658002 -0.489651 0.23864691 0.18851015 0.3767334 -0.32689708 -0.37376413 -0.041362576 -0.37734434 0.09209364 0.15246591 0.04274009 -0.095362216
530 -0.00092140737 -0.36679828 -0.38075247 -0.4444984 0.14616401 0.21743903 0.005291657 0.0006356492 0.3369164 0.012459952 0.42987537 0.1570355 -0.24100049 0.23407675 0.14350985 0.3658882 -0.22823273 0.09920651 -0.21976936 -0.31047913 -0.023960719 0.071761884 -0.22917415 -0.35741252 -0.01868569 0.6550745 -0.50037944 -0.093199074 0.2844845 0.2117095 -0.08305792 0.18594833 0.11054003 0.09585152 0.010385981 0.3600836 0.52671534 -0.06124759 0.21981694 -0.14620459 -0.14352313 0.5567342 -0.016088644 -0.16311634 0.16828233 -0.2312285 -0.53086835 -0.11501856 -0.2085752 -0.008365188 0.17577854 -0.25194257 0.090458505 -0.12562898 -0.13901801 -0.0072748424 0.64424294 0.121079825 -0.30402738 -0.082224645 -0.35763496 0.07219452 0.1251772 0.017827868 0.34942392 0.28936192 0.06530085 -0.029110003 0.22075662 -0.4815171 0.24381986 -0.04474909 0.1052972 -0.03752011 -0.23580597 -0.0341863 0.12998271 0.120386526 -0.2094848 0.2516343 -0.18083435 -0.1976576 0.0946502 0.13589936 -0.12808578 0.26693216 -0.03782502 -0.02874199 -0.12919027 0.10721736 -0.4470041 0.08607697 -0.017183626 -0.24907689 0.30605122 -0.24847941 -0.15113302 -0.3306926 0.16554543 -0.26470238 -0.29762274 0.2852763 0.12302657 0.42358044 -0.076281905 -0.08665197 -0.14109978 0.037553977 0.0624416 -0.17955315 0.31556496 -0.4147559 -0.30061525 0.24461332 0.2894368 -0.11489 -0.31918204 -0.1783531 0.16228688 0.23378895 -0.34229878 -0.3981689 -0.22352898 -0.10724224 0.1604073 -0.14390273 -0.18295069 -0.056433097
2461 -0.18280187 0.059387308 0.29776704 0.026186388 -0.2635222 -0.091067284 0.34086806 0.25599688 -0.32415122 0.20959175 0.36717632 0.19111976 0.3843686 0.08857361 0.2625195 0.27475122 -0.29257235 0.265027 -0.06894811 0.2710372 0.25810564 -0.06194961 -0.09973836 -0.9799347 -0.38896546 0.1771093 -0.55684566 0.48068604 0.05200753 -0.1330935 -0.13409267 -0.096556276 -0.24108371 -0.010813283 0.30995372 0.30611572 0.11101789 -0.1293882 -0.18052998 -0.23240152 0.18945315 -0.10945973 0.032351106 0.07099314 0.05505005 0.21569426 0.10789635 -0.49417582 -0.21005723 -0.08017338 0.071294956 0.18711406 0.2738558 -0.9295528 0.15870196 -0.6522875 -0.3301605 0.24167188 -0.25929326 -0.35648587 -0.13138449 0.19584692 0.424532 0.29736242 0.04780305 -0.028235074 -0.12295675 -0.1574055 0.34305212 -0.31817713 -0.181412 -0.19577314 -0.5667007 -0.033926643 0.09422088 -0.47620344 0.11624632 0.20350462 -0.47901496 -0.026937237 -0.34396374 0.27431387 -0.1403831 -0.23267624 0.036616486 0.18135476 0.064072 -0.49189034 0.37346724 -0.41585308 -0.05262664 -0.21984318 0.2925627 -0.0060442453 0.11798158 0.21342567 -0.2644112 -0.32653952 0.08829172 -0.3952499 -0.27647206 -0.2909059 0.1419616 -0.09756761 -0.19528987 0.5391622 -0.49977452 0.36678702 0.33855286 -0.0021838907 -0.23141262 0.054259166 -0.0049551763 0.17407726 -0.3087181 0.21574476 -0.02583346 0.2350645 -0.12228008 -0.06923493 -0.43737373 -0.28370705 -0.55545276 -0.16646127 -0.36243463 -0.506448 -0.035595562 0.17065367
2077 0.114675835 -0.26594484 -0.1543857 -0.42539722 0.0049829544 0.22192526 0.017229756 0.07350261 0.16466005 0.16067739 0.43141055 0.042238925 -0.08053035 0.10961886 -0.06818453 0.22676589 -0.2555622 0.25170925 -0.120752655 -0.16821557 -0.013375258 -0.14148101 -0.13146374 -0.29325852 -0.05317402 0.19592336 -0.3897145 -0.11792207 0.3085881 0.10122212 0.06705536 -0.009168736 0.18473783 0.017317742 -0.010162317 0.44735724 0.52559316 -0.10776695 0.19548205 -0.08367038 0.07755782 0.1660624 0.010636022 -0.26370174 0.26112613 -0.15277715 -0.3069294 -0.08767252 -0.041136734 0.01768554 0.118597314 -0.17337343 0.22161898 -0.1256882 0.06311092 0.079859644 0.35297394 -0.019722372 -0.019587427 -0.10366682 -0.27691197 0.08946214 0.1089278 0.24565588 0.41912907 -0.14248714 0.13685139 -0.076834045 0.104072094 -0.32030022 0.13465282 -0.027332991 -0.014298897 0.041510742 -0.18327077 -0.1630075 0.20939967 0.21766414 -0.061823666 0.2426893 -0.14495976 -0.2751621 -0.066284485 0.10522027 0.02537759 0.2561486 -0.050292034 -0.13946283 0.0025811628 -0.11160525 -0.13666366 0.13553466 -0.21187957 -0.10111162 0.08758709 -0.10786542 -0.056628577 -0.2788283 -0.019034725 -0.13498412 0.0404308 0.14496644 -0.17489897 0.16226487 0.15701802 0.049453758 0.03474938 -0.009487559 -0.034997758 -0.044984568 0.12445904 -0.11639029 -0.17662129 0.20866819 0.09641629 -0.00017129577 -0.30996725 0.017560897 0.07232879 0.23139435 -0.22689813 -0.14197361 -0.16034071 -0.18476596 0.11535745 -0.051148787 -0.032511838 -0.11274988
2145 0.16122834 0.22006218 -0.20914862 0.5041507 0.51298344 0.041134875 0.35432616 -0.12789105 -0.12637988 0.48593366 -0.115132965 -0.148386 -0.10860631 -0.29311025 0.05581423 -0.03456223 0.007057984 -0.20886636 -0.44539973 0.25437286 0.1458878 -0.029601254 0.13030687 -0.18808392 -0.099914566 0.2451476 -0.63874567 -0.16667359 0.05308107 -0.16080652 0.4554158 0.5354884 0.16843688 0.30793622 -0.4735938 -0.022964615 0.6478164 -0.29113194 -0.049050793 0.28098333 -0.22083049 0.22128074 -0.33288854 -0.08560166 -0.10833808 -0.2679077 -0.29876873 0.009761406 -0.25550506 0.29019776 -0.06007589 0.09236004 0.3632654 0.08303148 -0.054209847 -0.01453627 0.19631518 -0.56359017 -0.50809944 0.2638746 0.06946704 0.08737505 0.22924319 0.25185683 0.4776319 -0.03450531 -0.008131286 -0.06804476 -0.037477653 -0.17934164 0.21703261 0.20494834 -0.13318865 -0.051887598 0.06322229 -0.3658651 -0.230602 -0.09193146 -0.2716357 0.038457483 -0.5117337 0.088614896 -0.049993757 0.32995 0.20397574 0.055484053 -0.11313622 0.34637183 0.37584868 -0.08731158 -0.18763733 -0.26855397 0.065776475 -0.38824564 0.5022543 -0.17739226 -0.22354068 -0.7517426 -0.122708306 0.19717441 -0.31912425 0.03289697 0.0031171595 -0.121530205 -0.24910748 -0.11852302 -0.36260638 0.24792907 0.74122226 -0.16490702 0.044271518 -0.6727172 -0.5235273 0.25299355 0.059662454 0.26483846 0.10279486 0.5197199 0.15966833 0.20899084 -0.24047786 -0.41520232 -0.28308746 -0.1500081 -0.38491753 -0.22405565 -0.22052851 0.11350409
2070 -0.03343602 0.078707315 -0.35931394 0.27566364 0.31405026 0.2648894 0.30369523 -0.35909498 0.12009688 -0.033586778 -0.06418749 -0.0034763997 -0.042872854 -0.20523305 0.068396874 0.019569514 -0.061149005 -0.2255318 -0.4164362 -0.13955717 -0.14084104 0.26765034 -0.07807934 -0.30228147 0.0074591534 0.38271442 -0.5176966 -0.11179939 0.09327353 -0.050631735 0.17003079 0.54346526 0.090598896 0.2119333 -0.3258242 0.2904633 0.4453201 0.02469994 -0.15663178 0.12534422 -0.13489985 0.20576024 -0.20741194 -0.025733212 -0.10875558 -0.32776532 -0.25185147 -0.13970123 -0.14797035 -0.00454245 -0.17103489 0.04575734 0.1798435 0.053439323 -0.021449288 -0.0038547043 0.4379093 -0.26286858 -0.55375725 -0.12095108 -0.04501764 0.039067797 0.19473375 -0.048377417 0.55064666 0.1781265 -0.0077001536 -0.018522868 0.0054177726 -0.48993275 0.44975013 -0.019305239 -0.20628402 -0.06431828 -0.010339447 -0.038414326 -0.07576182 -0.23909432 -0.08556763 0.042608455 -0.36714688 -0.17129043 -0.04962841 0.18554088 0.01831565 0.12562802 -0.047167826 0.2437095 0.25600156 0.10325532 -0.035685327 -0.21501286 0.038508207 -0.23278256 0.40909916 -0.15446824 -0.13346718 -0.61062837 -0.06330845 0.039581124 -0.27691334 0.15294136 0.066325866 -0.040142685 -0.103876494 -0.18095602 -0.27090636 -0.03545246 0.48146597 0.01818914 0.22975314 -0.38087735 -0.15592532 0.14534469 0.3566676 0.27227825 -0.2251766 0.23902258 0.14503482 0.18489923 -0.22045785 -0.29342088 -0.16403438 0.011699288 -0.035000045 -0.089685455 -0.15029839 0.19144629
2695 0.064957485 -0.080075204 0.45311385 -0.16316833 0.22619407 -0.23808365 0.0690579 0.022699742 -0.026009925 0.057096645 0.17128018 -0.11053838 -0.00036425368 -0.08778288 0.31901395 0.14953522 -0.36160254 0.22745536 -0.20662786 0.18776725 0.29582256 0.21727036 -0.056837004 -0.6485868 -0.32828644 -0.13256882 -0.023360355 0.25459734 0.14930534 -0.07827692 -0.23165806 -0.2263301 -0.2861752 -0.13712497 -0.1858148 0.74023426 0.32236665 0.043254197 0.05960972 -0.13108069 0.33320105 0.25100148 -0.18618795 -0.03346145 -0.04272104 0.29176158 0.31349483 -0.39512128 -0.4872832 -0.38051963 0.6244176 0.19434106 0.11447567 -0.76284504 -0.42818007 -0.11399177 0.07492198 0.05108425 -0.094696574 -0.20137852 -0.11601109 0.007049169 0.1709647 0.4617583 0.39868096 0.048101455 0.23198473 -0.20452961 0.14231645 0.028828004 0.0322808 -0.05528746 -0.5890632 -0.034274314 0.3551699 -0.37649524 -0.20405494 0.32100287 -0.21061766 -0.29226515 -0.25730395 -0.12539926 -0.03995889 -0.20947741 0.07776542 0.4037419 -0.21223116 -0.49666727 -0.005930252 -0.54668456 -0.11767204 0.275036 0.11023084 -0.22086038 0.23921444 0.5129685 -0.34556094 -0.39998356 0.25854704 -0.60794747 -0.054480415 0.015055941 -0.1463987 -0.13365713 -0.03236988 0.3949696 -0.3419747 0.2501617 0.05189141 -0.08914935 0.08106707 0.15364881 -0.20123397 0.21402341 0.25114 -0.2629543 -0.25756815 0.26266786 0.20644711 0.19811095 -0.31187174 -0.013236743 -0.6981975 -0.132741 0.04294228 -0.094453625 0.05406119 0.35218388
60 0.014063204 -0.21662936 -0.20205487 -0.07459084 0.11635216 0.14345671 0.1223259 -0.32004786 0.30463743 0.011915617 0.26079246 0.092842236 -0.16092138 -0.058097154 0.06984546 0.07723334 -0.15481429 -0.096376695 -0.24826877 -0.29087007 -0.029273625 0.2648545 -0.5124641 -0.14778966 -0.14623536 0.49271673 -0.5861935 -0.1262981 0.22059734 0.14220503 0.05649336 0.27979764 0.29742265 0.17068394 -0.13696715 0.073046006 0.4627072 -0.23361339 0.07324992 0.036357034 -0.29306558 0.39151275 -0.1456761 -0.058485076 0.0055680447 -0.1770372 -0.5053969 -0.12662561 -0.14841159 -0.14778511 0.21321477 -0.17962272 -0.020287642 -0.069104694 -0.13358621 0.24205935 0.5905373 -0.092203274 -0.31911165 0.05713861 -0.016624346 0.23547934 0.044345606 -0.06993304 0.34032115 0.21798499 -0.13229267 0.03424136 0.15186368 -0.4633596 0.27110985 -0.103571594 -0.03335283 -0.17131758 -0.0825814 -0.029767934 -0.061631456 -0.06156373 -0.00044825912 0.08244656 -0.049065482 -0.13788128 0.30156344 0.34741515 -0.10702152 0.25399265 -0.17468621 -0.061664283 -0.09890204 0.22727822 -0.44281414 -0.12810625 0.009752514 -0.22479141 0.3204983 -0.18152736 -0.10521167 -0.35521647 -0.026040705 -0.06867881 -0.25714412 0.22113504 0.25795168 0.2555846 -0.25625113 -0.07657512 -0.017901367 0.1773786 0.16079864 -0.21579443 0.23956093 -0.4680515 -0.27454883 0.1738567 0.1706874 -0.0047896653 -0.22867016 0.16964369 0.0051068715 0.03692154 -0.21512131 -0.4262617 -0.19299236 0.16014881 -0.061422165 -0.20289198 -0.24208911 -0.093598984
2469 -0.109210484 0.0713164 0.4913861 -0.004515313 0.17133157 -0.24281198 0.14668289 0.10487293 -0.15419778 0.15146737 0.15910676 -0.19557305 0.10695518 -0.14132613 0.51579314 0.13291799 -0.3566559 0.1840112 -0.18902123 0.32443693 0.3349323 0.19633561 -0.123695135 -0.7735329 -0.5512643 -0.03856857 -0.19003268 0.421997 0.0818688 -0.17859982 -0.30720142 -0.28119966 -0.35943353 -0.0784857 -0.104015715 0.6489439 0.29039598 0.03399883 0.008195613 -0.19899279 0.2505241 0.20511788 -0.1610163 0.023794986 -0.15030025 0.28711975 0.3406818 -0.48237422 -0.43267778 -0.34787753 0.63947344 0.33075172 0.13591273 -0.8686492 -0.24721098 -0.27594802 -0.08200289 0.0011098839 -0.28661272 -0.2013022 -0.09697964 0.104856946 0.31196743 0.36863598 0.4123872 0.056923296 0.052726258 -0.23385839 0.31076434 -0.12898083 -0.042707823 -0.15257394 -0.6724842 -0.11224606 0.27682418 -0.53644925 -0.1873221 0.33417043 -0.30017492 -0.12839419 -0.28848925 0.24611647 0.04996271 -0.20419014 0.018349348 0.20527282 -0.0023462172 -0.52924263 0.20431186 -0.56965667 -0.11071646 0.0749425 0.13918912 -0.108428344 0.29896137 0.4266233 -0.40069178 -0.56395614 0.114790514 -0.6541632 -0.17667021 -0.05980808 -0.07921161 -0.14594008 -0.13897704 0.5637009 -0.4525824 0.3370129 0.3086539 -0.08260586 0.011634057 0.0825419 -0.22591081 0.24240851 0.03809111 -0.11468305 -0.09210274 0.27246302 0.1742563 0.19123508 -0.44275498 -0.055046413 -0.794031 -0.02616023 -0.07556473 -0.36850318 -0.07222117 0.34709218
1510 0.12283241 -0.084967464 0.27579394 0.38982195 0.3501992 0.17181556 0.12114272 -0.5309259 0.016801232 -0.1001911 -0.3327985 0.03150371 -0.18325263 -0.44317245 0.28683338 0.05860215 -0.32602832 -0.09103894 -0.20027271 0.34030676 -0.06639256 0.5448833 -0.25320438 -0.2196828 -0.052464183 0.25106746 -0.40908203 0.16089237 -0.12053425 0.034266017 0.0813712 0.4443543 0.104733184 0.21250954 -0.4167279 -0.28264663 0.36068314 -0.038550455 -0.08342332 0.34737757 -0.21439551 -0.03501355 -0.48474056 -0.029594287 0.095127776 0.06302639 -0.13231131 -0.21787527 -0.30738658 0.47108504 -0.001914459 0.2818425 0.09565829 -0.33259046 -0.4488561 0.09308207 0.58417654 -0.46823227 -0.22808199 7.4521224e-05 0.24600214 0.16569726 0.10781915 0.0249451 0.20364545 -0.22301729 -0.2702398 0.27558267 0.005612603 -0.4002282 0.3099282 -0.27389926 -0.41232672 -0.3324726 -0.027529014 -0.047224432 -0.5578374 -0.040666148 -0.15128767 -0.1831221 -0.10296258 -0.09831646 0.15302429 0.2741854 -0.062883735 0.22020805 0.034740876 -0.010866505 0.32303032 -0.010544382 -0.40935466 -0.2534608 -0.2123547 -0.39754242 0.25001892 -0.26297978 -0.020590706 -0.5515022 -0.13716069 -0.26964393 0.09184035 -0.03719328 0.25488952 -0.14580518 -0.31245527 0.25909838 0.11042185 -0.028156692 0.47109497 -0.12822679 -0.040555436 -0.35320267 -0.20699488 0.030932823 0.16868338 0.02239348 -0.36958534 0.23541877 -0.03558584 0.29801452 -0.21769011 -0.41657874 0.028255858 0.33817115 -0.5045518 -0.31579223 -0.06319773 0.0038722502
1832 0.07873598 0.08022595 0.14421178 0.42629838 0.1899604 -0.066432744 0.30261832 -0.45397767 -0.119872116 -0.117479526 0.07697947 0.21362883 0.14403047 -0.47934434 0.18449993 -0.19228865 0.08433076 -0.35556293 -0.053740185 -0.024561914 -0.17649636 0.38064378 -0.2510075 -0.2551373 -0.066358894 0.38932067 -0.19627582 -0.233056 -0.2614686 -0.35290527 0.20990093 0.08446539 0.28623495 0.31638086 -0.32039186 0.21567912 0.5178954 0.0930054 0.0038258138 0.060033277 -0.01829489 -0.15955728 -0.24291703 -0.07563129 0.09617368 -0.124024905 -0.012961841 0.10945365 0.0425045 0.302662 0.19485193 0.30624446 0.01655677 0.33240265 -0.1331662 -0.21404178 0.327077 -0.51300097 -0.468736 0.1945529 -0.15134917 0.04387071 0.17164016 -0.14299653 0.3481626 0.041468706 -0.066309094 -0.069836475 -0.06405923 -0.45637116 0.4266875 -0.27582666 -0.23919745 -0.34729564 0.017616456 0.15199284 -0.13613413 -0.1754892 -0.036847305 -0.29473284 -0.39910808 0.0030625348 -0.078267984 0.5492284 0.029981965 0.28899622 -0.09375836 -0.123621345 0.102821164 -0.19702485 -0.44272497 -0.23785667 0.11138767 -0.38402408 0.53018093 0.14122099 -0.34188005 -0.6401649 -0.1031485 -0.06218339 -0.28750718 -0.1212414 0.57944596 0.008292386 -0.38313165 -0.0721595 0.045648992 0.16064996 0.43251687 -0.0839676 -0.05623499 -0.4228239 -0.31174985 0.21259414 -0.08366154 0.013312972 -0.22126608 0.42681414 -0.21726444 0.0036978615 -0.39982373 -0.45538318 -0.060553104 -0.20151128 -0.40159488 -0.45629483 -0.058201253 0.23751327
11 -0.087275 0.094574004 0.06713997 -0.024530927 0.15266259 -0.08872843 0.24697195 -0.21488544 -0.020780345 -0.13156965 0.19312865 0.29091045 -0.19246228 -0.18647593 0.28744745 -0.06815376 0.036594786 -0.28687224 -0.01019186 -0.112163864 -0.12849285 0.18791607 -0.15651336 -0.06713979 0.062380943 0.4069188 -0.32003152 -0.028101472 0.049486842 -0.11400852 0.36444643 0.33798298 0.08242798 0.043032177 -0.26389584 0.12979102 0.2819983 -0.2174108 -0.13407472 0.025769478 -0.19362967 0.38442168 -0.47399798 -0.17759073 0.30864772 -0.20214023 -0.13793594 -0.24236865 -0.0060238643 0.16241634 0.097209044 -0.045752384 0.027671225 -0.077565946 -0.21059997 0.08039984 0.50816166 -0.14106509 -0.30794537 0.09105968 0.10307739 0.30645102 0.012888022 -0.048465844 0.23598775 0.014459549 0.009197282 0.1693016 0.2901918 -0.19774345 0.3520214 -0.14579691 -0.17855632 -0.38741648 -0.22220442 0.049217813 -0.02499146 -0.19442882 0.049084987 0.14698915 -0.21933499 -0.3713195 0.2606914 0.5543613 -0.035039503 0.26929453 -0.28763455 -0.14205751 -0.1271583 -0.034120325 -0.43131688 -0.036141217 -0.022877812 -0.16434164 0.15531567 -0.253159 -0.15142365 -0.49574193 0.028738111 0.058865983 -0.20778863 0.24269424 -0.037478507 0.17803885 0.021385748 -0.122272804 0.06420801 0.07521363 0.34435287 -0.30876634 0.15150438 -0.46522963 -0.335397 0.053212427 0.28431615 -0.009706256 -0.004663842 0.09934474 -0.08799921 0.35739106 -0.33999127 -0.2802604 -0.13368505 -0.1749289 -0.4946069 -0.48305407 -0.38161543 -0.1149894
1390 0.08957361 -0.21932879 0.52285767 0.3475615 0.35592526 0.15905589 0.18161927 -0.5453815 0.012920311 -0.2878663 -0.46094134 0.0661839 -0.17170046 -0.5161966 0.37044477 0.10951466 -0.38465235 0.018133735 -0.17015322 0.43642253 -0.041709825 0.6429764 -0.3371851 -0.37079087 -0.05727659 0.2769864 -0.37152085 0.22663993 -0.15023643 0.041948885 -0.030690327 0.34927168 0.08496035 0.22931899 -0.41720837 -0.3260113 0.34275618 0.024487294 -0.060845282 0.24778688 -0.22016203 -0.097152285 -0.54308736 0.118629575 0.19753806 0.18539128 -0.11605405 -0.30180418 -0.3447613 0.40221587 -0.043202184 0.33547646 0.06698968 -0.44748676 -0.5792628 -0.01371097 0.7090289 -0.43126753 -0.1731325 -0.13108791 0.2210472 0.19315043 0.21537808 -0.01503198 0.13455962 -0.25194937 -0.2501699 0.30617252 -0.027014568 -0.33087543 0.34462655 -0.34835485 -0.5294687 -0.43163022 0.010230298 0.0413193 -0.6243277 -0.1179897 -0.20669791 -0.26447064 -0.027587557 -0.13609402 0.15142922 0.29830596 -0.1165669 0.31148675 0.104287334 -0.18996844 0.3184396 0.04881587 -0.38971093 -0.3274992 -0.13064128 -0.49241015 0.20062414 -0.23715405 -0.06609332 -0.4561449 -0.16527282 -0.41764647 0.13526139 0.028024575 0.38032514 -0.14561915 -0.33326092 0.35807303 0.16998228 0.001442662 0.37057742 -0.05468527 -0.10863163 -0.41204885 -0.20379467 0.045449402 0.04289101 -0.05516224 -0.45170847 0.22661811 -0.08009678 0.2984908 -0.25208986 -0.39270833 0.1120581 0.4086985 -0.556035 -0.2830499 -0.06255929 0.0013541515
2658 0.08222195 -0.08132442 0.35591096 -0.35300472 0.15001856 -0.20105411 0.017493753 0.08870661 0.026459476 0.10617739 0.2878069 0.051529385 -0.033370387 -0.028865702 0.07230327 0.3131985 -0.25339285 0.42539594 -0.15501401 0.18774746 0.26765096 0.19502823 0.1218607 -0.69038266 -0.10335692 -0.12927705 -0.15358813 0.20846385 0.25313142 -0.06299231 -0.17103654 -0.12548892 -0.24983239 -0.044299446 -0.036290694 0.5487437 0.4415485 -0.010057739 0.10905525 -0.20876952 0.3313626 0.22298615 -0.07931328 -0.17344186 -0.05865074 0.19778657 0.19269091 -0.41777995 -0.47641277 -0.2774221 0.64646494 0.04148906 0.03307004 -0.6152734 -0.4902848 -0.096379936 -0.010693565 -0.027419873 -0.026522314 -0.14961557 -0.19527309 -0.045385137 0.02393557 0.2980871 0.24765098 -0.05393184 0.21554634 -0.2035601 0.0283204 0.1336007 -0.06602808 -0.041117404 -0.47444198 0.10361159 0.2849707 -0.24351002 -0.24086721 0.22485742 -0.1676869 -0.23231344 -0.17158267 -0.2932552 -0.076871775 -0.24829793 0.101514675 0.3908587 -0.26786402 -0.38903716 -0.045563236 -0.5081648 -0.11055955 0.3150862 -0.09832419 -0.12388188 0.09597311 0.43672273 -0.08913306 -0.13374221 0.30411085 -0.48087135 -0.001033874 0.12062448 -0.000871239 -0.038374677 -0.03953958 0.28377607 -0.16091135 0.23159236 0.046522383 -0.01875289 0.05134466 0.11915751 -0.20649646 0.2602682 0.40173474 -0.18820171 -0.36181822 0.4398806 0.15019383 0.23863418 -0.35843468 0.04317297 -0.5631601 -0.082597725 0.010038101 -0.0023663756 0.051757395 0.2781084
1555 0.16380689 -0.1709597 0.38971734 0.31467515 0.3080972 0.0217655 0.254371 -0.53610975 -0.026412077 -0.29645282 -0.28178763 0.14522077 -0.12387872 -0.47591418 0.41433662 0.04609291 -0.40505803 -0.084380016 -0.21392448 0.20929225 -0.059385475 0.6169367 -0.50462145 -0.33839795 -0.030552588 0.3482594 -0.31599328 0.10562876 -0.08010212 0.085135326 -0.012366498 0.35698095 0.1982625 0.26646033 -0.37461805 -0.33390465 0.25306168 0.012069476 0.015539337 0.16731128 -0.1834466 0.04887445 -0.3312365 0.16143799 0.14873412 -0.005919336 -0.06874149 -0.26930842 -0.22725157 0.1255814 0.077579014 0.1446697 0.018129997 -0.2442538 -0.32402277 0.06313035 0.61418575 -0.2503859 -0.31523946 -0.005525139 0.098047554 0.236559 0.16355604 -0.110738814 0.103194304 -0.06256287 -0.17540331 0.25621384 0.013319938 -0.36044934 0.3706409 -0.3677328 -0.38067362 -0.5421025 -0.012775464 0.10515853 -0.35508448 -0.19769357 -0.15744226 -0.25522956 -0.102202475 -0.1034185 0.23838425 0.34250036 -0.14205645 0.24056086 -0.03735753 -0.31173065 0.14375588 0.09270381 -0.40824208 -0.39926428 -0.018516252 -0.5053308 0.19328362 -0.26017874 -0.13369244 -0.35135403 -0.141081 -0.3264248 -0.008286377 0.041444857 0.35431418 -0.13291197 -0.36432695 0.16564967 0.034876477 0.12501894 0.33893344 -0.04763768 0.033106726 -0.3981399 -0.12214103 -0.05577084 0.008073521 -0.028399238 -0.3819462 0.18913822 -0.027850956 0.20904914 -0.2987283 -0.44021353 -0.027233213 0.32356447 -0.4447407 -0.3788455 -0.25435516 -0.023142688
2462 -0.017145678 -0.011219926 0.25076672 -0.041369405 -0.14691943 -0.2437481 0.20180778 0.22913839 -0.2453155 0.107583806 0.27031466 -0.023612179 0.3040995 0.049484365 0.49250674 0.22848159 -0.41529685 0.048615344 -0.17766614 0.32315126 0.28387135 0.08476665 -0.10905815 -0.8316576 -0.46358252 0.2197196 -0.52454185 0.5799544 0.02789585 -0.12722065 -0.36615598 -0.16912739 -0.28540674 -0.08350552 0.15996201 0.42316198 -0.047784742 -0.11461681 -0.09723177 -0.23006205 0.13121979 0.2067682 -0.08081194 0.0551631 0.106550805 0.21027012 0.16918974 -0.47560066 -0.41831797 -0.102029964 0.28067574 0.21345362 0.21163538 -1.047102 0.031781588 -0.6670856 -0.017776012 0.2633627 -0.22275437 -0.43272555 0.09816532 0.17171791 0.39081898 0.23921652 0.32929468 0.06597634 -0.0799034 -0.21564655 0.34020677 -0.5282359 -0.0017603353 -0.24600984 -0.5087748 -0.07384897 0.18418853 -0.47768375 0.16143557 0.19217803 -0.64344466 0.04158843 -0.4347022 0.1877796 -0.17368726 -0.36936018 0.030050008 0.23390503 0.15596652 -0.52028435 0.356512 -0.30900213 -0.29311886 -0.14293247 0.4200517 -0.023949258 0.24245384 0.32793245 -0.43907222 -0.56617403 0.097771496 -0.528494 -0.26283216 -0.24496162 0.08594299 -0.14870106 -0.19317415 0.3463761 -0.63668907 0.33229586 0.2839634 0.0057494915 -0.20529641 0.1252146 0.01685083 -0.003938153 -0.34960344 0.26077345 0.05729126 0.3049363 -0.03071329 -0.07709979 -0.615718 -0.29926962 -0.91903985 -0.17009461 -0.38584682 -0.48000196 -0.023168469 0.21973965
824 0.24875534 0.14783737 0.3457551 0.06823872 0.19045906 0.074427746 0.40642315 -0.38941735 -0.20157492 -0.27602652 -0.16676521 0.17007288 -0.15448596 -0.23407105 0.47236332 0.015318039 -0.05563142 -0.3214646 -0.05158403 0.20650591 0.15811677 0.2613127 -0.31604928 -0.07297003 -0.03800219 0.4424909 -0.5667768 0.08725959 -0.21554898 -0.22080947 0.19857304 0.32519042 0.32794935 0.2601085 -0.31639475 -0.34694588 0.50893384 -0.24171643 0.13045093 0.106235765 -0.118106306 -0.0039625354 -0.09738255 0.084269874 0.0049479594 -0.24592692 0.00020187293 0.020705847 -0.20349082 0.04368765 0.1502925 0.06559112 -0.09698873 -0.059539244 -0.18761586 0.18643996 0.3975617 -0.36854535 -0.3320509 0.18253292 -0.025895761 0.09269287 0.038063355 0.2906611 0.23945248 0.16021423 0.028894892 -0.012457573 -0.14405005 -0.28931406 0.37127095 -0.084119596 -0.13786706 -0.18163605 0.12967204 -0.047150355 -0.11342518 -0.54337984 0.37004346 -0.17476998 0.09383629 -0.16757345 -0.07398583 0.3709665 -0.19342378 0.37382376 -0.18756792 -0.090619415 0.24143256 0.27826977 -0.26932254 -0.20098229 0.32662642 -0.53802097 0.48934886 0.09861269 -0.3504993 -0.36678472 -0.011636254 0.15702268 -0.29108652 0.17072488 0.53313255 -0.013789829 -0.4418074 0.13397975 0.09574316 0.13195287 0.17868854 -0.36924097 -0.050126664 -0.45984203 -0.45428613 0.2133808 0.13728763 0.12174042 0.10683867 0.4835501 -0.010953613 -0.030636353 -0.22734748 -0.4487848 -0.17367373 -0.070809916 -0.5949804 -0.45245737 -0.36191344 0.018519243
2736 -0.07381833 -0.1506228 -0.06723902 -0.29171592 -0.039856136 -0.09371951 0.0672751 0.06966921 -0.038142942 0.072312 0.3529463 0.54599893 -0.23803005 0.05950977 -0.116545804 0.10639665 -0.23504837 -0.065350085 -0.22984233 -0.006450384 0.17886527 -0.08187188 -0.012392511 -0.9338319 -0.111606024 0.14995182 -0.06398574 0.36368844 0.32021335 0.045849126 -0.25395226 -0.35255623 0.08444666 -0.045221888 0.1650505 0.37430474 0.2307701 -0.19248164 0.23017357 -0.1026575 0.47893652 -0.09522522 -0.20316668 -0.17898978 0.3583116 0.15824163 -0.26493058 -0.14241572 -0.13871117 0.0032690961 0.0055707484 -0.26935998 0.30934322 -0.29179233 -0.15871665 -0.22799219 0.23086588 0.044989772 -0.107801445 -0.12948363 -0.32582682 -0.04026366 0.38175312 0.43680736 -0.027976898 -0.11172296 0.36520725 0.04421267 -0.15340321 0.23368195 0.26778045 -0.057939187 -0.17290701 0.27545965 0.2215248 -0.28433335 -0.3431175 0.46061385 -0.4976157 -0.542471 -0.16356567 -0.37399265 -0.5047372 -0.020097326 0.12923293 0.8058784 -0.016625712 -0.46746475 -0.019229792 -0.15507163 0.1239717 0.36672962 -0.026653394 -0.121181235 0.09063589 0.23948671 0.08773024 -0.00024019103 0.1374536 -0.48616496 0.09382288 -0.041238196 0.012385326 -0.0900682 0.092880584 0.034694597 -0.22692138 0.4168059 0.046958998 -0.13059038 -0.017672017 0.19078901 -0.38120863 0.45144948 0.13819437 0.10150613 -0.52624625 0.109349325 0.009467704 0.00828478 -0.21853448 -0.24464023 -0.016959243 -0.07199364 -0.2799797 -0.059839886 0.20723486 0.056241415
2497 -0.0140404105 0.022720778 0.28054652 -0.063298956 0.029542092 -0.28286865 0.13548934 0.094339475 -0.14317155 0.21477824 0.25331014 -0.16702199 0.23226546 -0.039900392 0.60697544 0.09428505 -0.39530677 -0.02430889 -0.24930462 0.40993914 0.2885799 0.2386521 -0.09828084 -0.7316029 -0.62428737 0.09298267 -0.38408 0.52182746 -0.016362181 -0.18773302 -0.43704948 -0.20677793 -0.2940779 -0.072394274 -0.042239774 0.6871856 0.06671437 -0.10556754 -0.06770053 -0.22906546 0.16457452 0.33028024 -0.21113719 0.008610291 0.036630653 0.25419912 0.24041957 -0.43444556 -0.50244164 -0.19266143 0.5111437 0.25976497 0.19142322 -1.0536007 -0.1117962 -0.486155 0.059931275 0.16664067 -0.19601499 -0.4232169 0.15264413 0.15187417 0.3473181 0.26260063 0.47869858 -0.0005203208 -0.01343526 -0.20543167 0.34591913 -0.4629593 0.13302624 -0.2639468 -0.48925906 -0.12183499 0.28068903 -0.43821672 0.025173854 0.2070109 -0.59643584 0.094475694 -0.44303 0.1725151 -0.12434093 -0.32121482 0.023048805 0.24662818 0.12709014 -0.56438106 0.31447175 -0.36298355 -0.31480333 -0.052843444 0.38265345 -0.07709596 0.3520194 0.40204751 -0.47869015 -0.69429684 0.08741916 -0.6461051 -0.22314991 -0.19492827 -0.0212593 -0.181917 -0.17784984 0.3871966 -0.60736793 0.37713546 0.2900201 -0.07229356 -0.1575168 0.14644592 -0.061133236 0.01723597 -0.24208076 0.127578 -0.024453538 0.38453537 0.028398842 0.00104439 -0.61512494 -0.18295556 -1.013115 -0.17925176 -0.25259754 -0.44716847 -0.028820671 0.29035243
429 0.20739248 0.08342459 0.35934025 0.0136984745 0.17710465 -0.020500429 0.39032227 -0.3118767 -0.29565302 -0.13402785 -0.03996698 0.16859883 -0.16915677 -0.21857186 0.53111327 -0.0690823 0.049361035 -0.40080705 -0.048105918 0.21103649 0.18786474 0.21264821 -0.39155635 -0.08956766 0.037719496 0.46558687 -0.5437428 0.1605737 -0.10278439 -0.15347184 0.21593204 0.25862542 0.36407897 0.36573038 -0.25574657 -0.46440956 0.5269263 -0.33685836 0.1570577 0.19007576 -0.09740886 -0.0035722707 -0.11881562 0.18672018 0.0882579 -0.19413646 -0.062033016 -0.09592056 -0.15619278 0.019169943 0.2291745 -0.0027787315 -0.13189274 -0.13963787 -0.13932708 0.19403805 0.31595182 -0.35556576 -0.35838094 0.26422152 -0.013494331 0.17148976 0.04851839 0.31516147 0.19141169 0.10545967 0.016759895 -0.0979339 -0.08228718 -0.31644732 0.3436952 -0.12371197 -0.15181576 -0.2738583 0.010788563 -0.10464835 0.008298292 -0.4479244 0.25350222 -0.20652117 -0.040062614 -0.09015323 -0.051206976 0.4540451 -0.12384332 0.30989474 -0.2452471 -0.19183491 0.16722 0.23050511 -0.3668298 -0.12372134 0.3738113 -0.55391026 0.5114907 -0.004152816 -0.25049317 -0.4842515 -0.032732442 0.10864006 -0.34098825 0.0892168 0.5596708 0.00058169424 -0.5218522 0.08007135 0.019293662 0.17849027 0.21863136 -0.38292593 -0.04087608 -0.50600415 -0.5211744 0.16538367 0.043238007 0.17229256 0.09110105 0.44407478 -0.0044359295 0.03705798 -0.23603134 -0.43649906 -0.18665648 -0.042710107 -0.5649969 -0.48972362 -0.39002365 -0.0632222
851 -0.34484938 -0.09008215 0.30833617 0.25643936 0.45969427 0.053779844 0.45207348 -0.28937945 -0.0025178613 0.06285523 -0.30800408 0.1865782 0.14126806 0.052596893 -0.08025383 -0.26421973 -0.010431828 -0.08341887 -0.612675 0.070038386 -0.14909235 0.15994236 -0.12515804 -0.7021531 -0.09302518 0.3470421 -0.20112257 -0.13185859 -0.21882258 -0.08160249 0.5242292 0.7254941 0.3348043 0.46733627 -0.18504898 -0.1579174 0.42876434 -0.09406808 -0.5670475 0.23004173 -0.13080524 -0.013213793 -0.35643962 -0.026760463 -0.22073576 0.10248394 -0.48044807 -0.09031952 0.09063162 -0.23805489 -0.10858508 0.35562712 0.3544242 -0.057469223 -0.5971032 -0.052705854 0.43074203 -0.10241349 -0.2431842 0.004175585 0.23715588 0.33347797 0.5624222 0.081019536 0.084496595 0.30353776 -0.106604576 -0.059367895 0.0255791 -0.05344029 0.18388301 -0.087350145 -0.2100983 -0.4979024 0.45172775 -0.323788 -0.20628972 -0.24951786 0.019616354 -0.23003677 0.04041638 -0.18207102 0.22514495 0.5706406 -0.003883933 0.09069198 0.19361115 -0.100752875 -0.3813247 0.24696262 -0.125031 -0.3590053 0.7068562 -0.37339538 0.36034077 0.04276762 -0.48464766 -0.43796095 -0.21603791 -0.12474837 -0.3041975 -0.24436337 0.14389384 -0.3773653 -0.5167979 0.46951738 -0.19660689 0.7365872 0.3216849 -0.13668121 0.099189736 -0.6961635 -0.032077704 0.30385438 0.24771783 -0.06277692 -0.11771403 0.3846934 -0.12848884 0.0727474 -0.13494132 -0.61275977 0.018843379 0.0074043353 -0.34698758 -0.05994865 0.057507437 -0.105060324
2053 -0.1511088 0.064778745 0.20186257 0.15746233 0.2986892 0.017236564 0.3393789 -0.35311282 -0.14013731 0.025959311 -0.0028365972 0.2730383 0.123531476 0.10902403 0.007163571 -0.25988418 -0.07809882 -0.2461707 -0.35732162 -0.1344095 -0.13999161 0.22929598 -0.3965203 -0.30622515 -0.15847181 0.24102217 -0.27073243 -0.1387984 -0.3371494 0.073463075 0.44973287 0.65288323 0.40987572 0.4054825 -0.12903692 -0.11812903 0.35135955 0.16706443 -0.2507649 0.22837771 -0.12542951 0.101226375 -0.36411273 -0.12824088 -0.22921632 -0.13353083 -0.22041777 -0.15663858 0.09349167 0.028663164 0.07240798 0.2436649 0.09227048 0.03580333 -0.4083579 -0.1018298 0.4565131 -0.1959889 -0.30127835 0.09838319 0.27303028 0.29638824 0.4249711 0.14652409 0.170662 0.29414728 -0.17749517 0.17445861 0.08888383 -0.073172115 0.16076104 -0.115651526 -0.122123875 -0.38420817 0.38250858 -0.15712738 -0.17344905 -0.34456047 0.002170847 -0.3711637 -0.025112292 -0.19905004 0.20036869 0.5095219 -0.04661345 0.28961542 0.06709225 -0.18868648 -0.41001675 0.20273171 -0.30363896 -0.28882945 0.35274902 -0.29411155 0.420177 -0.09051044 -0.39440948 -0.442324 -0.083244205 -0.09531691 -0.325346 -0.09201428 -0.02483276 -0.28182575 -0.54482985 0.15432186 0.00089598424 0.58542746 0.3365907 -0.19457774 0.19055606 -0.4761751 -0.13185038 0.13214599 0.3342215 -0.2159253 -0.031094206 0.34085742 -0.008565297 0.14513533 -0.07967691 -0.6287402 -0.03041048 -0.016486688 -0.52366155 -0.2438514 -0.14862023 -0.0581726
2499 -0.22597419 0.17305043 0.5051103 -0.032381173 0.1157167 -0.18651462 0.3715375 0.11549849 -0.13952617 0.2553292 0.34713572 -0.10357917 0.108431146 -0.0678591 0.4661641 0.19802617 -0.31399584 0.27082402 -0.28585905 0.517067 0.4246213 0.2103942 -0.030246932 -1.1309478 -0.6884516 -0.067507684 -0.31071436 0.6112895 0.100729495 -0.080542766 -0.24451123 -0.24580607 -0.32285038 0.074495345 -0.18700194 0.56931245 0.5079522 0.02181874 -0.037744336 -0.17731899 0.4078044 0.065643676 -0.18857163 0.0017698676 -0.23901837 0.30958587 0.47975808 -0.68541795 -0.33205727 -0.31270736 0.58697635 0.26665422 0.121993706 -0.847693 -0.23707798 -0.3884895 -0.29944414 -0.15180068 -0.54640734 -0.11144355 -0.22530885 0.2813466 0.31677067 0.224169 0.12526266 0.014052319 -0.34079573 -0.16192251 0.32002673 -0.10611196 0.009457847 -0.34237126 -0.7581596 -0.14226311 0.21624273 -0.5101351 -0.21094984 0.19819327 -0.28638965 0.07909027 -0.2108074 0.41950548 0.022781266 -0.113164514 0.07622754 0.31175295 -0.11733904 -0.60657394 0.40313783 -0.56847423 -0.3569227 -0.13893756 0.29219756 -0.015880778 0.3025284 0.49782473 -0.30899018 -0.54087746 0.01133459 -0.64308476 -0.33178228 -0.16083494 0.11438806 -0.14992681 -0.264514 0.59730715 -0.35013983 0.34237045 0.40536538 -0.17269392 -0.10550107 -0.042558677 -0.32224688 0.47467372 -0.00035936123 -0.0899503 -0.0906514 0.15853968 0.09191865 0.14878488 -0.553147 -0.12566528 -0.7978662 0.094973356 -0.04241964 -0.6628997 -0.18521757 0.15780906
2468 -0.27598208 0.2102729 0.40988734 -0.06813923 -0.03545619 -0.09006188 0.36212033 0.29711494 -0.2000649 0.25824484 0.4249725 -0.018796757 0.2030051 0.059572496 0.23089828 0.25439918 -0.2979075 0.46907625 -0.19672644 0.41951552 0.3355379 0.047065776 0.066519424 -1.1775153 -0.5507264 0.01532622 -0.49616376 0.6222215 0.1257957 -0.02972948 -0.04953232 -0.1729965 -0.25683004 0.08522957 0.03446402 0.31536806 0.46895123 -0.06749189 -0.08787571 -0.19430669 0.4106604 -0.12565632 -0.106162935 0.062348854 -0.13636707 0.31880438 0.3780081 -0.7194058 -0.28651822 -0.16725639 0.3176035 0.1973102 0.20564005 -0.75072587 -0.02720007 -0.5105953 -0.40082526 0.037291523 -0.5821807 -0.15003759 -0.37709764 0.33093268 0.3630114 0.16888972 -0.08277723 -0.0099983355 -0.3830966 -0.13751501 0.293759 -0.10319825 -0.2101979 -0.34492257 -0.72273266 -0.08679604 0.11477011 -0.5134567 -0.047046643 0.1487091 -0.2950669 0.16846454 -0.13705617 0.43248394 0.052613605 -0.19071504 0.17298698 0.29630765 -0.16795549 -0.5524573 0.41687068 -0.5461075 -0.27193367 -0.22838762 0.35668856 0.02262182 0.14192149 0.25785473 -0.25730446 -0.3782408 -0.030737808 -0.45436242 -0.37537402 -0.1771492 0.1585066 -0.07149317 -0.17053828 0.57282436 -0.30690947 0.2759268 0.38501695 -0.116875455 -0.1620897 -0.066459 -0.24899413 0.51745826 -0.11814724 0.019423585 -0.08313995 0.09794113 0.04770635 0.15361834 -0.54301316 -0.20032296 -0.65446055 0.0019829033 -0.13562824 -0.6790861 -0.13804321 0.1089936
2299 0.27904928 0.24343804 -0.1407731 0.32166538 0.12833238 0.06147773 0.43503314 -0.62222964 0.070464864 -0.3487542 0.046431854 0.033606496 -0.13322729 -0.3402795 0.20453367 0.008046065 0.031967945 -0.30666146 -0.3103255 -0.10647855 -0.050656073 0.3345279 -0.09104432 -0.3704285 -0.1672859 0.45166823 -0.49472955 -0.05844143 -0.10106512 -0.10661354 0.2868107 0.35042554 0.18733788 0.2251872 0.06366754 -0.10144954 0.2582368 -0.3550488 -0.24553944 0.3854075 -0.050123286 0.12164364 -0.024128038 -0.22931093 0.035978675 -0.07172302 -0.04066868 0.09026883 -0.25851792 0.09819369 0.17357826 0.2798524 -0.11377569 0.10665255 -0.041228328 -0.10047789 0.5936662 -0.17998967 -0.5789385 -0.08099797 -0.0536955 0.13493097 -0.11630766 -0.0010974316 0.5941364 0.16668257 -0.16803774 -0.08495279 -0.16023417 -0.59777755 0.037004173 -0.31263095 -0.35050413 -0.27201506 0.1999948 -0.18529813 0.118886426 -0.11654267 -0.0045088013 -0.38116825 -0.3771559 -0.064760596 0.4746488 0.40571323 0.116629064 0.3176386 -0.117634706 -0.1449338 0.024714058 0.114580765 -0.5014978 -0.25889397 0.09248537 -0.29146355 0.47060108 -0.048497107 -0.17071941 -0.7256161 -0.14550671 0.15944256 -0.14202291 -0.18777917 0.46129778 -0.23713535 -0.055400576 -0.113666795 -0.21414298 0.21330279 0.47815272 -0.15945673 -0.18686941 -0.5536511 -0.082887135 0.2611324 0.49039534 0.44272786 0.08100418 0.3714572 -0.20470816 0.04182242 0.12304744 -0.2779802 -0.02129543 0.018419653 -0.3567219 -0.17646961 -0.06946877 0.044815995
2412 0.14261241 0.070906155 0.15819111 0.038589474 0.3195791 -0.098864354 0.58172226 -0.34314272 -0.07639643 0.08597155 0.21780168 0.009128983 -0.19735532 -0.28720048 0.36004275 -0.120957606 0.001137228 -0.54175174 -0.17768006 -0.119326934 0.08717094 0.27486682 -0.33548024 -0.017283628 -0.10001988 0.45287165 -0.45987684 0.11399171 -0.10085344 0.21120727 0.06914346 0.37693045 0.4598777 0.17676999 -0.18872334 -0.14622842 0.37439206 -0.08873264 0.16270956 -0.077267535 0.08965352 0.4458834 -0.3530372 0.08022048 0.069767706 -0.17740202 -0.2798297 -0.24442668 0.09506941 0.006113017 0.33018973 -0.06724657 -0.2663247 -0.12389844 -0.27204716 -0.27274516 0.43764442 -0.03207562 -0.40423918 0.38740975 -0.07863194 0.26178557 -0.01768757 0.10346762 0.04633385 -0.11265499 -0.32830063 -0.116155006 0.039332327 -0.06872125 0.17121221 -0.17889683 -0.30405137 -0.5077562 -0.08379549 -0.32470417 -0.4426767 -0.38500515 -0.18893275 -0.40733933 0.014140549 -0.093697116 0.27860332 0.46429193 0.08579783 0.17866011 0.08742698 -0.2288996 -0.14784536 0.15516481 -0.6783702 -0.09555497 -0.12771295 -0.28063253 0.3914616 -0.117671005 -0.11580034 -0.41351023 -0.16917175 0.16405226 -0.18256639 -0.06264052 0.18111272 -0.26209885 -0.4581297 -0.14601018 0.0035241863 0.50343597 0.57869345 -0.27830455 0.0671106 -0.32456204 -0.50761664 -0.24927144 0.23128633 0.07651327 0.04352858 0.5594902 -0.19294365 0.21380876 -0.063801296 -0.40614 -0.29192737 -0.08834051 -0.36209378 -0.281294 -0.23978853 -0.046397097
2403 0.13819939 0.35628012 0.2570211 0.37806216 0.19939046 -0.33442461 0.40944695 -0.1806636 -0.21126574 -0.07720615 0.12675554 0.25443107 -0.16538051 -0.09201236 0.3212913 -0.040446565 0.19324858 -0.47068262 0.020001752 0.015205365 0.2604941 0.42665744 -0.30413917 -0.3698937 -0.07575587 0.22052069 -0.5776464 -0.033147097 -0.21167289 0.14890102 0.4474586 0.1582341 0.11673651 0.49512264 0.008123698 -0.06489215 0.3820881 -0.08982354 0.16618232 0.35130373 -0.37402382 0.32949165 -0.11875884 -0.009425731 -0.06296775 -0.14478897 -0.2999093 -0.108336896 -0.27261057 0.2661161 0.13839768 0.32662514 -0.16250914 -0.24245462 -0.0921124 -0.03382883 0.7607683 -0.41142592 -0.36847135 0.013511061 0.18114947 0.25704294 0.10007619 0.12242899 0.21442498 -0.10562795 -0.038721923 0.11778939 0.034664247 0.2060304 -0.003737141 -0.14454035 -0.16713427 -0.38322705 -0.09598159 -0.16434827 -0.01689581 -0.20366208 -0.40949386 -0.17741257 -0.42063335 0.09653669 0.026173973 0.65503037 -0.069934316 0.26962566 0.018182283 -0.15113956 -0.20638119 0.1579364 -0.5742317 -0.36975726 0.0317228 -0.42738527 0.33251727 -0.4014389 -0.15155095 -0.54218096 -0.09904037 -0.042608324 -0.34801507 0.008193276 0.27378863 0.19208838 -0.4115748 -0.22118923 0.114553265 0.14318506 0.27970144 -0.22763206 -0.071977824 -0.66476023 -0.66988987 0.25833613 -0.064795375 -0.065136105 0.0021279545 0.2022718 0.09370718 0.17491366 -0.064313285 -0.3340446 0.19219229 -0.0279231 -0.58669275 -0.41564327 -0.20502397 0.02177752
2154 0.17771812 0.23567098 -0.120326616 0.596561 0.27574614 -0.26661468 0.2166913 -0.42306286 -0.20066406 0.3012695 -0.07905852 0.093317814 0.0042420793 -0.23410001 0.09047086 0.020798467 -0.2295109 -0.22930801 -0.33315858 0.28960228 0.25371072 0.14799353 -0.20658751 -0.2492359 0.068903446 0.2703778 -0.5235664 0.0074371207 -0.038743537 -0.046923786 0.32618695 0.53205055 0.26088914 0.2853793 -0.22472495 -0.3044017 0.3115792 -0.24321157 0.047953077 0.32664672 -0.19634645 0.25685972 -0.08567548 -0.012436168 -0.15494113 -0.3506708 -0.29260263 -0.046816353 -0.27360567 0.09563879 0.23938774 -0.11629019 0.09626144 0.05443809 0.09001866 0.23353258 0.23973499 -0.411872 -0.55697674 0.30379793 0.09065747 0.33690864 0.26357165 0.15750255 0.19553016 0.13641727 -0.15936896 0.0467619 -0.036168408 -0.18559621 0.1728558 -0.20035703 -0.13619278 -0.24840963 0.2007043 -0.20197761 -0.10568145 0.07265093 -0.25107995 -0.2401437 -0.40596178 0.12235188 0.015718887 0.30440313 0.059613176 0.15023378 -0.15980296 0.05367857 -0.04293564 -0.059023146 -0.33002818 -0.28932694 0.019283095 -0.4982653 0.2510079 -0.21627632 -0.14608335 -0.49352783 -0.13124233 0.23391046 -0.50335425 -0.11182539 0.17435779 -0.0389113 -0.48203924 -0.1709943 -0.286705 0.16480353 0.55817413 -0.25985092 0.1402303 -0.5301032 -0.5252322 0.059979826 -0.059910737 0.10464087 0.08317619 0.40607783 0.064038865 0.025366431 -0.29646742 -0.3902271 -0.32936585 0.022227027 -0.277263 -0.36973324 -0.31613436 0.096012965
2013 -0.09395589 0.25022286 0.12247116 0.25290424 0.049416192 -0.08108751 0.3862961 -0.48245153 0.077401884 -0.41610208 0.08787903 0.058147464 -0.060369894 -0.08246113 0.1293191 0.2766698 0.03455204 -0.47869548 -0.27124768 0.035727333 -0.13221286 0.45402807 0.13872936 -0.3473565 -0.041018847 0.42253566 -0.50018317 -0.118249424 -0.47854644 -0.060871415 0.08736232 0.24097966 -0.047127713 0.33078536 -0.28384736 0.30372098 0.30938712 0.21942946 0.08285319 0.20476468 0.024323242 0.18949866 -0.088203296 -0.22795957 -0.057320714 -0.15585503 0.044696387 -0.066440195 -0.11364635 0.22612227 -0.31963375 0.37904465 -0.14333184 -0.05040055 -0.31450653 -0.2457134 0.6337913 -0.20634198 -0.7153865 -0.24807505 0.027530815 0.00079252775 0.36757612 0.11603366 0.40734765 0.18638639 -0.030358942 -0.19887094 -0.017341847 -0.19321041 0.224468 -0.24541481 -0.41717628 -0.40225756 0.029133776 -0.07805559 -0.27885142 -0.40258032 -0.032424722 -0.47041395 -0.14108594 0.03910577 0.048862323 0.36543974 -0.18129322 0.45470414 0.07204711 0.35159737 0.072735906 0.21054715 -0.17165631 -0.57251155 -0.11182971 -0.27736828 0.5434713 -0.081558965 -0.40964577 -0.5890373 -0.015406062 -0.2011284 -0.53496176 -0.018488979 -0.03706571 -0.29882818 -0.19385749 -0.004899449 -0.023538468 0.034012556 0.38652626 -0.23198658 0.051057003 -0.38358787 -0.414647 0.15550372 0.24775603 -0.11605289 -0.15033102 0.030595355 -0.061555743 -0.056019392 -0.1919665 -0.42922503 -0.27203527 0.10669668 -0.21818577 -0.0014855219 -0.12294639 0.29351196
2693 -0.034421243 -0.21403787 0.4284476 -0.20658332 0.22688381 -0.05521725 0.14706275 -0.037200395 -0.069730975 0.09815018 0.024923483 -0.14483356 -0.06046303 -0.067555346 0.17977436 0.15690354 -0.2375053 0.10032001 -0.17000191 0.10763587 0.25141647 0.06913855 -0.07941658 -0.61952543 -0.20419161 -0.12396729 0.054804392 0.09627102 0.24242926 -0.16697259 -0.3316785 -0.27942532 -0.16263416 -0.15086967 -0.2608743 0.78863347 0.307004 0.034601703 0.12183935 -0.1653861 0.3261594 0.22735988 -0.15648417 -0.14907725 0.014406036 0.26972163 0.1540847 -0.25687754 -0.28382638 -0.41876784 0.57834333 0.22801846 0.11572988 -0.63216114 -0.41002002 0.09091319 0.16025034 -0.07854679 0.015441542 -0.12817144 -0.07355462 -0.08975872 0.28575322 0.42880303 0.46791452 -0.103153735 0.27531442 -0.1346116 0.029985555 0.06612308 0.053216796 -0.008960329 -0.5749019 0.251255 0.11846604 -0.35101557 -0.15935954 0.4297326 -0.18412566 -0.1216625 -0.3864358 -0.05321068 -0.21830764 -0.15256222 0.14550965 0.44202822 -0.16710137 -0.4238417 0.045303404 -0.37787044 -0.07029111 0.18408288 0.0094627 -0.22327444 0.23779742 0.45872304 -0.3073168 -0.44407782 -0.0006959053 -0.4523618 0.031311676 0.15497988 -0.26928297 -0.2132214 0.21160069 0.3531068 -0.21048431 0.23508963 0.12565558 -0.063834876 0.11144715 0.010008457 -0.32751906 0.2209365 0.08845454 -0.115219176 -0.48173797 0.2441049 0.14031683 0.18119764 -0.28806147 -0.037930354 -0.51487446 -0.083758175 0.101401225 0.06858816 0.08153171 0.28372344
1601 0.048275653 -0.11346321 0.36819357 0.34184235 0.3475411 0.26383767 0.016283255 -0.524247 -0.00539544 -0.18712088 -0.42419395 0.1142163 -0.2168744 -0.41008615 0.28533438 0.09518906 -0.23304087 -0.026966266 -0.18662256 0.48284143 -0.06563565 0.66012627 -0.1784061 -0.25944397 -0.04625266 0.21199624 -0.4446046 0.29367852 -0.1309134 0.009444242 0.013087981 0.47341833 0.047137726 0.27160484 -0.43866375 -0.38008583 0.3576253 -0.049112793 -0.08085623 0.3289232 -0.26717538 -0.10595339 -0.51217395 0.00554267 0.0884238 0.04405784 -0.14994027 -0.28167665 -0.38523397 0.52281904 -0.032144155 0.32047153 -0.021704996 -0.4710177 -0.5637639 0.1552771 0.7344704 -0.5140758 -0.14410535 -0.06880399 0.24104524 0.22918881 0.15413176 0.0055539324 0.17621776 -0.22960865 -0.23321271 0.3401183 0.0014698125 -0.43011114 0.40444663 -0.26610726 -0.4928799 -0.3549655 -0.06155051 -0.059371617 -0.6087283 -0.09725193 -0.07488599 -0.21307042 0.04644212 -0.1152041 0.11688411 0.22195402 -0.067345485 0.3284778 0.045567393 -0.002428371 0.3208072 0.08961131 -0.3369131 -0.26002342 -0.1762929 -0.4320905 0.317438 -0.28678337 -0.036557708 -0.5286814 -0.094817415 -0.30361858 0.104361475 0.042406037 0.3484657 -0.11398148 -0.33024597 0.27890643 0.13419841 -0.040063065 0.39922678 -0.12665698 -0.18292858 -0.39870024 -0.22377151 0.09099727 0.08338296 0.1022665 -0.4051858 0.32506728 -0.09775844 0.27810216 -0.19725215 -0.45436275 0.14730702 0.354304 -0.56908524 -0.25433758 -0.023721028 0.0016826948
1459 0.14092487 -0.2247436 0.37673548 0.32288358 0.39777496 0.15242381 0.08257511 -0.49130204 -0.005131192 -0.17541048 -0.3838329 0.032523274 -0.28195 -0.50662005 0.40253788 0.17140935 -0.45471737 0.0122327525 -0.1873532 0.406814 -0.0536678 0.6095865 -0.36261895 -0.32211524 -0.024743296 0.26655164 -0.448915 0.22121158 -0.007707095 0.0882964 -0.08982878 0.3850156 0.09159264 0.23258506 -0.40856737 -0.36564273 0.3272366 -0.026735505 0.04038447 0.24216338 -0.27605647 -0.020446511 -0.47687766 0.15522258 0.16072515 0.13531366 -0.13582966 -0.3456791 -0.3604333 0.33086452 0.017609658 0.23205791 0.065182455 -0.47815683 -0.47539562 0.12340429 0.66410786 -0.38977692 -0.21491483 -0.07858211 0.19970496 0.16024135 0.15596373 -0.06757961 0.13938916 -0.23663875 -0.21082973 0.35566232 0.013968741 -0.3366482 0.33477843 -0.30263948 -0.52068466 -0.43801284 -0.08859125 0.022278277 -0.6186687 -0.14446928 -0.25858027 -0.17747582 -0.04952342 -0.088000774 0.17574823 0.29288927 -0.12206604 0.27629966 0.00047938596 -0.13990538 0.36567026 0.07668811 -0.44515932 -0.3518027 -0.152759 -0.52127266 0.26023138 -0.29955757 -0.028296644 -0.4048765 -0.11553839 -0.35386682 0.09437914 0.118982494 0.334043 -0.10289004 -0.3149898 0.29857 0.12633556 0.0053814007 0.38985866 -0.081999466 -0.024267277 -0.41630682 -0.20508306 -0.008370872 0.058157664 -0.008951936 -0.42792904 0.22247057 -0.028167075 0.30711952 -0.27461204 -0.39588454 0.041806016 0.41112214 -0.5215087 -0.26026317 -0.16392262 -0.056225765
1422 0.13592857 -0.25140926 0.40326837 0.35266367 0.3571635 0.02963471 0.25697058 -0.60673624 0.04437283 -0.23420337 -0.45694295 0.075630486 -0.11780534 -0.5569417 0.39679664 0.11593679 -0.559211 0.004057635 -0.27061066 0.3851881 -0.055747837 0.56355566 -0.38732016 -0.35154223 -0.028332915 0.34694225 -0.34569874 0.1361366 -0.1082733 0.13463902 0.0211867 0.42286032 0.123340644 0.22967651 -0.409344 -0.40511897 0.32685038 0.04726711 -0.007642734 0.19217798 -0.170853 0.0035847188 -0.41148493 0.21244383 0.13422224 0.1283557 -0.075991824 -0.30328205 -0.29427683 0.14724082 0.02177766 0.17239276 0.042588614 -0.3150123 -0.45100224 0.027727928 0.5880415 -0.38343748 -0.29174826 -0.07433002 0.14600416 0.19634035 0.2734395 -0.10334018 0.14488108 -0.10827279 -0.20929503 0.31224987 -0.023356847 -0.40109476 0.36597142 -0.3197138 -0.42868075 -0.54472256 0.044736966 0.14242521 -0.521137 -0.18967803 -0.20916328 -0.2952788 -0.07505203 -0.03156607 0.24193068 0.34977973 -0.15388614 0.2932641 0.044202663 -0.2739895 0.22034991 0.096522115 -0.3829602 -0.45357996 -0.056578167 -0.6005339 0.15722655 -0.25956163 -0.16552348 -0.39274085 -0.11931095 -0.3674695 -0.0058774375 0.12718047 0.42424437 -0.14511763 -0.37552318 0.25258118 0.069921866 0.13149938 0.36086696 -0.04023509 -0.008639189 -0.45977256 -0.14694706 -0.030209528 0.044286475 -0.02000055 -0.38059604 0.16472651 -0.022731826 0.22068724 -0.3094955 -0.38606587 0.0002464892 0.39252874 -0.4882146 -0.30022123 -0.28118086 -0.0037002757
2631 -0.3332578 -0.031962756 0.7292379 0.45805246 0.33090293 0.2256618 0.48639762 -0.36645883 -0.08823592 0.17944649 -0.26885343 -0.09208924 0.16212873 -0.807123 0.028522182 0.41103473 -0.043181635 -0.2743784 0.07868254 0.22270836 0.31635085 0.1683352 -0.1533467 -1.376149 0.119013645 0.39711773 -0.6200565 0.17083474 -0.13616553 -0.7275082 -0.38625127 -0.33467373 -0.15460244 0.15063646 0.08261739 0.3799712 0.40598953 -1.0554339 -0.5675624 -0.20688973 -0.3783345 -0.38121176 -0.35680193 -0.1704583 0.42888135 0.21631405 -0.30449334 -0.08875098 -0.37549797 -0.16528964 0.17661686 0.2024011 -0.08578402 -0.6115301 0.18917437 0.050383206 0.34347308 -0.0028472622 -0.5339591 0.010101246 -0.54348236 -0.0054455837 0.49207994 -0.1362536 -0.028814133 -0.52165115 0.12604073 -0.21848977 -0.5950333 0.32717216 -0.12544884 -0.07047652 -1.1202208 0.015415656 -0.22821887 -0.993677 -0.29036206 -0.18893482 0.06311247 -0.112776116 -0.6537284 -0.039896496 0.3939224 0.3144976 0.5565218 0.7129514 -0.29949412 -0.12119325 0.290892 -0.16519351 -0.27491578 -0.4665567 0.49554744 -0.52354574 0.0822088 0.15791066 0.05084942 -0.32462603 -0.7106602 0.26234943 -0.09099096 -0.03675795 0.29417503 -0.38982257 0.50078917 0.49114758 -0.6518891 0.5315864 0.44232264 -0.88094026 -0.058096398 -0.54807425 -0.22109249 -0.0008041329 -0.27220714 0.38972172 -0.44016874 0.6338539 -0.797707 -0.2670654 -0.28466138 -0.79518235 -0.13649595 0.004790152 -0.2406484 0.12062119 0.034154553 0.100846566
2697 0.17112094 -0.17514974 0.40914702 -0.37797484 0.251771 -0.07721477 0.1062093 0.006850276 0.015218457 0.28988993 0.21526425 -0.030039204 -0.031028531 0.002655745 -0.01618794 0.22240339 -0.27868623 0.47232184 -0.23199454 0.23154181 0.19774023 0.14550874 0.025600838 -0.56176513 -0.16414613 -0.14309144 -0.079575285 0.23852748 0.22978877 -0.100865155 -0.16635257 -0.04903155 -0.10964744 0.1130987 -0.06641603 0.66916364 0.50541216 0.011690323 0.062332768 -0.12247744 0.31972533 0.035018913 -0.041824736 -0.20587969 -0.038965788 0.22155416 0.20907992 -0.3853913 -0.30769494 -0.30433 0.5957564 -0.00070236786 -0.05860877 -0.7067709 -0.3844748 -0.060229212 0.12760526 -0.049143456 0.07330977 -0.104157895 -0.22473961 -0.0015472539 0.12098787 0.4173975 0.16280624 -0.15315866 0.22423671 -0.12276201 -0.05901645 0.15767702 0.023133984 -0.0087367855 -0.45652133 0.074443646 0.23027514 -0.231529 -0.07708404 0.19964263 -0.32150418 -0.27600718 -0.11481525 -0.31696886 -0.22662829 -0.23182727 0.0719516 0.4625686 -0.3661062 -0.4758961 -0.10008934 -0.47008756 -0.15084395 0.17619826 0.0049998844 -0.21930018 0.12563586 0.42207563 -0.09821355 -0.2690502 0.28971103 -0.4662054 0.03404697 -1.8597064e-05 -0.08211639 -0.09962096 -0.029005194 0.31380764 -0.27673975 0.27560687 -0.14361297 -0.14867584 -0.028562289 0.15625277 -0.09941576 0.16722299 0.35758245 -0.19197476 -0.4245218 0.52143323 0.07940965 0.17088802 -0.33740348 0.08110124 -0.4724688 -0.07499189 0.017022856 0.02000599 0.25808328 0.10137351
1879 -0.090967886 -0.13311002 0.26609012 0.2782547 0.052721467 -0.05951045 0.15636845 -0.12606394 0.0770672 0.018965995 -0.027216706 0.11535562 -0.16110624 0.15100604 0.07604559 -0.009554566 -0.060902853 -0.40277648 -0.056934457 -0.05886881 -0.011044928 0.43233994 -0.20665583 -0.37670657 -0.17554882 0.4762383 -0.3915509 0.24131481 -0.24634719 0.12028205 0.18352805 0.06436901 0.09977999 0.43657866 -0.14292862 -0.464094 0.5907228 -0.11632171 -0.039213885 0.20735306 -0.17419025 0.0030129154 -0.10686785 -0.11039819 0.17709483 -0.14326742 -0.37392488 -0.19386704 0.039930765 0.023387965 0.28256986 -0.24801311 0.013185111 0.15711854 -0.19633028 0.09057808 0.48585346 -0.3671527 -0.19029775 0.33733067 0.3594506 0.3910727 0.19213022 -0.059481815 0.11955995 0.012055243 -0.23282875 -0.07960537 0.34800115 -0.23454759 0.31435814 -0.015108152 -0.17883275 -0.1075114 0.052803926 -0.1974418 -0.13237762 -0.055644237 0.0048218793 -0.32472655 -0.21102913 -0.1415853 0.4080101 0.44802392 0.088804804 0.28556672 0.017028453 -0.16869001 -0.06304449 0.07179574 -0.15196292 -0.4530381 -0.02116388 -0.5854346 0.54950744 -0.3125874 0.08640064 -0.45511878 -0.27014267 -0.16468027 -0.31645572 -0.25109553 0.6209959 0.122895464 -0.4497498 -0.13734032 -0.20652643 0.43377215 0.36019555 -0.51819116 0.16315098 -0.37830555 -0.49031216 0.22557175 0.26884043 0.19091587 0.17872702 0.23781696 0.037259754 0.2606152 -0.18538775 -0.11329159 -0.117391214 -0.13027415 -0.5506153 -0.24139112 -0.2969015 -0.12281718
2594 -0.21851562 -0.008119476 0.7898888 0.4127151 0.31815803 0.22845364 0.42788193 -0.33057776 -0.14360382 0.22053616 -0.29636282 -0.12984231 0.2019956 -0.6890838 -0.06449085 0.34837404 -0.065762915 -0.10179348 0.110486835 0.09457955 0.31480023 0.049400978 -0.06120707 -1.3012877 0.19183238 0.3947266 -0.6040778 0.23387033 -0.13850927 -0.6744027 -0.34338084 -0.30990803 -0.08954566 0.08237356 0.19006027 0.32462996 0.36921895 -0.9865225 -0.61763895 -0.18573703 -0.33434668 -0.5534104 -0.2464243 -0.1509872 0.46912163 0.1671025 -0.37765643 -0.17675896 -0.327483 -0.13410477 0.07602552 0.23453447 0.0042856536 -0.6318146 0.11907378 -0.038361102 0.28360805 0.034211084 -0.4298987 -0.025774125 -0.5729789 -0.014595542 0.5004674 0.04518251 -0.08557961 -0.48621115 0.17320941 -0.27594703 -0.6369252 0.30823743 -0.22906794 -0.012886897 -1.1121906 0.07280715 -0.21289124 -0.9807119 -0.16883348 -0.14860521 -0.027078917 -0.22069407 -0.6063018 -0.07408528 0.32005495 0.18658665 0.5080021 0.634881 -0.29768497 -0.22007093 0.3261931 -0.20178121 -0.28770643 -0.4402315 0.505268 -0.56305903 0.057479247 0.11445849 0.009390099 -0.28874353 -0.6896802 0.24803984 0.015900675 -0.09011608 0.27631316 -0.38061166 0.5540054 0.4448519 -0.64109135 0.43089384 0.3175075 -0.82844967 -0.06697254 -0.52011156 -0.19249162 -0.06234668 -0.26227027 0.3621663 -0.41728905 0.64474165 -0.79893184 -0.29226336 -0.20501973 -0.7546541 -0.1276542 -0.08069676 -0.31145045 0.16903651 0.018924661 0.086639166
2630 -0.39134502 -0.03353935 0.64268655 0.5046741 0.37692535 0.26700553 0.509624 -0.40311125 -0.02513957 0.13399298 -0.28690746 -0.040643815 0.15509231 -0.8989717 0.027996738 0.46159706 -0.0070155524 -0.4222454 0.06137778 0.25159892 0.29788086 0.2080155 -0.20183867 -1.38735 0.17556642 0.43409824 -0.6862711 0.07646102 -0.18298201 -0.7162689 -0.3235692 -0.29560238 -0.1759185 0.18055406 0.048246607 0.34518 0.4789863 -1.1429892 -0.5272675 -0.19019948 -0.4414832 -0.2534684 -0.45833692 -0.19130726 0.47215348 0.22002396 -0.37569603 0.026412291 -0.42189327 -0.1645322 0.2154151 0.18154225 -0.14850268 -0.5282351 0.20528346 0.10247275 0.4557075 0.007792805 -0.61197674 0.060512885 -0.588355 -0.01988009 0.48548982 -0.25703076 0.0058651855 -0.57210386 0.08995851 -0.17924587 -0.6182095 0.3454884 -0.066280894 -0.1433032 -1.11452 -0.06283732 -0.2518722 -1.0403442 -0.3715244 -0.2584603 0.18670256 -0.08450832 -0.7062279 -0.08641205 0.50825137 0.4412399 0.61508685 0.81831706 -0.35851872 -0.0077485177 0.23203921 -0.1397655 -0.27290452 -0.48632187 0.48743972 -0.6102138 0.07776462 0.144816 0.0898158 -0.3339084 -0.73474544 0.3052801 -0.18218291 0.029689498 0.3315822 -0.36509308 0.4973523 0.4676624 -0.64447695 0.5927126 0.51723343 -0.9433113 -0.048309665 -0.63074356 -0.25836545 0.02253803 -0.24219763 0.4000684 -0.4954597 0.681105 -0.81460553 -0.26511976 -0.31201833 -0.93534815 -0.07922558 0.02594212 -0.22689644 0.15557417 0.03303637 0.099905975
2591 -0.08745341 0.008543564 0.76577276 0.35631612 0.27140763 0.19621566 0.396121 -0.31730422 -0.1625877 0.16031978 -0.28091028 -0.10523814 0.19822079 -0.5669242 -0.1433951 0.3592573 -0.09179092 0.10803564 0.11594525 -0.05445219 0.2664692 -0.043774422 0.012584461 -1.1712409 0.25580922 0.39500475 -0.5232973 0.22937924 -0.11959309 -0.54062724 -0.33183238 -0.2577682 -0.034298886 0.06409506 0.210333 0.28101403 0.31610715 -0.8893288 -0.60187477 -0.1920956 -0.25021693 -0.5852955 -0.15266293 -0.17355244 0.49931297 0.12331392 -0.40423077 -0.25984642 -0.3041132 -0.15192223 -0.013108122 0.21807213 0.12610273 -0.6468004 0.025274204 -0.09091039 0.25079465 0.075559534 -0.3151255 -0.13147302 -0.54291385 -0.02291803 0.4206484 0.19136532 -0.09149213 -0.36769634 0.2227686 -0.37449822 -0.63152254 0.28543827 -0.28786793 0.08773784 -1.0499218 0.15531182 -0.1737336 -0.89611363 -0.0984699 -0.07514731 -0.047456868 -0.26417175 -0.5568273 -0.16526389 0.25067592 0.070448674 0.44240618 0.52523685 -0.32354316 -0.2723787 0.29858744 -0.22793339 -0.2748088 -0.39505282 0.44769782 -0.5356336 0.012055441 0.07319809 -0.0052177897 -0.15561838 -0.584801 0.21990381 0.10961679 -0.11509552 0.25301206 -0.3412915 0.5210118 0.41565117 -0.6212677 0.3075713 0.19766876 -0.6882286 -0.040423416 -0.5050125 -0.1872434 -0.06954986 -0.15961754 0.2663609 -0.37583745 0.55537015 -0.7191193 -0.25515258 -0.14080557 -0.6830127 -0.11797907 -0.110312305 -0.3501029 0.2550288 -0.045419015 0.12797962
2506 -0.09180531 0.050378144 0.24166037 -0.064775206 -0.3057886 -0.014527412 0.2794274 0.37886518 -0.4231566 0.21927676 0.49683934 0.3523026 0.092647985 0.22159407 0.25499898 0.24644679 -0.31156015 0.21907516 -0.06491378 0.33224702 0.22792621 -0.0972981 -0.016736103 -0.9180082 -0.32007077 -0.023901807 -0.49463817 0.45085523 0.1383413 -0.032392666 0.035956383 -0.036571346 -0.09554777 0.018414896 0.29787377 0.13671082 0.10794459 -0.12682283 -0.025032308 -0.14438118 0.24305688 -0.021278806 -0.11955981 0.023240095 0.008844743 0.25714546 0.041530956 -0.33264914 -0.3573015 -0.004053874 0.015097405 -0.010070646 0.35466808 -0.877571 0.11745856 -0.55499524 -0.366704 0.19548069 -0.20181482 -0.3492486 -0.053853873 0.3437758 0.49853754 0.18646935 0.06570331 -0.24666682 -0.19416761 0.06638721 0.4107139 -0.18649015 -0.22128686 -0.21598263 -0.30299795 0.027238209 0.17880526 -0.31866008 0.082210876 0.22209041 -0.48399863 0.014041645 -0.3194433 0.21377519 -0.28387207 -0.28265786 0.04652658 0.45515147 0.18709823 -0.45538217 0.14699763 -0.34106827 -0.06253291 -0.084476404 0.34887475 0.0017884977 0.042467445 0.21478796 -0.20886144 -0.25464374 0.2817662 -0.43621832 -0.28130227 -0.27344438 0.101434216 -0.19235581 -0.2113642 0.54792535 -0.28594062 0.38800403 0.3656074 0.032579254 -0.19319358 0.09564819 -0.036071762 0.19764198 -0.23434967 0.33434027 -0.12573689 0.27086192 0.027181264 0.0031083697 -0.45781252 -0.2368064 -0.55181944 -0.18357661 -0.5149783 -0.56241447 0.02939792 0.13927719
2592 -0.053162713 0.017861994 0.69574034 0.2739475 0.19321552 0.22547407 0.30040842 -0.21355012 -0.16746941 0.16994342 -0.2375969 -0.13389823 0.25564995 -0.42551088 -0.15910634 0.34645912 -0.1511397 0.24228328 0.15681964 -0.056997508 0.23055224 -0.087420896 0.06210196 -1.0295985 0.2433695 0.38124612 -0.46644163 0.25847122 -0.09726774 -0.43864888 -0.2397265 -0.20148113 -0.03637996 0.019372666 0.25877997 0.24589092 0.30593416 -0.7306242 -0.60067433 -0.18833867 -0.18875003 -0.6390818 -0.029000983 -0.1384273 0.47547758 0.15623428 -0.34545392 -0.32564473 -0.25237173 -0.12628685 -0.033210054 0.2288957 0.20000976 -0.6038483 0.050215404 -0.18748559 0.17434649 0.11722384 -0.23879774 -0.13877518 -0.5170718 -0.03755131 0.46253648 0.24255538 -0.11031046 -0.33858225 0.21558957 -0.3988594 -0.5614218 0.2262194 -0.37096897 0.08658123 -0.9629837 0.13742031 -0.18240695 -0.83809507 0.018250609 0.020390663 -0.08881115 -0.23346297 -0.48839065 -0.19583263 0.20037198 -0.02511023 0.39503288 0.4352567 -0.30327678 -0.26899272 0.32017654 -0.3018605 -0.18126455 -0.32480544 0.41309953 -0.44679627 -0.041686814 -0.046370808 -0.016003424 -0.098974116 -0.4915321 0.16840683 0.14979173 -0.13363929 0.15658957 -0.26667276 0.4897012 0.41773587 -0.58400154 0.2501293 0.14343044 -0.5946264 -0.046440665 -0.38209563 -0.13791192 -0.041330457 -0.16147617 0.18431675 -0.340768 0.50057733 -0.6137313 -0.21139969 -0.115496956 -0.60091364 -0.09945944 -0.15717107 -0.32586452 0.20194219 -0.041389212 0.08230195
2498 -0.018570967 -0.008706401 0.25159657 -0.07681561 -0.056221675 -0.24205026 0.17557815 0.16631848 -0.20722225 0.2118641 0.30779386 -0.09778687 0.2731482 0.01624495 0.6075777 0.16426662 -0.4149728 -0.029892053 -0.23790455 0.42349067 0.29686913 0.20790336 -0.06014294 -0.8430758 -0.59130204 0.15419005 -0.48800248 0.58818126 0.013721074 -0.17717345 -0.41683677 -0.18555251 -0.2855182 -0.035789773 0.053399205 0.5798353 0.022726245 -0.13666748 -0.079456456 -0.22335938 0.12934074 0.28998086 -0.16722737 -0.009425222 0.05954355 0.21822539 0.24876626 -0.46265423 -0.520724 -0.1331777 0.39028135 0.21528654 0.19285561 -1.0816107 -0.011050414 -0.6123936 -0.0016970913 0.20970733 -0.23331398 -0.45371187 0.14572941 0.19348994 0.4109612 0.21216027 0.40445372 -0.0027070625 -0.066497885 -0.18139586 0.38715914 -0.517088 0.07461554 -0.26563466 -0.48666194 -0.08641451 0.25090417 -0.45858982 0.08999486 0.20266461 -0.6278759 0.13444972 -0.4853422 0.21913907 -0.1715117 -0.34345636 0.030675052 0.25460696 0.17178991 -0.54378676 0.3329222 -0.33416533 -0.33682978 -0.11879509 0.4274845 -0.014176715 0.33035645 0.37193432 -0.45961717 -0.6622754 0.10750058 -0.60052264 -0.30030116 -0.24460791 0.0143375285 -0.2094411 -0.22856955 0.39849174 -0.6240712 0.40864193 0.32754636 -0.032991223 -0.2155069 0.14480558 -0.021387609 -0.00041398156 -0.32116866 0.2673492 0.0351957 0.38148218 -0.0038412425 -0.036044616 -0.6709303 -0.20857829 -1.0183159 -0.17236038 -0.32757938 -0.52982754 -0.012369291 0.25630113
2566 0.19895166 0.0070982273 0.16708763 -0.020561796 0.022669058 -0.041944962 0.11913427 0.18142574 -0.12714975 -0.3089549 -0.16146556 0.17323829 0.23774828 0.055850536 -0.4208383 0.46886376 -0.53458226 0.7026379 -0.24215606 -0.15836233 0.09153701 -0.4415473 0.05811792 -0.44186434 0.545868 0.38538197 -0.91890776 0.003941601 -0.04620173 0.23922981 0.4206015 0.40042222 -0.0018541068 -0.1325116 0.33117962 -0.22531013 0.13690037 -0.12374203 -0.16873871 -0.096431844 0.0076277303 -0.2705709 0.09496388 -0.20741388 0.45757905 0.0186393 -0.50049156 -0.37624234 -0.13809192 0.26593396 -0.27972826 -0.028767128 0.43015984 -0.5855639 -0.29131046 -0.4342955 0.4308489 0.3274409 -0.017285028 -0.17561331 -0.5202527 0.09135483 0.100974195 0.6314035 -0.11265037 0.12465583 0.19130656 -0.16771692 -0.27508923 -0.28268424 -0.33066592 -0.14806885 -0.55951107 0.013785526 -0.028694985 -0.68466955 0.20066448 0.15325987 -0.3504272 -0.61238235 -0.14541285 -0.52343136 0.13103896 -0.19428146 0.28949037 0.42762634 -0.38070452 -0.17299272 0.21693538 -0.48344487 -0.10481956 -0.20212227 0.06593849 -0.56856465 -0.07354581 -0.39219713 -0.23910695 0.056924757 -0.005114582 -0.14673187 0.06527781 0.019356994 0.120731115 0.14490852 0.11720316 0.118500575 -0.34499097 0.0308308 -0.05422161 -0.019944258 -0.033035222 -0.21631911 -0.17264597 0.09280938 0.07951294 -0.14875156 -0.23086295 0.35034496 -0.029215707 -0.10257897 -0.26347944 -0.64153755 0.023232559 -0.39436996 -0.37671772 0.2271915 -0.1238547 0.1306962
2828 -0.029345645 -0.12555324 0.25490987 -0.2868965 -0.17297982 0.2744796 0.2718757 -0.1779427 -0.19845538 0.21517006 0.05954431 0.2865487 0.14539751 0.25502524 -0.16204983 0.01891338 -0.22838229 0.07658087 -0.17927939 0.2923543 0.11799838 -0.042182673 0.0034247306 -0.71313375 -0.043549396 -0.28534165 -0.12315072 0.22730932 0.1974742 -0.19940262 0.11321492 -0.19446225 -0.058922417 0.21993452 0.11180973 0.45883504 0.2644434 -0.046039592 0.13421397 0.19060777 0.31917614 0.09018153 -0.20080538 -0.38350457 0.05779008 0.16136104 0.091188826 0.12501867 -0.1476107 -0.2469179 0.27586776 -0.182085 0.11334956 -0.4700468 -0.13410427 -0.056551725 0.1882352 -0.19806778 0.3302512 -0.25250873 -0.253906 0.029970942 0.5119589 0.6497254 0.1563692 -0.38738212 0.41506794 0.114364915 -0.055367667 -0.13745895 -0.10509508 -0.0317372 -0.43562236 0.17215662 0.05130449 -0.29048696 0.057371605 0.29918325 -0.37776387 -0.071315505 -0.3103473 -0.32338604 -0.2850261 -0.0011577944 0.06345875 0.75280774 -0.089129314 -0.6747201 -0.0050707795 -0.42014036 0.24473235 -0.13092823 -0.070001036 -0.3039728 -0.021627005 0.07985162 -0.24405727 0.17481211 0.026177153 -0.13623126 0.10497792 -0.11902424 -0.31417853 -0.18091492 -0.24513693 0.3962578 0.07716885 0.37360033 -0.069770485 -0.005114072 -0.27548236 -0.25833452 -0.08674558 0.24504599 -0.20198502 0.29722637 -0.5230971 0.5592008 -0.07572656 -0.019509645 -0.27849668 -0.08157019 0.12016481 -0.15907277 0.08583724 0.19856235 0.3543181 0.08311251
2326 0.014474944 0.22160289 -0.22118959 0.30791694 0.49743593 0.24950035 0.32929385 -0.2526782 0.1033168 0.18310542 -0.05865554 -0.09561429 -0.13693765 -0.24549003 0.068221934 0.0074594384 -0.06462131 -0.21809658 -0.31408352 0.21909201 0.12531047 0.0943116 0.26124763 -0.17638645 -0.22210038 0.29872346 -0.4752709 -0.06393304 -0.03670504 -0.23799103 0.37329596 0.34149012 0.20086314 0.3082974 -0.4199123 0.018393958 0.68595916 -0.25004876 -0.14574763 0.18831289 -0.10803101 0.2076703 -0.21821906 0.014042654 0.0108874375 -0.14816993 -0.3568967 0.1582906 -0.10777387 0.307795 -0.01679976 0.29422122 0.21774465 0.10377218 -0.25438827 -0.09790529 0.47366145 -0.60157543 -0.30121633 0.29452503 0.00553735 0.023052111 -0.004272655 0.13555993 0.33984095 -0.01933726 -0.009872091 -0.0074341157 0.08662661 -0.022095079 0.2564577 0.051191308 -0.17639957 -0.18217498 0.08083811 -0.26434907 -0.22964646 0.0064730803 -0.09931942 0.14151019 -0.29703292 -0.08318945 0.113038875 0.36425158 0.28295782 -0.021582067 -0.15255713 0.291766 0.26725826 0.03468444 -0.33294266 -0.19531433 -0.06148319 -0.46338862 0.46501207 -0.07040877 -0.20410737 -0.48927125 -0.18523687 0.0922417 -0.06260506 0.03966822 0.21347883 -0.15180498 -0.27051878 -0.005844786 -0.16361451 0.2926364 0.5500305 -0.0027271227 -0.08236807 -0.6031974 -0.5229681 0.1897289 0.18120639 0.13842918 -0.04335626 0.4151307 0.05193199 0.0116509795 -0.18330038 -0.24367706 -0.1248436 -0.16396059 -0.3663286 -0.31623957 -0.048578404 0.07763614
2532 -0.31203794 -0.10889611 0.5762742 0.12704176 0.10112187 -0.17118262 0.23728326 0.2241844 -0.42403984 -0.0243178 0.09567577 -0.018503081 0.14212221 -0.21073009 0.57516307 0.32939145 -0.3651163 0.124114126 -0.021985598 0.08837684 0.4828139 0.069107085 -0.2435174 -0.9722179 -0.41659614 0.31822282 -0.3962233 0.39437717 0.16557321 -0.35175756 -0.16688801 -0.24964303 -0.4283245 -0.119596176 0.080178484 0.37045154 0.21877235 0.0028106475 -0.13973784 -0.07862843 -0.031242045 0.00814257 0.14661343 0.12847641 -0.14689247 0.26831576 0.294639 -0.5663065 -0.3673565 -0.41484404 0.24583146 0.37961188 0.27904812 -1.0617312 -0.011860586 -0.49738583 -0.08886439 0.0072339084 -0.28991726 -0.20525928 -0.038528446 0.21258011 0.66659874 0.49371022 0.41115856 0.2193735 0.12979178 -0.39326963 0.58122283 -0.33246362 -0.22542274 0.048126094 -0.8681821 -0.18943822 0.020420827 -0.80999106 -0.20670635 0.6203877 -0.36045173 -0.3795395 -0.33108163 0.3931354 0.17884542 -0.056297697 -0.13681994 0.21242441 0.1618155 -0.60110855 0.35457763 -0.5494393 0.09125079 0.09329926 0.06249754 -0.0110160215 0.26636285 0.29569232 -0.48920786 -0.49229342 0.10350515 -0.6218283 -0.120505214 -0.03584451 -0.10437354 -0.14726031 -0.21614757 0.6218671 -0.61490875 0.27977872 0.32825187 -0.07289022 0.10357162 0.02131512 -0.15315549 0.17553648 -0.08005049 -0.1170761 0.13066758 0.13052015 0.015102744 -0.046998333 -0.47824332 -0.30490518 -0.646334 -0.14318724 -0.3698222 -0.36884403 -0.05819091 0.33881217
2098 -0.25948834 -0.17136204 0.2261341 0.24878445 0.37806344 0.05766865 0.38998565 -0.4087845 0.089702904 -0.00014853667 -0.413656 0.20600621 0.1471496 -0.08283744 -0.04891751 -0.19357118 -0.14646545 -0.06642291 -0.61848295 0.18461175 -0.19792631 0.16468814 -0.10063396 -0.6913925 -0.05980403 0.4256615 -0.1483747 -0.13539484 -0.18159014 -0.10929537 0.50782776 0.72711426 0.29140308 0.3894765 -0.25078982 -0.15508795 0.37570405 -0.114272304 -0.52922606 0.22079581 -0.09786979 -0.058275346 -0.39569244 -0.010921785 -0.12061774 0.16303685 -0.47600558 -0.11607657 -0.0017800257 -0.2689687 -0.12432928 0.3329613 0.334871 -0.06575024 -0.53566235 0.016813125 0.4523508 -0.20823586 -0.28319842 -0.0538997 0.17872988 0.30789337 0.54151785 0.0073510995 0.109276146 0.2789474 -0.02952061 -0.07757849 0.05396145 -0.27038324 0.24215847 -0.038175784 -0.17088133 -0.52573425 0.34164172 -0.2280979 -0.22999148 -0.18816611 0.092635565 -0.11612066 -0.0412542 -0.16485655 0.27674806 0.51908356 -0.036850434 0.078195035 0.1467467 -0.065245286 -0.22256722 0.22666016 -0.14755915 -0.30761895 0.62058085 -0.38413712 0.290229 0.045562558 -0.529217 -0.46917477 -0.16140427 -0.14609286 -0.2758409 -0.17660688 0.29627523 -0.33181894 -0.49786714 0.520208 -0.13213739 0.56678563 0.26714835 -0.07101482 -0.018824104 -0.6886229 0.023024537 0.31690487 0.24740072 -0.046139345 -0.24119335 0.3117386 -0.25067967 0.09213155 -0.13817194 -0.59617394 0.00056204974 0.035700075 -0.3289729 -0.118565574 0.06809023 -0.07440113
2569 -0.013223914 0.008532006 0.14476632 -0.08895275 -0.36590847 0.017651904 0.23353991 0.32183307 -0.3488066 0.086860195 0.42472747 0.3808919 0.09622419 0.24231206 0.17639877 0.23324123 -0.2650145 0.24961154 -0.08066998 0.34581518 0.13770348 -0.05096057 -0.018033193 -0.81020355 -0.23477662 -0.1327514 -0.42566034 0.37304908 0.21194822 0.005047061 0.20691822 -0.008329345 -0.075526476 0.024232171 0.31820348 0.13453771 0.14384645 -0.027539287 0.023731396 -0.10044655 0.2543041 0.0694068 -0.17398484 -0.030520083 0.045150034 0.30826613 0.0020275163 -0.24139293 -0.3788025 -0.026887542 0.028307054 -0.08559591 0.43791616 -0.82360125 0.062146615 -0.45413658 -0.25634995 0.18991889 -0.09444743 -0.44629 -0.038108036 0.24237028 0.48900676 0.3240821 0.13825832 -0.17714329 -0.09796515 0.1280394 0.34639415 -0.13384709 -0.14702395 -0.22272836 -0.21759447 0.113420986 0.20953019 -0.22354794 0.029958045 0.21459334 -0.44158253 -0.03388616 -0.2558899 0.11361481 -0.33211473 -0.33034924 0.055629414 0.5507124 0.14318724 -0.38832638 0.037106525 -0.28846693 0.077858955 -0.027988825 0.27115256 -0.030857628 -0.00344304 0.2067956 -0.18283142 -0.14267229 0.32081717 -0.39686638 -0.26050553 -0.18643442 -0.0022586072 -0.24996458 -0.2240636 0.5025344 -0.20638493 0.3286666 0.3252315 0.11176663 -0.1724179 0.16601242 -0.06694857 0.26538065 -0.197708 0.27359664 -0.18893601 0.32256287 0.1305243 -0.04704178 -0.476316 -0.21820723 -0.3861828 -0.15687981 -0.5276231 -0.38752478 0.13107584 0.19555916
2813 0.042509537 -0.1427367 0.12794867 -0.31140587 -0.23315509 0.27762067 0.2678811 -0.13170516 -0.24086264 0.13170607 0.15606265 0.4407078 0.11864006 0.316357 -0.009212412 0.1063791 -0.27920917 0.09865746 -0.110201076 0.2868254 0.088619955 -0.04178422 0.040906277 -0.7536516 -0.029501274 -0.20591177 -0.06682991 0.20409736 0.16844603 -0.08968828 0.27549165 -0.144307 -0.056359284 0.23311043 0.07759662 0.32335696 0.2822164 0.040789187 0.19764982 0.16266023 0.36787802 0.095264755 -0.24332199 -0.33930027 0.039232228 0.19551355 0.06852787 0.14369178 -0.20330583 -0.20814545 0.21570414 -0.283405 0.25926626 -0.5079186 -0.1367318 -0.038527586 0.17928502 -0.17961763 0.2869708 -0.30828556 -0.26612946 0.07504551 0.39426666 0.59003985 0.13513313 -0.4198595 0.24791162 0.22782004 0.0605559 -0.12422023 -0.03736874 -0.101240836 -0.24137627 0.056428015 0.13015744 -0.1480226 0.053730235 0.24670644 -0.30700484 0.039840367 -0.2844507 -0.31422377 -0.2731382 -0.015314833 0.05416304 0.78398985 -0.049960457 -0.5652902 -0.06081121 -0.3987858 0.25131294 -0.1330374 -0.04738668 -0.34192926 -0.0052875215 0.08783132 -0.2649389 0.21264791 0.20882097 -0.24408904 -0.03525327 -0.11762129 -0.2967744 -0.0975898 -0.32905996 0.46665564 0.11453435 0.32127348 -0.049162153 0.00094217784 -0.30550292 -0.33504152 -0.13341038 0.30692777 -0.11662078 0.3021939 -0.6219197 0.5803105 0.047087226 -0.0065772533 -0.2897568 -0.1460297 0.20002566 -0.19932042 -0.0013751268 0.08456375 0.3262703 0.16234614
2784 0.16731304 -0.37086716 0.19828707 -0.43832892 -0.29069972 0.20531519 0.18571438 0.05917869 -0.1768956 -0.2806212 0.15192187 -0.020739786 -0.042038433 0.45858908 0.060334522 0.44476697 -0.14915241 0.21032596 -0.15755722 0.056666527 0.08392471 -0.013296088 0.04652357 -0.38776037 0.14579026 0.008433781 -0.13220708 0.24868967 0.37673804 0.20689939 0.38634732 -0.16028677 0.0025044447 0.06951234 0.1722844 0.18699051 0.2876199 0.20800984 0.12965627 0.00898939 0.23726481 0.021069903 0.012207751 -0.26945686 0.29678634 0.21810113 -0.10422998 -0.40481418 -0.13447432 -0.031246006 0.16128771 -0.21211644 0.47347474 -0.6570542 -0.031078268 -0.2551324 0.08744617 0.022554483 -0.26742473 -0.1936566 -0.42440593 -0.038572963 0.21734606 0.54359794 0.31605127 0.01780948 -0.09254565 -0.006876566 0.10237906 0.08768279 0.08397858 -0.08679141 -0.23374085 0.15666202 -0.016640654 -0.07559468 0.06790476 0.36252698 -0.4767513 0.01933916 -0.3097895 -0.13735007 -0.49089158 -0.39219257 0.29281265 0.5976186 -0.41032445 -0.23295054 -0.11100367 -0.35051933 0.09573148 0.009550207 0.068002895 -0.15458825 0.15091999 0.22950558 -0.22122784 -0.056953616 0.2837184 -0.5432576 0.1254967 -0.097285844 -0.31228417 0.0050861984 -0.048837554 0.24753194 0.021770747 0.21162339 0.25001058 0.096391834 -0.26913023 -0.050380424 -0.14114949 0.6025121 -0.056717347 0.13233034 -0.61773294 0.30775505 0.18695384 0.0983267 -0.31351152 -0.25607535 -0.24353078 -0.34366 -0.12985054 0.13614063 0.12678654 0.082001865
2608 0.20887044 -0.0066605425 0.17579868 -0.027897421 -0.029064596 -0.08946569 0.18851024 0.090052105 -0.102646254 -0.3816739 -0.26740062 0.18960199 0.23525685 0.087694496 -0.45513648 0.43333578 -0.45272097 0.6683971 -0.28821316 -0.24221548 0.12466957 -0.45637754 -0.0023046993 -0.43827766 0.6321972 0.46033487 -0.9596324 0.044618383 -0.026841985 0.24908559 0.30785665 0.3935323 0.063054286 -0.13728692 0.415307 -0.20956858 0.12694407 -0.1649746 -0.23424956 -0.18441954 -0.026799846 -0.3180995 0.18356073 -0.14984812 0.5009942 -0.056943055 -0.52613497 -0.5267413 -0.035778105 0.22265458 -0.32526252 0.06325763 0.33338124 -0.62452304 -0.37390038 -0.56196785 0.3929671 0.30239674 -0.020037884 -0.09297761 -0.5125025 0.08624016 0.102318734 0.64484733 -0.20958678 0.19931093 0.09070842 -0.25509802 -0.2865566 -0.30786017 -0.3024998 -0.13849653 -0.6719587 0.12888348 -0.09189861 -0.71195614 0.3070518 0.19932142 -0.5031395 -0.7027441 -0.21833427 -0.4856378 0.08519462 -0.20076469 0.31348687 0.35620433 -0.39749324 -0.23347469 0.35195732 -0.3959998 -0.2080045 -0.3163793 0.0940127 -0.56095356 -0.03522836 -0.32140404 -0.20033383 -0.058982216 -0.042090695 -0.113148786 0.15359905 0.034226075 0.23173133 0.13564876 0.14166555 0.04976933 -0.4642098 0.0072671664 -0.14640577 -0.026059553 -0.038847286 -0.20311527 -0.14713179 0.09645078 0.04509211 -0.19199578 -0.18676384 0.26758873 -0.13654444 -0.21348806 -0.3001846 -0.66343 -0.047252662 -0.41704792 -0.42962575 0.22138457 -0.20765457 0.11936404
2601 0.06582793 -0.26282844 -0.06652946 -0.38170975 0.02227843 0.27002573 0.093395494 -0.06683635 0.21904127 0.07643332 0.31502575 0.075326376 -0.13532013 0.15253645 -0.10037203 0.122524805 -0.09991808 0.19412848 -0.080383934 -0.17683764 0.07449184 -0.14656587 -0.19907594 -0.39484984 -0.05119908 0.044670388 -0.39696518 0.01722134 0.4466667 -0.089177474 0.04581244 -0.14259002 0.11791927 0.06217397 0.031449188 0.56974226 0.45560604 -0.14190672 0.15021788 -0.12427985 0.13731308 0.22959684 -0.094291374 -0.21163394 0.15661699 -0.13188952 -0.28536248 -0.11961421 -0.044868346 -0.1908763 0.19329704 -0.18045285 0.22436883 -0.20960283 0.0032302951 0.2264693 0.24643557 0.012987662 -0.08579013 -0.033329446 -0.24697556 -0.015979271 0.11990629 0.30033165 0.22575937 -0.041077334 0.21016254 0.018466271 0.05775503 -0.19622473 0.12420134 -0.020451162 0.09809917 0.20527251 -0.27637574 -0.19650254 0.20286022 0.29899755 -0.26656452 0.11052113 -0.22425136 -0.16984752 -0.2667844 0.008832442 -0.00020551804 0.37986267 -0.102090105 -0.18215036 -0.026012715 -0.12547596 -0.19675133 0.0683731 -0.18128024 -0.101042956 -0.012926334 -0.044816367 -0.0039483407 -0.23773053 -0.033556953 -0.10009687 0.045145627 0.22827643 -0.10901888 0.1519928 0.19167426 -0.0358371 0.02833709 -0.01787694 -0.028607337 -0.04612626 0.04686205 -0.1205168 -0.18290336 0.23760808 0.044320196 0.059817664 -0.41876635 0.13334136 0.012322963 0.09180849 -0.31237653 -0.25304496 -0.17986237 -0.20509352 0.15074955 0.08295259 -0.06739462 -0.030346507
2676 -0.04461582 -0.37664366 0.25495777 -0.38733882 -0.0424034 0.18837033 0.08280819 0.13927718 -0.011397188 0.17841594 -0.2532533 -0.09006263 0.16801985 0.20369475 0.009685549 0.14035913 -0.113046154 0.17678078 -0.049361266 0.1293852 0.22290508 0.026071535 -0.11276239 -0.6303399 0.24926303 0.11696728 -0.3900933 0.07093683 0.332961 -0.34319836 0.07569792 -0.20139973 -0.006926757 -0.11798083 0.1792503 0.6153475 0.2933131 -0.097827606 -0.165957 -0.3689202 -0.12427737 -0.29324952 0.019352004 -0.15115339 0.20125498 0.07239523 -0.16472214 -0.39240316 0.045726582 -0.09924314 0.23698643 -0.18082613 0.07770441 -0.6394244 -0.18406029 -0.16181561 -0.006496463 0.086726375 -0.022315275 -0.01506951 -0.3814255 -0.087507516 0.417256 0.47474122 0.10959598 -0.114338756 0.16215704 -0.13160944 -0.09575555 0.11885344 -0.27528924 -0.09734704 -0.5020209 0.5063391 -0.29424852 -0.41779697 0.024508305 0.32695696 -0.5458244 -0.091339506 -0.34769621 -0.19826278 -0.2776735 -0.15912047 0.29375872 0.521569 -0.21079415 -0.44819462 0.32613286 -0.2169361 -0.052533578 -0.031514138 0.024525806 -0.22398391 -0.004102806 0.17694004 -0.22590776 -0.24778688 -0.26546293 -0.2093688 0.3892488 0.22337921 -0.13557543 0.0074538444 0.27314672 0.14109936 -0.4191771 0.35793722 0.2153775 -0.2437873 0.0012578896 -0.13923 -0.17709988 0.0928475 -0.041346956 0.2548576 -0.7097025 0.3193418 -0.21829642 0.05635063 -0.34872812 -0.13064167 -0.17670943 -0.4361944 0.09852274 0.017528052 0.15347335 0.13547239
2597 0.027672745 -0.26340628 0.21399093 -0.27731404 0.019287493 0.26150376 0.08861072 -0.05524326 -0.30206943 0.15446645 0.22500409 -0.01955915 0.02877338 -0.009269469 -0.09555309 0.1649721 -0.34546965 0.4604812 -0.015592506 -0.11518293 -0.20642376 -0.22634204 -0.17739901 -0.26607072 0.08876856 -0.0418857 -0.25789914 0.083019726 0.0910843 0.18501192 0.35359386 -0.042898964 0.20653115 0.22036049 0.09863792 0.4874879 0.6426064 -0.13901956 0.030970192 -0.05611719 0.045784887 -0.088301584 -0.07004612 -0.59383875 0.3626446 0.030902656 -0.17334372 0.10114973 -0.3558164 0.079631224 0.24132107 -0.036036722 0.42059177 -0.42362028 0.16498922 0.26138508 0.6264227 0.10695039 0.14775398 -0.22354694 -0.520718 0.16742998 0.19363442 0.34266013 0.37021327 -0.30782267 0.36375636 0.030240016 -0.16936526 -0.052604105 0.023946788 -0.03968877 -0.11839836 -0.09220447 -0.28120738 -0.43839085 0.22962558 0.38699386 -0.099787086 -0.019052176 -0.10822328 -0.29357794 -0.050482895 0.27878934 0.15754594 0.48017037 -0.03506821 -0.30227092 -0.09404899 -0.3432005 0.092865616 -0.21479647 0.054069355 -0.29728907 0.0038739557 -0.21079405 -0.43303135 -0.29996872 0.06260997 -0.291453 0.15479653 0.1269288 -0.5196275 0.19257261 0.46889475 0.33708808 -0.09923954 0.1579319 -0.13961533 -0.3267916 0.1268058 -0.1067567 -0.24531683 0.14473863 0.13160244 -0.16810337 -0.55420303 0.1116864 0.1459961 0.26592335 -0.27482584 -0.4252171 0.10169089 -0.3652678 0.10183424 0.15214223 -0.059051022 0.037071414
2504 -0.2470304 -0.08469095 0.57745695 0.08454388 0.15920934 -0.23916206 0.21056846 0.17430764 -0.3241394 0.017457334 0.13705142 -0.077867396 0.07904288 -0.21486866 0.6065321 0.27129075 -0.35229316 0.14253788 -0.06989911 0.17912005 0.44831812 0.14702377 -0.26346895 -0.8983191 -0.49093834 0.13972948 -0.2795121 0.42193484 0.17858396 -0.28840107 -0.22830737 -0.29001725 -0.42489058 -0.1107492 0.013079066 0.5144551 0.28709581 0.010606951 -0.030575532 -0.10651949 0.10235588 0.13021564 0.02877679 0.07991397 -0.17194806 0.2971338 0.33948848 -0.5175008 -0.41860545 -0.42718577 0.5159795 0.3926563 0.2182406 -1.0173639 -0.12628542 -0.37867638 -0.035582807 -0.027399305 -0.31832263 -0.18427753 -0.08103907 0.1826017 0.5381842 0.4401032 0.4779715 0.15824516 0.07785116 -0.3215331 0.51144767 -0.201826 -0.14310075 0.0148137305 -0.80820125 -0.16591337 0.15259555 -0.73608315 -0.24927582 0.58512 -0.324654 -0.2948405 -0.34995055 0.37176907 0.14804026 -0.056588013 -0.059741654 0.21375217 0.12178402 -0.59591365 0.24389394 -0.5186122 0.016119137 0.10826416 0.0844257 -0.034884296 0.30801782 0.39936018 -0.44934186 -0.5167622 0.15064128 -0.68695456 -0.112730764 -0.04312863 -0.09476063 -0.14057867 -0.23500592 0.593682 -0.5318513 0.30507597 0.29911533 -0.10783341 0.13102423 0.04559262 -0.20958422 0.2539582 -0.0029815775 -0.18327354 0.082578614 0.1333458 0.13316517 0.078803904 -0.45045304 -0.21036611 -0.7370041 -0.103632666 -0.21590094 -0.36645666 -0.10651781 0.36358345
2782 0.18577516 -0.46383217 0.283828 -0.3313466 -0.28230911 0.2605385 0.267891 -0.060962263 -0.20428365 -0.30928 0.043233432 -0.053177323 -0.047984947 0.39139512 0.045744825 0.39055333 -0.11524453 0.12851453 -0.20547603 -0.040846974 0.15391476 -0.08191663 -0.052085057 -0.3219383 0.20213193 0.030173764 -0.10077793 0.23890847 0.39542437 0.14513175 0.31863028 -0.19348356 0.005681062 0.031041259 0.20194823 0.29211456 0.2996593 0.18525746 0.14109227 -0.10910835 0.22539757 -0.07628641 0.032904178 -0.23281792 0.32380655 0.16662198 -0.052655812 -0.33163863 -0.06004346 -0.092949525 0.28211394 -0.1996118 0.34010378 -0.6226746 -0.011836677 -0.066878185 0.13503486 -0.11171489 -0.1978377 -0.08153829 -0.46977124 -0.041095383 0.22166227 0.57116777 0.35426748 -0.093531236 -0.090788014 -0.054309912 -0.042371973 0.15807755 0.120673075 0.048505597 -0.23874426 0.29471654 -0.06866166 -0.06730109 0.15495203 0.41781017 -0.46223092 -0.025569176 -0.35542768 -0.056107666 -0.5797271 -0.2646574 0.2710557 0.630992 -0.36725086 -0.28390947 0.028452158 -0.2795286 0.10327031 -0.013544587 0.10012109 -0.18805188 0.16107696 0.28101823 -0.16134918 -0.12761138 0.09951871 -0.48314184 0.18633382 -0.011682939 -0.3459254 0.060654126 0.043857746 0.17926206 -0.020570775 0.17457376 0.23273793 0.0028806706 -0.24598995 -0.12289667 -0.19256096 0.4996366 -0.12040371 0.20612532 -0.6280006 0.29953906 0.10192575 0.07468355 -0.19657566 -0.22963558 -0.1981576 -0.3037944 -0.039017797 0.23548779 0.058176577 0.031658463
631 -0.025348349 0.26307788 0.19088483 0.18489423 0.27274755 0.08430009 0.30906156 -0.60592556 0.12189005 -0.27976808 -0.027193565 0.16935487 0.12129325 -0.19581582 0.22295524 0.16665477 -0.28227228 -0.3516256 -0.07079566 -0.023847068 0.16264355 0.686115 -0.06523772 -0.16240968 -0.21368836 0.2937689 -0.4620003 0.03573355 0.03756961 -0.2915856 0.21560541 0.2805349 0.3530828 0.17697579 -0.3468619 0.060382634 0.4101507 -0.006831856 -0.38765368 0.24587296 -0.25685537 0.09982774 -0.096906796 -0.08215217 0.09862205 -0.2129628 -0.244717 -0.15204747 -0.054118074 0.08740457 0.20485581 0.42149824 -0.034713652 -0.28346404 -0.24281071 0.11355257 0.81734544 -0.3754223 -0.31472358 0.19019258 -0.24738468 0.36993036 -0.05855953 -0.2569028 -0.052813012 -0.08040356 -0.049569346 0.10895057 -0.101336546 -0.016134847 0.547584 -0.040428042 -0.4887672 -0.455074 0.088313416 0.060030878 -0.10075771 0.07292527 -0.0062100543 0.05144953 -0.054811716 -0.11942007 0.13569765 0.22484352 0.16581303 0.024316272 -0.21305934 -0.116855964 0.054326575 0.28886056 -0.42089245 -0.43403995 0.13994537 -0.41197315 0.6350507 -0.049431004 -0.03338612 -0.23644456 -0.1511211 -0.042006172 -0.26376215 0.0041653914 0.3014695 0.050465148 -0.41670868 0.16325422 0.018453239 0.31656176 0.05396078 -0.043396477 -0.053221077 -0.41596687 -0.4598042 -0.031741288 0.27792272 -0.16603586 -0.092139795 0.21842796 -0.06694385 -0.020230783 -0.20281221 -0.4584933 -0.2810782 -0.23699023 -0.09631145 -0.35258985 -0.33708462 -0.15141515
307 0.1055721 0.3286017 0.18854089 0.17710395 0.14377734 -0.10276103 0.35693386 -0.555713 -0.06927855 -0.2584759 0.12312093 0.30699563 0.072944 -0.17728846 0.19121875 0.06428139 -0.38068885 -0.42517 -0.09366626 -0.09621847 0.04974476 0.6962657 -0.1907303 -0.16738828 -0.21312582 0.25650445 -0.5333052 0.08812891 0.09213057 -0.19508012 0.29171777 0.24684286 0.40844277 0.19835083 -0.27888963 -0.016752617 0.36077166 -0.010694229 -0.3303011 0.2161385 -0.26920006 0.1347149 -0.0817939 -0.19589509 0.1395572 -0.29264066 -0.23793091 -0.23976298 -0.0019327946 -0.004611603 0.42684475 0.316409 -0.094174504 -0.27895308 -0.071740285 0.16958879 0.7675689 -0.32398045 -0.39303154 0.13632964 -0.23944059 0.44570935 -0.080475144 -0.29043078 -0.05175563 -0.08222736 -0.022872984 0.13511133 -0.05668487 -0.043423846 0.492452 -0.0010127166 -0.54540384 -0.4809584 0.07986558 0.036547266 -0.021722756 0.023840021 0.02575543 -0.06505839 -0.07228317 -0.087592535 0.27866524 0.25522694 0.16367066 0.15617558 -0.35342634 -0.32125357 0.016471693 0.26300174 -0.45761973 -0.4763966 0.11375067 -0.36783418 0.63298595 -0.03993835 -0.047286354 -0.20270635 -0.09361892 0.009741059 -0.3208259 -0.03193225 0.27728644 0.05730637 -0.43470564 0.13447803 0.07534617 0.4213396 0.021620283 -0.1243176 -0.039504476 -0.36298642 -0.46471217 0.021808922 0.3137391 -0.20882483 0.029393889 0.31267166 -0.16699894 0.03890871 -0.23716803 -0.54376656 -0.3604481 -0.31048912 -0.26835698 -0.46899542 -0.43615735 -0.20083128
2611 0.20427254 -0.07216801 0.1222223 -0.13604604 0.20932584 0.32483327 -0.11409691 0.11413889 -0.12578547 -0.05290177 0.27134848 0.001746167 0.039467562 -0.08506521 -0.11936573 0.47538888 -0.60482746 0.6697845 -0.12254074 -0.06282524 -0.18604103 -0.25290635 0.06294495 -0.4387511 0.04712722 0.15439947 -0.61236084 0.07926658 -0.0006924796 0.32324255 0.423066 0.15303159 0.00758427 0.032058183 0.21833849 0.22925322 0.5270789 -0.09031149 0.017580295 0.09461264 0.11358115 0.0033181722 0.008850751 -0.3648896 0.4332653 -0.03755206 -0.4459689 -0.061110463 -0.4424272 0.25624642 0.08659589 0.07679638 0.6623042 -0.3522465 0.02698048 0.01794371 0.84770334 0.27522647 -0.05120055 -0.22304864 -0.6538412 0.11845566 0.14711137 0.45948586 0.3415041 -0.1970866 0.5024443 -0.11463147 -0.2857539 -0.32068154 -0.101324916 -0.14865227 -0.1757696 -0.19702086 -0.06262578 -0.57677114 0.1769534 0.30029163 -0.22164054 -0.11170343 -0.002559509 -0.46707508 0.105893016 0.1190947 0.2296364 0.36802232 0.0025799489 -0.18283817 -0.047412485 -0.4194825 0.006783836 -0.053386427 0.013238624 -0.30757874 -0.0490729 -0.59545004 -0.4858436 -0.12371968 0.052813828 -0.40833434 0.07714331 0.030035961 -0.24074957 0.31129566 0.22867574 0.22563624 -0.02537562 0.028170109 -0.100510776 -0.23357363 0.13974254 -0.26027825 -0.22261812 0.14745119 0.16995443 -0.20822923 -0.2847117 0.2331008 0.2776274 0.27145922 -0.2872469 -0.54076225 -0.07698255 -0.4160587 0.0012494451 0.16650587 -0.01993808 0.038282625
